<?xml version="1.0"?>
<opencv_storage>
<my_svm type_id="opencv-ml-svm">
  <svm_type>C_SVC</svm_type>
  <kernel><type>RBF</type>
    <gamma>1.2500000000000001e-002</gamma></kernel>
  <C>32.</C>
  <term_criteria><epsilon>1.1920928955078125e-007</epsilon>
    <iterations>1000</iterations></term_criteria>
  <var_all>19</var_all>
  <var_count>19</var_count>
  <class_count>42</class_count>
  <class_labels type_id="opencv-matrix">
    <rows>1</rows>
    <cols>42</cols>
    <dt>i</dt>
    <data>
      1 2 3 4 5 6 7 8 9 10 11 12 13 14 15 16 17 18 19 20 21 22 23 24 25
      26 27 28 29 30 31 32 33 34 35 36 37 38 39 40 41 42</data></class_labels>
  <sv_total>1836</sv_total>
  <support_vectors>
    <_>
      3.82692003e+000 6.51938021e-001 8.10886955e+000 4.00973988e+000
      3.70022988e+000 2.01232005e-002 1.67635000e+000 3.11116993e-001
      7.05327019e-002 3.11225012e-004 3.74529009e-005 -1.21540000e-010
      -3.70825001e-006 4.04175005e-009 0. 3.65920991e-001
      6.84207976e-001 7.50768006e-001 9.58212018e-001</_>
    <_>
      2.99248004e+000 6.57459974e-001 1.04509001e+001 3.19476008e+000
      2.97242999e+000 2.07924992e-002 1.63859999e+000 2.58713990e-001
      4.07435000e-002 5.41260000e-004 2.67233991e-004 1.01567998e-007
      5.34784012e-005 3.67927000e-009 0. 4.18089002e-001 6.12056971e-001
      7.45944977e-001 9.56022024e-001</_>
    <_>
      3.28925991e+000 6.83116019e-001 9.88951015e+000 3.45741010e+000
      3.03963995e+000 2.05684993e-002 1.65665996e+000 2.71367013e-001
      4.76868004e-002 2.98625993e-004 1.65379999e-004 3.67512989e-008
      3.60869017e-005 -3.11008996e-010 0. 4.20489997e-001
      6.28040016e-001 7.52719998e-001 9.50514972e-001</_>
    <_>
      3.61818004e+000 6.60906971e-001 8.64883041e+000 3.86863995e+000
      3.50292993e+000 2.03160997e-002 1.68130004e+000 3.01885009e-001
      6.49584010e-002 7.34271016e-005 1.03512002e-005 8.65508012e-011
      -4.47403011e-007 2.71932005e-010 0. 3.93357992e-001
      6.64866984e-001 7.26902008e-001 9.60645020e-001</_>
    <_>
      3.55357003e+000 6.64964974e-001 8.90392017e+000 3.81590009e+000
      3.33267999e+000 2.03255005e-002 1.66725004e+000 2.93929994e-001
      6.03401996e-002 9.92380010e-005 8.47875981e-006 -2.42054987e-010
      -2.07311996e-006 -4.35692003e-011 0. 3.85266989e-001
      6.59573972e-001 7.35403001e-001 9.59478974e-001</_>
    <_>
      3.52212000e+000 6.61559999e-001 8.94427967e+000 3.75479007e+000
      3.32188010e+000 2.02817004e-002 1.65912998e+000 2.87847996e-001
      5.69826998e-002 9.34674972e-005 5.55162987e-005 3.99908995e-009
      1.32076002e-005 3.44409007e-012 0. 3.90343010e-001 6.56243026e-001
      6.97266996e-001 9.56947982e-001</_>
    <_>
      3.15873003e+000 6.49517000e-001 9.76439953e+000 3.43050003e+000
      3.08527994e+000 2.05675997e-002 1.64535999e+000 2.71380007e-001
      4.73897010e-002 4.98528010e-004 2.66307994e-004 9.69710996e-008
      5.76817001e-005 3.47696005e-009 0. 4.00990993e-001 6.34864986e-001
      6.37003005e-001 9.59971011e-001</_>
    <_>
      3.23576999e+000 6.52929008e-001 9.60659981e+000 3.43430996e+000
      3.12609005e+000 2.05511004e-002 1.64927006e+000 2.77821004e-001
      5.09680994e-002 3.49042006e-004 1.97190006e-004 5.17312984e-008
      4.38846000e-005 4.11305989e-010 0. 4.26770985e-001 6.34899020e-001
      7.62795985e-001 9.52862978e-001</_>
    <_>
      3.90195990e+000 6.49595976e-001 7.92713022e+000 4.14173985e+000
      3.66497993e+000 2.01008003e-002 1.68059003e+000 3.18248987e-001
      7.49479011e-002 3.35879013e-004 3.01061009e-005 -2.85541990e-009
      -7.98064957e-006 -1.00590003e-009 0. 3.53749007e-001
      6.91671014e-001 8.11625004e-001 9.62948024e-001</_>
    <_>
      3.46087003e+000 6.29276991e-001 8.65832996e+000 3.58694005e+000
      3.23798990e+000 2.02831998e-002 1.65278995e+000 2.86819011e-001
      5.55601008e-002 9.92345042e-004 5.88327996e-004 4.49531996e-007
      1.38675998e-004 -1.23958996e-010 0. 3.50737989e-001
      6.73310995e-001 9.35831010e-001 9.63966012e-001</_>
    <_>
      3.68518996e+000 6.59768999e-001 8.48610973e+000 4.01817989e+000
      3.63209009e+000 2.02764999e-002 1.68282998e+000 3.13493013e-001
      7.20082000e-002 2.22438000e-004 1.32354005e-004 2.27071997e-008
      3.46808010e-005 3.31363992e-010 0. 3.89721990e-001 6.68613017e-001
      8.49924028e-001 9.54473972e-001</_>
    <_>
      3.34454012e+000 6.26978993e-001 8.91998959e+000 3.52643991e+000
      3.19718003e+000 2.03393009e-002 1.64578998e+000 2.80250996e-001
      5.17547987e-002 1.04847003e-003 5.99971972e-004 4.75837993e-007
      1.36143994e-004 -4.04727007e-009 0. 3.91952991e-001
      6.60674989e-001 9.02442992e-001 9.55161989e-001</_>
    <_>
      3.68518996e+000 6.35248005e-001 8.20429993e+000 4.00995016e+000
      3.47944999e+000 2.00472996e-002 1.65700996e+000 3.04293990e-001
      6.63869008e-002 7.11106986e-005 4.16654984e-005 2.26794006e-009
      1.07002998e-005 -3.07198993e-012 0. 3.78246009e-001
      6.79157019e-001 8.36058021e-001 9.54735994e-001</_>
    <_>
      3.46087003e+000 6.48656011e-001 8.92226028e+000 3.65155005e+000
      3.35051990e+000 2.03235000e-002 1.65657997e+000 2.92250007e-001
      5.91889992e-002 4.71381994e-004 2.75261991e-004 9.91490978e-008
      6.67193017e-005 -8.86992979e-010 0. 3.98912996e-001
      6.55139029e-001 8.20062995e-001 9.51771021e-001</_>
    <_>
      3.86407995e+000 6.49827003e-001 7.99172020e+000 4.09329987e+000
      3.68279004e+000 2.01315004e-002 1.68315995e+000 3.13277006e-001
      7.17459023e-002 6.42376981e-005 4.14419992e-005 2.13792006e-009
      1.10461997e-005 -3.69227010e-011 0. 3.80549014e-001
      6.86206996e-001 9.55667973e-001 9.55407977e-001</_>
    <_>
      3.52212000e+000 6.40780985e-001 8.66329002e+000 3.71675992e+000
      3.39692998e+000 2.02597007e-002 1.65733004e+000 2.94292986e-001
      6.02268018e-002 4.48414008e-004 2.59802997e-004 8.85668996e-008
      6.10897987e-005 -4.39961001e-009 0. 3.95345986e-001
      6.63384020e-001 9.72505987e-001 9.57722008e-001</_>
    <_>
      3.37287998e+000 6.39106989e-001 9.02280998e+000 3.69548988e+000
      3.29419994e+000 2.04163007e-002 1.65400004e+000 2.90659994e-001
      5.81751987e-002 4.43038996e-004 2.19836002e-004 6.82766981e-008
      4.92649997e-005 6.72512979e-009 0. 3.96533012e-001 6.53650999e-001
      8.29218984e-001 9.56620991e-001</_>
    <_>
      3.52212000e+000 6.37668014e-001 8.62077045e+000 3.75488997e+000
      3.39435005e+000 2.02964004e-002 1.66041994e+000 2.95062006e-001
      6.04677014e-002 6.60059974e-004 3.62727005e-004 1.77128001e-007
      8.54493992e-005 1.12478000e-008 0. 3.68277013e-001 6.70410991e-001
      7.41208971e-001 9.60304022e-001</_>
    <_>
      3.01515007e+000 6.56892002e-001 1.03739004e+001 3.19470000e+000
      2.98007011e+000 2.07912996e-002 1.63993001e+000 2.59651989e-001
      4.12858017e-002 5.08186000e-004 2.54298007e-004 9.13747016e-008
      5.13494997e-005 -2.77473000e-009 0. 4.33061004e-001
      6.10413015e-001 8.89470994e-001 9.47061002e-001</_>
    <_>
      3.31666994e+000 6.81280971e-001 9.77647018e+000 3.49291992e+000
      3.10712004e+000 2.05240995e-002 1.65710998e+000 2.73409992e-001
      4.87617999e-002 3.06503993e-004 1.71446998e-004 3.92995005e-008
      3.78024015e-005 4.26196994e-010 0. 3.92764986e-001 6.37143016e-001
      8.23576987e-001 9.53453004e-001</_>
    <_>
      3.75471997e+000 6.55553997e-001 8.27851963e+000 3.99833989e+000
      3.54225993e+000 2.01645009e-002 1.67962003e+000 3.11884999e-001
      7.10479021e-002 1.35381997e-004 7.29105013e-005 7.21923010e-009
      1.82089007e-005 -5.96091010e-010 0. 3.85300010e-001
      6.77839994e-001 8.12027991e-001 9.58670974e-001</_>
    <_>
      3.58558989e+000 6.69167995e-001 8.87889957e+000 3.78209996e+000
      3.38909006e+000 2.03041993e-002 1.66902006e+000 2.94048011e-001
      6.03329018e-002 1.39639000e-004 1.19697997e-005 -4.76657991e-010
      -2.88609999e-006 -1.10791001e-010 0. 3.88597012e-001
      6.59480989e-001 8.26801002e-001 9.56444025e-001</_>
    <_>
      3.71963000e+000 6.62683010e-001 8.42895985e+000 4.02192020e+000
      3.68128991e+000 2.02223994e-002 1.68481004e+000 3.10797006e-001
      7.03160986e-002 2.08455996e-004 1.21174999e-004 1.92529992e-008
      3.11305994e-005 -4.64930011e-010 0. 3.67222995e-001
      6.72940016e-001 7.13362992e-001 9.59398985e-001</_>
    <_>
      3.55357003e+000 6.67668998e-001 8.94698048e+000 3.71736002e+000
      3.34498000e+000 2.03054994e-002 1.66433001e+000 2.89205015e-001
      5.77403009e-002 9.83221980e-005 5.61993984e-005 4.17679002e-009
      1.33269004e-005 -8.05102027e-011 0. 3.95823002e-001
      6.55529022e-001 8.18450987e-001 9.54515994e-001</_>
    <_>
      3.23576999e+000 6.62765026e-001 9.72091007e+000 3.41330004e+000
      3.11341000e+000 2.05304995e-002 1.65277004e+000 2.71564007e-001
      4.75312993e-002 4.84043994e-004 2.57428997e-004 9.08147015e-008
      5.58118008e-005 -3.22411009e-009 0. 4.34807003e-001
      6.30065978e-001 8.05100977e-001 9.51407015e-001</_>
    <_>
      3.28925991e+000 6.56921029e-001 9.51010036e+000 3.46489000e+000
      3.22252989e+000 2.04712003e-002 1.64884996e+000 2.81502992e-001
      5.31107001e-002 3.75350995e-004 2.17980007e-004 6.23511980e-008
      4.99909002e-005 7.17743989e-011 0. 3.71737987e-001 6.48736000e-001
      8.98552001e-001 9.62311983e-001</_>
    <_>
      3.26230001e+000 6.59146011e-001 9.62117004e+000 3.40762997e+000
      3.09523010e+000 2.04702001e-002 1.64559996e+000 2.70466000e-001
      4.70627993e-002 2.78041989e-004 1.50242995e-004 3.06918011e-008
      3.20040017e-005 9.90290960e-010 0. 4.05167013e-001 6.38203025e-001
      7.56259024e-001 9.54934001e-001</_>
    <_>
      2.45678997e+000 6.36050999e-001 1.23283005e+001 2.61350989e+000
      2.49895000e+000 2.14761999e-002 1.60312998e+000 2.30176002e-001
      2.63420995e-002 6.23988977e-004 2.28379999e-004 8.58494005e-008
      3.56255987e-005 -7.91377985e-009 0. 4.97480005e-001
      5.55446982e-001 7.51675010e-001 9.46343005e-001</_>
    <_>
      3.49123001e+000 6.28922999e-001 8.57479000e+000 3.68836999e+000
      3.34445000e+000 2.03064997e-002 1.65858996e+000 2.87764996e-001
      5.57582006e-002 6.12334989e-004 1.41807002e-004 3.43836994e-008
      1.45063004e-005 -2.37470008e-008 0. 3.86492997e-001
      6.70961022e-001 7.43438005e-001 9.56623971e-001</_>
    <_>
      3.20968008e+000 6.76041007e-001 1.00296001e+001 3.35175991e+000
      3.05058002e+000 2.06387006e-002 1.65278995e+000 2.67760992e-001
      4.57893983e-002 1.61877004e-004 9.15261990e-005 1.11398997e-008
      1.94869008e-005 -1.29687996e-010 0. 4.11385000e-001
      6.28252029e-001 7.69949973e-001 9.58818018e-001</_>
    <_>
      3.68518996e+000 6.21917009e-001 8.03625965e+000 3.98146009e+000
      3.48146009e+000 2.00605001e-002 1.65725005e+000 3.00866008e-001
      6.41551986e-002 8.90130977e-005 2.37472996e-005 9.67448011e-010
      3.49031006e-006 5.06058973e-010 0. 3.75153005e-001 6.83506012e-001
      7.65012980e-001 9.56718981e-001</_>
    <_>
      3.65138006e+000 6.41487002e-001 8.36328983e+000 3.85823989e+000
      3.51097012e+000 2.01574005e-002 1.66248000e+000 3.00613999e-001
      6.39351010e-002 3.64034000e-004 8.79740983e-005 1.31990001e-008
      1.05980998e-005 -8.58170957e-009 0. 3.71713996e-001
      6.76689982e-001 6.95062995e-001 9.60213006e-001</_>
    <_>
      3.55357003e+000 6.21264994e-001 8.32176971e+000 3.71812010e+000
      3.24985003e+000 2.01791003e-002 1.65463996e+000 2.88632005e-001
      5.67044988e-002 5.55709004e-004 3.07843991e-004 1.27261998e-007
      7.16088034e-005 -4.06345002e-009 0. 3.52831990e-001
      6.82335019e-001 8.15263987e-001 9.61970985e-001</_>
    <_>
      3.68518996e+000 6.34037971e-001 8.18867016e+000 3.97270989e+000
      3.51657009e+000 2.00590007e-002 1.65797997e+000 3.05694014e-001
      6.72392026e-002 8.55245016e-005 4.82241012e-005 3.09605008e-009
      1.23034997e-005 7.64779975e-011 0. 3.51301014e-001 6.84108019e-001
      6.60301983e-001 9.62848008e-001</_>
    <_>
      3.43103004e+000 6.23266995e-001 8.64758015e+000 3.78096008e+000
      3.26396990e+000 2.01500002e-002 1.63924003e+000 2.85777003e-001
      5.54624014e-002 1.33861002e-004 7.68354003e-005 7.79231968e-009
      1.80024999e-005 2.60116009e-011 0. 3.91413003e-001 6.67034984e-001
      8.49547029e-001 9.55905974e-001</_>
    <_>
      2.97014999e+000 6.53566003e-001 1.04716997e+001 3.11671996e+000
      2.87563992e+000 2.07899995e-002 1.63461006e+000 2.53039002e-001
      3.77780013e-002 4.00343997e-004 1.78621005e-004 4.74819011e-008
      3.21912994e-005 5.19903987e-009 0. 4.42754000e-001 6.08087003e-001
      1.03568995e+000 9.49766994e-001</_>
    <_>
      3.49123001e+000 6.38257027e-001 8.64939022e+000 3.66282010e+000
      3.39349008e+000 2.02737991e-002 1.66599000e+000 2.85064995e-001
      5.42684011e-002 4.45543992e-004 1.78110000e-004 4.92744014e-008
      3.44305990e-005 9.45753964e-009 0. 4.10104990e-001 6.63797975e-001
      1.04812002e+000 9.52216983e-001</_>
    <_>
      3.03817010e+000 6.33855999e-001 9.93078041e+000 3.19175005e+000
      2.88244009e+000 2.05859002e-002 1.62737000e+000 2.56233990e-001
      3.91378999e-002 5.46196010e-004 2.45656993e-004 8.95796006e-008
      4.52097011e-005 -8.52705018e-009 0. 4.19815004e-001
      6.28504992e-001 7.16876984e-001 9.51925993e-001</_>
    <_>
      3.43103004e+000 6.15858972e-001 8.54306984e+000 3.71280003e+000
      3.24026990e+000 2.02437993e-002 1.64719999e+000 2.85881996e-001
      5.53563982e-002 9.59297031e-005 4.86534009e-005 3.31886008e-009
      1.09523999e-005 -1.82800997e-010 0. 4.14575994e-001
      6.67469025e-001 8.38904023e-001 9.52032030e-001</_>
    <_>
      3.46087003e+000 6.41620994e-001 8.82818031e+000 3.58694005e+000
      3.26722002e+000 2.02993006e-002 1.65409994e+000 2.83587992e-001
      5.37488014e-002 9.51442984e-004 5.12741972e-004 3.57651004e-007
      1.15609000e-004 1.85057001e-008 0. 3.96586001e-001 6.61682010e-001
      7.78741002e-001 9.57544982e-001</_>
    <_>
      4.18946981e+000 6.35361016e-001 7.21514988e+000 4.35208988e+000
      3.94846010e+000 1.99193005e-002 1.69052005e+000 3.38860005e-001
      8.85004029e-002 2.01428003e-004 8.08898985e-005 1.00783000e-008
      1.91752006e-005 2.24491004e-009 0. 3.17407012e-001 7.16844022e-001
      6.41233981e-001 9.65982020e-001</_>
    <_>
      3.49123001e+000 6.30762994e-001 8.60249996e+000 3.72308993e+000
      3.39798999e+000 2.02354994e-002 1.65227997e+000 2.95583993e-001
      6.14160001e-002 4.84410994e-005 2.57806005e-005 9.08190023e-010
      6.00621979e-006 7.22343019e-011 0. 3.70994002e-001 6.71588004e-001
      6.80490971e-001 9.62373018e-001</_>
    <_>
      2.72603011e+000 6.53833985e-001 1.14167004e+001 2.88596010e+000
      2.67838001e+000 2.10462995e-002 1.61789000e+000 2.44705006e-001
      3.35877016e-002 5.79163025e-004 2.60186003e-004 1.00977999e-007
      4.76376990e-005 2.18304996e-009 0. 4.53538001e-001 5.85696995e-001
      7.62153983e-001 9.53261018e-001</_>
    <_>
      3.28925991e+000 6.22586012e-001 9.00634956e+000 3.40889001e+000
      3.13663006e+000 2.03901008e-002 1.64354002e+000 2.74892986e-001
      4.90671992e-002 1.94834996e-004 1.07758002e-004 1.56086006e-008
      2.36771994e-005 4.03091005e-010 0. 3.87212008e-001 6.56971991e-001
      7.16121018e-001 9.58835006e-001</_>
    <_>
      3.43103004e+000 6.38710976e-001 8.86320972e+000 3.78391004e+000
      3.37212992e+000 2.02916004e-002 1.65050006e+000 2.93547988e-001
      5.98847009e-002 4.84354008e-004 2.86088005e-004 1.06493999e-007
      6.98435979e-005 4.55173010e-010 0. 3.67092013e-001 6.63800001e-001
      6.92203999e-001 9.62306023e-001</_>
    <_>
      3.13386011e+000 6.09108984e-001 9.25166035e+000 3.35240006e+000
      2.96853995e+000 2.04699002e-002 1.63053000e+000 2.64358014e-001
      4.29667011e-002 8.56255996e-004 4.65858000e-004 2.94224009e-007
      9.64447026e-005 -1.31823996e-009 0. 4.10317987e-001
      6.45947993e-001 7.54131019e-001 9.54214990e-001</_>
    <_>
      3.37287998e+000 6.51233017e-001 9.19423962e+000 3.58693004e+000
      3.23720002e+000 2.04568002e-002 1.65723002e+000 2.83540994e-001
      5.39909005e-002 4.54327004e-004 1.72180007e-004 4.70332004e-008
      3.31422998e-005 -1.03433004e-008 0. 3.88682008e-001
      6.50902987e-001 7.77821004e-001 9.60474014e-001</_>
    <_>
      3.65138006e+000 6.39539003e-001 8.31937027e+000 3.90161991e+000
      3.45396996e+000 2.01622993e-002 1.66658998e+000 3.01131010e-001
      6.42744005e-002 1.02197002e-004 5.05345015e-005 3.61029007e-009
      1.13178003e-005 3.93066996e-010 0. 3.86626989e-001 6.75929010e-001
      9.47845995e-001 9.53481019e-001</_>
    <_>
      3.34454012e+000 6.52442992e-001 9.28561020e+000 3.58766007e+000
      3.20191002e+000 2.03606002e-002 1.64691997e+000 2.84902990e-001
      5.50745986e-002 2.25202006e-004 1.10294000e-004 1.73093007e-008
      2.39624005e-005 1.59373004e-009 0. 4.29796010e-001 6.43460989e-001
      9.85907018e-001 9.50694025e-001</_>
    <_>
      3.52212000e+000 6.43360972e-001 8.69771957e+000 3.71746993e+000
      3.37852001e+000 2.03187000e-002 1.66224003e+000 2.92277008e-001
      5.89330010e-002 5.66368981e-004 3.03436012e-004 1.25488995e-007
      7.03494006e-005 -8.71728023e-009 0. 3.74518991e-001
      6.67147994e-001 6.75705016e-001 9.59748983e-001</_>
    <_>
      6.41935015e+000 6.10450983e-001 4.52831984e+000 7.33009005e+000
      6.42222977e+000 1.96818002e-002 1.78857005e+000 5.50022006e-001
      2.73598999e-001 7.09126983e-003 3.56725999e-003 1.75652003e-005
      1.44612999e-003 -3.65678011e-006 0. 2.30230004e-001
      8.07748973e-001 4.79647011e-001 9.71031010e-001</_>
    <_>
      6.63332987e+000 6.28893971e-001 4.51456022e+000 7.57250023e+000
      6.40106010e+000 1.96754001e-002 1.79583001e+000 5.63970029e-001
      2.89489001e-001 6.27870020e-003 3.20440996e-003 1.40865995e-005
      1.34104001e-003 2.85655005e-006 0. 2.58834004e-001 8.05442989e-001
      8.92090976e-001 9.62544978e-001</_>
    <_>
      7.23636007e+000 6.87506020e-001 4.52230978e+000 7.86525011e+000
      7.26043987e+000 1.96714997e-002 1.81597996e+000 5.72089016e-001
      3.01021993e-001 2.40153004e-003 2.15647998e-003 4.90751017e-006
      1.18313998e-003 -8.37864000e-009 0. 2.69308001e-001
      8.04805994e-001 1.04630995e+000 9.60147023e-001</_>
    <_>
      6.74575996e+000 6.75410986e-001 4.76534986e+000 7.30384016e+000
      6.52148008e+000 1.95541009e-002 1.78953004e+000 5.35197020e-001
      2.60315001e-001 9.97724943e-004 7.56894995e-004 6.57325984e-007
      3.64095991e-004 -2.35336000e-008 0. 2.73667991e-001
      7.97011971e-001 9.39747989e-001 9.59775984e-001</_>
    <_>
      6.52459002e+000 6.56726003e-001 4.79301977e+000 7.29732990e+000
      6.45947981e+000 1.97308995e-002 1.79692996e+000 5.56843996e-001
      2.80396014e-001 5.75869018e-003 1.04421994e-003 9.64064043e-007
      -3.86815009e-005 2.37222002e-006 0. 2.74123013e-001
      7.94909000e-001 8.42140973e-001 9.57888007e-001</_>
    <_>
      5.85294008e+000 6.56906009e-001 5.34179020e+000 6.39086008e+000
      5.94712019e+000 1.97476000e-002 1.77234006e+000 4.90224987e-001
      2.12519005e-001 5.85287018e-003 3.84333008e-003 1.81706000e-005
      1.60901004e-003 1.44937997e-006 0. 2.64595985e-001 7.79183984e-001
      4.81058002e-001 9.68151987e-001</_>
    <_>
      6.41935015e+000 6.56629980e-001 4.87013006e+000 7.30253983e+000
      5.87051010e+000 1.98082998e-002 1.80033004e+000 5.61038971e-001
      2.85627007e-001 5.16965007e-003 1.04836002e-003 1.28603995e-006
      3.78332006e-005 -2.07427001e-006 0. 2.67221987e-001
      7.92672992e-001 4.60743010e-001 9.63061988e-001</_>
    <_>
      6.74575996e+000 6.32016003e-001 4.46120977e+000 7.30216980e+000
      6.78424978e+000 1.95454005e-002 1.78792000e+000 5.60584009e-001
      2.87088990e-001 7.02450005e-003 5.87669015e-003 3.77522010e-005
      3.08214989e-003 -6.50165020e-007 0. 2.37491995e-001
      8.09480011e-001 5.34596980e-001 9.69070017e-001</_>
    <_>
      5.23683977e+000 7.10691988e-001 6.45906019e+000 5.52722979e+000
      5.43210983e+000 1.99274998e-002 1.75829995e+000 4.35263008e-001
      1.63684994e-001 1.19793997e-003 9.30904003e-004 9.83038944e-007
      3.76339012e-004 3.95487021e-009 0. 3.22919995e-001 7.38125026e-001
      6.40730023e-001 9.60287988e-001</_>
    <_>
      7.37036991e+000 6.41843021e-001 4.14675999e+000 7.86374998e+000
      7.43620014e+000 1.94592997e-002 1.79967999e+000 6.04097009e-001
      3.38337988e-001 4.10667993e-003 3.41715990e-003 1.27989997e-005
      1.92812004e-003 2.25628000e-007 0. 2.42699996e-001 8.20407987e-001
      8.46574008e-001 9.64281976e-001</_>
    <_>
      5.76811981e+000 6.53047979e-001 5.39003992e+000 6.38994980e+000
      5.92752981e+000 1.97560992e-002 1.76880002e+000 4.91459996e-001
      2.13609993e-001 5.77234989e-003 3.64638004e-003 1.66546997e-005
      1.50446000e-003 -1.57443003e-006 0. 2.94813991e-001
      7.74680972e-001 8.47442985e-001 9.60596025e-001</_>
    <_>
      6.74575996e+000 6.30909026e-001 4.45263004e+000 7.30280018e+000
      6.79100990e+000 1.95640009e-002 1.78992999e+000 5.67466974e-001
      2.94790000e-001 7.04870000e-003 5.90641005e-003 3.81040009e-005
      3.13481991e-003 6.79541984e-007 0. 2.56476998e-001 8.08465004e-001
      9.55704987e-001 9.63689983e-001</_>
    <_>
      5.23683977e+000 6.88441992e-001 6.25942993e+000 5.67959023e+000
      5.54419994e+000 1.98945999e-002 1.75468004e+000 4.39390987e-001
      1.67178005e-001 1.57576997e-003 1.24175998e-003 1.73700005e-006
      5.06947981e-004 -8.81462014e-009 0. 3.33198011e-001
      7.42829025e-001 9.11145985e-001 9.51035023e-001</_>
    <_>
      7.37036991e+000 6.13669991e-001 3.96474004e+000 8.40316010e+000
      7.71077013e+000 1.94474999e-002 1.79858994e+000 6.31788015e-001
      3.71221006e-001 1.56461000e-002 1.26791000e-002 1.78533999e-004
      7.49205006e-003 -4.03372997e-006 0. 2.12091997e-001
      8.27847004e-001 4.90087986e-001 9.72474992e-001</_>
    <_>
      7.37036991e+000 6.40052021e-001 4.13266993e+000 7.86614990e+000
      7.12337017e+000 1.95108000e-002 1.80553997e+000 6.08537018e-001
      3.42931002e-001 7.98639003e-003 6.01859996e-003 4.16973016e-005
      3.35470005e-003 -1.57884995e-006 0. 2.54651994e-001
      8.19788992e-001 5.26926994e-001 9.63994026e-001</_>
    <_>
      5.52778006e+000 6.73716009e-001 5.79652023e+000 5.84520006e+000
      5.20285988e+000 1.98350009e-002 1.76631999e+000 4.48639989e-001
      1.73534006e-001 2.75930995e-003 1.28851004e-003 2.36302003e-006
      3.98511998e-004 5.64844981e-007 0. 3.06596994e-001 7.60219991e-001
      7.06083000e-001 9.61740971e-001</_>
    <_>
      7.50942993e+000 6.29942000e-001 3.99461007e+000 8.17819977e+000
      7.62418985e+000 1.94862001e-002 1.80612004e+000 6.30949974e-001
      3.70106012e-001 1.60990991e-002 1.30463000e-002 1.89027007e-004
      7.69742997e-003 4.27302984e-006 0. 2.23675996e-001 8.26113999e-001
      9.21096027e-001 9.68972981e-001</_>
    <_>
      7.37036991e+000 6.48567021e-001 4.19019985e+000 7.86374998e+000
      7.53666019e+000 1.95172001e-002 1.80504000e+000 6.03908002e-001
      3.37352991e-001 6.51504984e-003 4.54200990e-003 2.46613999e-005
      2.44808011e-003 1.51070003e-006 0. 2.39043996e-001 8.18494022e-001
      8.02846014e-001 9.66135025e-001</_>
    <_>
      5.85294008e+000 6.77246988e-001 5.50988007e+000 6.59540987e+000
      5.40319014e+000 1.97426993e-002 1.77103996e+000 4.80522990e-001
      2.02813998e-001 4.14277986e-003 1.57146004e-003 3.74608999e-006
      4.62327007e-004 -1.42957003e-006 0. 2.97827005e-001
      7.69195974e-001 8.43626976e-001 9.56167996e-001</_>
    <_>
      5.60562992e+000 6.54062986e-001 5.55108976e+000 5.84424019e+000
      5.66513014e+000 1.97617002e-002 1.76295996e+000 4.68001992e-001
      1.91083997e-001 2.62487005e-003 1.16959994e-003 1.97638997e-006
      3.57009994e-004 -5.41806003e-007 0. 3.17162991e-001
      7.67235994e-001 8.49509001e-001 9.54684019e-001</_>
    <_>
      6.86207008e+000 6.49411023e-001 4.50610018e+000 7.57279015e+000
      6.55057001e+000 1.95202008e-002 1.78961003e+000 5.71236014e-001
      2.98619002e-001 4.27789008e-003 1.98195991e-003 5.58954980e-006
      7.97181972e-004 1.43606997e-006 0. 2.45850995e-001 8.06720972e-001
      4.44698006e-001 9.68038023e-001</_>
    <_>
      6.86207008e+000 6.51489973e-001 4.52053022e+000 7.85824013e+000
      6.81599998e+000 1.95193999e-002 1.78954005e+000 5.66896975e-001
      2.93576002e-001 4.24765982e-003 1.91627000e-003 5.27294014e-006
      7.44485005e-004 -1.44422995e-006 0. 2.63442010e-001
      8.05204988e-001 8.16272020e-001 9.59604979e-001</_>
    <_>
      6.98246002e+000 6.85730994e-001 4.67608023e+000 7.86404991e+000
      6.70009995e+000 1.94920003e-002 1.79095995e+000 5.58075011e-001
      2.85636991e-001 1.95548008e-003 1.68649002e-003 3.06268998e-006
      9.00158018e-004 6.39762998e-009 0. 2.56114990e-001 7.99690008e-001
      7.86713004e-001 9.61243987e-001</_>
    <_>
      6.31746006e+000 6.59249008e-001 4.96869993e+000 6.81550980e+000
      6.30546999e+000 1.96371004e-002 1.78079998e+000 5.25497019e-001
      2.48420998e-001 6.00185990e-003 3.78907006e-003 1.79822000e-005
      1.67785003e-003 -1.77172001e-006 0. 2.76084989e-001
      7.89034009e-001 7.75112987e-001 9.58727002e-001</_>
    <_>
      6.21875000e+000 6.65867984e-001 5.09864998e+000 6.72251987e+000
      6.06654978e+000 1.96419004e-002 1.77724004e+000 5.01394987e-001
      2.24809006e-001 2.36362009e-003 1.52763003e-003 2.89282002e-006
      6.52473012e-004 -2.40373993e-007 0. 2.49412999e-001
      7.87442982e-001 5.60113013e-001 9.69289005e-001</_>
    <_>
      5.94029999e+000 6.12015009e-001 4.90605021e+000 7.13990021e+000
      5.86539984e+000 1.97883006e-002 1.77891004e+000 5.38402021e-001
      2.59036005e-001 6.43061986e-003 8.00298993e-004 -8.19568982e-007
      -2.83467001e-004 1.62002004e-006 0. 2.60598987e-001
      7.92212009e-001 4.56436008e-001 9.66072977e-001</_>
    <_>
      5.68570995e+000 6.61126971e-001 5.53580999e+000 6.01407003e+000
      5.55591011e+000 1.97486002e-002 1.76435006e+000 4.63063002e-001
      1.87232003e-001 3.08131007e-003 1.62541005e-003 3.58879993e-006
      5.80892025e-004 5.93624975e-007 0. 2.65809000e-001 7.71462023e-001
      4.55743015e-001 9.67648983e-001</_>
    <_>
      6.41935015e+000 6.73245013e-001 4.99403000e+000 6.81524992e+000
      6.24956989e+000 1.96468998e-002 1.78542995e+000 5.12642026e-001
      2.36294001e-001 2.49489001e-003 1.68542005e-003 3.44800992e-006
      7.50686973e-004 2.36195007e-007 0. 2.58334994e-001 7.90069997e-001
      8.23929012e-001 9.65381980e-001</_>
    <_>
      5.85294008e+000 6.03366017e-001 4.90865993e+000 7.14007998e+000
      5.60366011e+000 1.98518001e-002 1.78087997e+000 5.47437012e-001
      2.69046992e-001 6.25522016e-003 7.40120013e-004 -9.83844984e-007
      -3.04749992e-004 -1.25222004e-006 0. 2.51623988e-001
      7.93496013e-001 7.40176022e-001 9.67204988e-001</_>
    <_>
      6.41935015e+000 6.54278994e-001 4.85270023e+000 7.30253983e+000
      5.99655008e+000 1.98656004e-002 1.80553997e+000 5.67286015e-001
      2.92508990e-001 5.31492010e-003 1.10802997e-003 1.48772995e-006
      5.25362993e-005 2.23983989e-006 0. 2.64261007e-001 7.93977976e-001
      7.61548996e-001 9.63554978e-001</_>
    <_>
      7.23636007e+000 6.65624022e-001 4.37989998e+000 7.66248989e+000
      7.46581984e+000 1.94798000e-002 1.79765999e+000 6.06076002e-001
      3.41215014e-001 2.10510008e-003 1.59480004e-003 2.92002005e-006
      8.87860020e-004 -1.10317998e-007 0. 2.56538004e-001
      8.09759974e-001 8.63991976e-001 9.58073974e-001</_>
    <_>
      6.63332987e+000 6.60301983e-001 4.73987007e+000 7.33027983e+000
      5.96959019e+000 1.97292008e-002 1.80078995e+000 5.66393018e-001
      2.91258991e-001 5.81608014e-003 1.23517995e-003 1.90455000e-006
      8.09495032e-005 -2.70792998e-006 0. 2.55005985e-001
      7.97299027e-001 4.82645005e-001 9.65381980e-001</_>
    <_>
      8.29166985e+000 6.80092990e-001 3.90538001e+000 9.29388046e+000
      7.94932985e+000 1.93441007e-002 1.81323004e+000 6.48108006e-001
      3.93866003e-001 3.88465007e-003 3.06758005e-003 1.05848003e-005
      1.85157999e-003 -3.11701001e-007 0. 2.44810000e-001
      8.30343008e-001 7.93853998e-001 9.61323023e-001</_>
    <_>
      4.97499990e+000 5.39604008e-001 5.16095018e+000 7.05287981e+000
      4.27880001e+000 2.01839991e-002 1.76647997e+000 5.41079998e-001
      2.57432014e-001 1.45054003e-002 4.66301013e-003 3.29622017e-005
      1.12048001e-003 1.96012006e-005 0. 2.99472988e-001 7.82285988e-001
      8.72204006e-001 9.53764975e-001</_>
    <_>
      6.41935015e+000 6.26924992e-001 4.64948988e+000 7.66314983e+000
      7.18073988e+000 1.98563002e-002 1.80482996e+000 5.35026014e-001
      2.57551998e-001 4.97807004e-003 1.71622995e-003 4.51837013e-006
      5.24951029e-004 -2.17913998e-006 0. 2.47728005e-001
      8.03323984e-001 6.05553985e-001 9.65524018e-001</_>
    <_>
      5.23683977e+000 6.09677017e-001 5.54031992e+000 5.85539007e+000
      4.86222982e+000 1.96848009e-002 1.73708999e+000 4.03825015e-001
      1.36588007e-001 6.89193024e-004 4.22637997e-004 2.27547005e-007
      1.47254003e-004 -1.58684994e-008 0. 2.75682986e-001
      7.71804988e-001 6.67039990e-001 9.64405000e-001</_>
    <_>
      7.10714006e+000 6.40725970e-001 4.29123020e+000 7.57393980e+000
      6.79440022e+000 1.94492992e-002 1.79150999e+000 5.66456974e-001
      2.94427007e-001 1.58985995e-003 1.08343002e-003 1.41864996e-006
      5.38356020e-004 -9.66221023e-008 0. 2.45623007e-001
      8.14760029e-001 6.54256999e-001 9.63904977e-001</_>
    <_>
      7.80391979e+000 6.54473007e-001 3.98785996e+000 8.51764965e+000
      7.90147018e+000 1.94293000e-002 1.81145000e+000 6.28630996e-001
      3.68301004e-001 6.61827996e-003 5.75585989e-003 3.55240991e-005
      3.46907997e-003 2.99909999e-007 0. 2.35587001e-001 8.28535974e-001
      7.87670016e-001 9.65195000e-001</_>
    <_>
      6.03030014e+000 6.12685025e-001 4.83296013e+000 6.98779011e+000
      5.58720016e+000 1.97813995e-002 1.78401995e+000 5.06735027e-001
      2.24713996e-001 7.84870982e-003 1.29240996e-003 9.61774958e-007
      -1.23392005e-004 4.00228009e-006 0. 2.66660005e-001
      7.95235991e-001 9.12091017e-001 9.67559993e-001</_>
    <_>
      6.74575996e+000 6.36849999e-001 4.48636007e+000 7.55948019e+000
      6.50084019e+000 1.96726006e-002 1.80315995e+000 5.41351020e-001
      2.64714003e-001 2.83815991e-003 9.83427046e-004 1.47806998e-006
      2.71639001e-004 7.17406010e-007 0. 2.37379000e-001 8.09427023e-001
      6.11573994e-001 9.68056977e-001</_>
    <_>
      5.52778006e+000 6.43616974e-001 5.54019022e+000 5.97449017e+000
      5.33773994e+000 1.95790008e-002 1.74269998e+000 4.31403011e-001
      1.60198003e-001 5.70433971e-004 4.29595006e-004 2.12626006e-007
      1.69753999e-004 3.99470013e-009 0. 2.54137009e-001 7.73779988e-001
      5.56901991e-001 9.69318986e-001</_>
    <_>
      5.37837982e+000 6.23812020e-001 5.52277994e+000 5.82040024e+000
      5.07452011e+000 1.97269004e-002 1.74717999e+000 4.18426991e-001
      1.48820996e-001 1.10747998e-004 1.97847003e-005 4.45564002e-010
      -1.17044003e-007 -8.11878009e-010 0. 3.07684988e-001
      7.70389020e-001 8.39911997e-001 9.55835998e-001</_>
    <_>
      5.30667019e+000 6.82947993e-001 6.12077999e+000 5.78644991e+000
      5.43509007e+000 1.97262000e-002 1.74548995e+000 4.47827995e-001
      1.74553007e-001 1.18758006e-003 9.48821020e-004 1.00707996e-006
      3.93041992e-004 1.42427004e-008 0. 3.17530990e-001 7.47482002e-001
      7.35403001e-001 9.53613997e-001</_>
    <_>
      5.60562992e+000 6.35111988e-001 5.39505005e+000 6.19853020e+000
      5.72002983e+000 1.99340992e-002 1.77677000e+000 4.43280011e-001
      1.66765004e-001 4.27585002e-003 4.61141986e-004 -5.14476028e-007
      -1.65368998e-004 3.93213014e-007 0. 3.02361995e-001
      7.74309993e-001 9.73514020e-001 9.58257020e-001</_>
    <_>
      6.31746006e+000 6.17751002e-001 4.65642023e+000 7.08395004e+000
      6.17538023e+000 1.95505992e-002 1.77277994e+000 4.81449991e-001
      2.04128996e-001 3.17924004e-003 1.66030996e-003 3.75739000e-006
      6.16468024e-004 6.58000999e-007 0. 2.66144991e-001 8.01018000e-001
      6.04974985e-001 9.62123990e-001</_>
    <_>
      6.03030014e+000 6.40112996e-001 5.05214024e+000 6.39086008e+000
      5.89658022e+000 1.95681993e-002 1.76381004e+000 4.73022997e-001
      1.97519004e-001 5.15156018e-004 2.74619990e-004 1.02126002e-007
      1.06339998e-004 1.54775996e-008 0. 2.82770008e-001 7.88695991e-001
      8.04898977e-001 9.58196998e-001</_>
    <_>
      6.52459002e+000 6.43689990e-001 4.69492006e+000 7.04822016e+000
      6.49292994e+000 1.96413007e-002 1.78989995e+000 5.22485971e-001
      2.46436998e-001 1.13401003e-003 3.67722998e-004 2.09215997e-007
      9.58033997e-005 1.12320002e-007 0. 2.45175004e-001 8.02205980e-001
      6.74004972e-001 9.66570020e-001</_>
    <_>
      6.98246002e+000 6.20162010e-001 4.22614002e+000 7.87833977e+000
      6.77226019e+000 1.94821004e-002 1.79123998e+000 5.52733004e-001
      2.78347999e-001 3.68784997e-003 2.32100999e-003 6.75794990e-006
      1.08483003e-003 -6.64292997e-007 0. 2.36618996e-001
      8.18078995e-001 5.93312025e-001 9.67464030e-001</_>
    <_>
      5.23683977e+000 6.84077978e-001 6.20302010e+000 5.53353977e+000
      5.14555979e+000 2.01111007e-002 1.77855003e+000 4.13255990e-001
      1.43854007e-001 1.37663004e-003 3.78172990e-004 2.26652006e-007
      6.95850031e-005 1.51931005e-007 0. 2.95226991e-001 7.49294996e-001
      6.83564007e-001 9.62370992e-001</_>
    <_>
      8.12244987e+000 6.34755015e-001 3.71795011e+000 8.89340973e+000
      7.76615000e+000 1.93409994e-002 1.81034994e+000 5.99748015e-001
      3.33341986e-001 1.34670001e-003 9.62549995e-004 1.09432995e-006
      5.16036001e-004 -5.85737006e-008 0. 2.27348998e-001
      8.36863995e-001 6.57896996e-001 9.65520024e-001</_>
    <_>
      6.86207008e+000 4.77798015e-001 3.31557989e+000 9.73608017e+000
      6.03436995e+000 1.97500009e-002 1.81053996e+000 7.46863008e-001
      5.19984007e-001 2.19219998e-002 3.34795006e-003 5.91403023e-007
      -8.19458975e-004 -2.86758004e-005 0. 2.11998999e-001
      8.51512015e-001 6.63664997e-001 9.66916978e-001</_>
    <_>
      5.85294008e+000 6.48334026e-001 5.25395012e+000 6.40186977e+000
      5.67312002e+000 1.96129996e-002 1.76633000e+000 4.50495005e-001
      1.76548004e-001 8.59104985e-005 2.27301007e-005 8.11521017e-010
      5.16698992e-006 -5.91895977e-010 0. 2.87665993e-001
      7.79484987e-001 9.01347995e-001 9.65924025e-001</_>
    <_>
      7.23636007e+000 6.41937017e-001 4.22424984e+000 7.85787010e+000
      6.80220985e+000 1.95845999e-002 1.80724001e+000 5.58525980e-001
      2.84128994e-001 5.20364987e-003 2.75395997e-003 1.02683998e-005
      1.21677003e-003 1.80185998e-006 0. 2.50880003e-001 8.16918015e-001
      8.13942015e-001 9.64179993e-001</_>
    <_>
      5.45205021e+000 6.91437006e-001 6.03263998e+000 5.84469986e+000
      5.46737003e+000 1.97106991e-002 1.75121999e+000 4.52113986e-001
      1.78405002e-001 1.19761995e-003 9.58984019e-004 1.02761999e-006
      4.01683006e-004 -1.43897001e-008 0. 2.95157999e-001
      7.51881003e-001 8.56486022e-001 9.68196988e-001</_>
    <_>
      6.74575996e+000 6.22967005e-001 4.39480019e+000 7.77468014e+000
      6.75277996e+000 1.96806993e-002 1.80133998e+000 5.60494006e-001
      2.85598010e-001 2.98601994e-003 9.04905028e-004 1.25332997e-006
      2.10013997e-004 -8.01094018e-007 0. 2.45977998e-001
      8.11969995e-001 9.22846019e-001 9.70727980e-001</_>
    <_>
      5.60562992e+000 6.21451974e-001 5.27861023e+000 6.31295013e+000
      5.71267986e+000 1.98577009e-002 1.77008998e+000 4.51647013e-001
      1.74236998e-001 4.34134016e-003 4.88110993e-004 -4.70173006e-007
      -1.62166005e-004 -5.32734987e-007 0. 2.95446992e-001
      7.78442025e-001 1.01499999e+000 9.66578007e-001</_>
    <_>
      6.21875000e+000 6.11593008e-001 4.68127012e+000 6.81654978e+000
      5.99048996e+000 1.97289996e-002 1.78579998e+000 5.08669972e-001
      2.30210006e-001 5.93252014e-003 3.60697997e-003 1.65857000e-005
      1.51872996e-003 -1.82131998e-006 0. 2.57066995e-001
      8.00421000e-001 8.37040007e-001 9.67038989e-001</_>
    <_>
      6.21875000e+000 6.46259010e-001 4.94783020e+000 6.59584999e+000
      6.20147991e+000 1.95601992e-002 1.77008998e+000 4.89347011e-001
      2.13193998e-001 5.63086011e-004 2.59202003e-004 9.63970024e-008
      9.57337033e-005 -2.26614993e-008 0. 2.72489011e-001
      7.91917026e-001 8.92179012e-001 9.64927018e-001</_>
    <_>
      6.86207008e+000 6.74277008e-001 4.67551994e+000 7.57531023e+000
      6.47898006e+000 1.96815003e-002 1.80560005e+000 5.35813987e-001
      2.60414004e-001 1.10712997e-003 2.01759001e-004 3.83003993e-008
      -5.32099011e-006 -8.73265975e-008 0. 2.66725004e-001
      8.00202012e-001 8.42947006e-001 9.66116011e-001</_>
    <_>
      7.10714006e+000 6.23609006e-001 4.17699003e+000 7.57357979e+000
      6.96688986e+000 1.95057001e-002 1.79654002e+000 5.59147000e-001
      2.85385013e-001 3.55800008e-003 2.18614005e-003 6.06177991e-006
      1.02446997e-003 6.54812027e-007 0. 2.34284997e-001 8.19114983e-001
      8.22090983e-001 9.70687985e-001</_>
    <_>
      5.16882992e+000 6.74623013e-001 6.17983007e+000 5.69549990e+000
      4.99746990e+000 2.00971998e-002 1.77873003e+000 4.23171014e-001
      1.51912004e-001 1.40466006e-003 2.77207000e-004 9.83033033e-008
      1.73669996e-005 -1.42329995e-007 0. 3.13234001e-001
      7.46215999e-001 8.59583974e-001 9.65757012e-001</_>
    <_>
      7.65385008e+000 5.95090985e-001 3.70126009e+000 8.96734047e+000
      7.51886988e+000 1.93796996e-002 1.80078995e+000 6.16209984e-001
      3.51538002e-001 5.27507998e-003 3.12692998e-003 1.26045998e-005
      1.61118002e-003 -1.55049997e-006 0. 2.34240994e-001
      8.36154997e-001 7.70806015e-001 9.64865029e-001</_>
    <_>
      6.21875000e+000 6.37032986e-001 4.86681986e+000 6.60286999e+000
      6.07403994e+000 1.96435004e-002 1.78141999e+000 4.84203994e-001
      2.07149997e-001 1.79221004e-003 5.93583973e-004 5.49418019e-007
      1.64986996e-004 -2.70132006e-007 0. 2.59503007e-001
      7.93522000e-001 8.47204030e-001 9.70435977e-001</_>
    <_>
      6.41935015e+000 6.15253985e-001 4.56047010e+000 6.81778002e+000
      6.34416008e+000 1.96180008e-002 1.78411996e+000 5.08455992e-001
      2.31984004e-001 5.23824012e-004 3.06305010e-004 1.21799005e-007
      1.30141998e-004 1.47909001e-008 0. 2.51637012e-001 8.05221975e-001
      9.03702974e-001 9.70255971e-001</_>
    <_>
      6.12307978e+000 6.27290010e-001 4.86949015e+000 6.82141018e+000
      5.89173985e+000 1.96535997e-002 1.77767003e+000 4.83049989e-001
      2.06578001e-001 2.91829987e-004 7.55142028e-005 8.87076013e-009
      1.68822007e-005 6.85384993e-009 0. 2.76930988e-001 7.93420017e-001
      8.65679979e-001 9.67106998e-001</_>
    <_>
      7.50942993e+000 6.24467015e-001 3.95784998e+000 8.34204006e+000
      7.25597000e+000 1.94582995e-002 1.80446005e+000 5.77853024e-001
      3.07195008e-001 2.88778008e-003 2.45152996e-003 6.52285007e-006
      1.35873002e-003 4.57576999e-009 0. 2.36111000e-001 8.26305985e-001
      8.70844007e-001 9.68200028e-001</_>
    <_>
      9.94999981e+000 7.43592978e-001 3.54233003e+000 1.07855997e+001
      8.47486019e+000 1.94847994e-002 1.86819005e+000 7.68684983e-001
      5.63023984e-001 4.06828988e-003 2.76421010e-003 9.24175038e-006
      1.91103003e-003 7.18063006e-007 0. 2.11786002e-001 8.42594981e-001
      1.02034998e+000 9.73384976e-001</_>
    <_>
      5.68570995e+000 6.24191999e-001 5.22655010e+000 6.19347000e+000
      5.54403019e+000 1.95947997e-002 1.75060999e+000 4.52506989e-001
      1.78201005e-001 6.01392007e-004 1.30408996e-004 2.38158009e-008
      1.30766002e-005 -2.76872001e-008 0. 2.68712997e-001
      7.82311022e-001 7.90214002e-001 9.68665004e-001</_>
    <_>
      5.94029999e+000 6.03820980e-001 4.82558012e+000 6.79174995e+000
      5.76514006e+000 1.96150001e-002 1.76873004e+000 4.72070992e-001
      1.95819005e-001 6.11666008e-004 1.25341001e-004 2.02132995e-008
      6.72805982e-006 -2.82116002e-008 0. 2.61298001e-001
      7.95675993e-001 9.22481000e-001 9.69398022e-001</_>
    <_>
      6.98246002e+000 5.74032009e-001 3.91417003e+000 7.86428022e+000
      6.92505980e+000 1.94111001e-002 1.78362000e+000 5.52886009e-001
      2.77711004e-001 8.28501023e-003 7.04598986e-003 5.38302993e-005
      3.64247011e-003 -6.60647004e-007 0. 2.43263006e-001
      8.28504026e-001 8.17242026e-001 9.65947986e-001</_>
    <_>
      5.68570995e+000 6.29881978e-001 5.27325010e+000 6.34116983e+000
      5.44495010e+000 1.97158996e-002 1.76173997e+000 4.50726986e-001
      1.76092997e-001 1.31050998e-003 4.26710991e-004 2.84171989e-007
      1.01352998e-004 -1.45149997e-007 0. 2.73265004e-001
      7.80907989e-001 6.84584022e-001 9.62671995e-001</_>
    <_>
      9.04545021e+000 6.31880999e-001 3.32647991e+000 1.02228003e+001
      9.39818001e+000 1.95001997e-002 1.84422004e+000 7.46990025e-001
      5.29430985e-001 7.52576021e-003 4.49110009e-003 2.58634009e-005
      2.73873005e-003 3.57897011e-006 0. 2.08260000e-001 8.50835025e-001
      7.29950011e-001 9.67258990e-001</_>
    <_>
      2.12834001e+000 5.23479998e-001 1.16854000e+001 2.29064012e+000
      1.89980996e+000 2.13783998e-002 1.53111994e+000 1.84882000e-001
      7.21652992e-003 5.40666997e-006 1.80118002e-006 5.35646007e-012
      1.02476001e-007 -1.70352003e-012 0. 4.45017993e-001
      5.78620970e-001 4.94181007e-001 9.52935994e-001</_>
    <_>
      2.22345996e+000 6.12307012e-001 1.31134996e+001 2.34649992e+000
      1.96515000e+000 2.14824993e-002 1.55634999e+000 1.91175997e-001
      1.06627000e-002 5.38122003e-006 3.42449994e-007 6.46456020e-014
      -1.21347998e-008 -4.60359019e-013 0. 4.53070998e-001
      5.50999999e-001 4.58714992e-001 9.55560029e-001</_>
    <_>
      2.23596001e+000 5.68593979e-001 1.21092997e+001 2.36447001e+000
      1.92130995e+000 2.12846994e-002 1.54469001e+000 1.90734997e-001
      1.00379996e-002 1.53278997e-005 3.03912998e-006 1.94794996e-011
      2.41231987e-007 7.12813012e-012 0. 4.77780998e-001 5.62545002e-001
      5.76713026e-001 9.44172025e-001</_>
    <_>
      2.35503006e+000 5.78521013e-001 1.16966000e+001 2.48444009e+000
      2.14646006e+000 2.13680994e-002 1.57552004e+000 1.98191002e-001
      1.28020998e-002 1.67104998e-004 5.45549010e-005 5.17658005e-009
      5.89159981e-006 5.79273018e-010 0. 4.72333997e-001 5.76844990e-001
      7.37015009e-001 9.40490007e-001</_>
    <_>
      2.22345996e+000 6.08946025e-001 1.30408001e+001 2.37169003e+000
      1.94886994e+000 2.14609001e-002 1.55486000e+000 1.91984996e-001
      1.09273000e-002 9.91613979e-006 6.46614012e-007 2.09298006e-013
      -2.35037998e-008 1.62390999e-012 0. 5.16067028e-001
      5.34713984e-001 7.91082978e-001 9.32123005e-001</_>
    <_>
      2.21111012e+000 5.68773985e-001 1.22442999e+001 2.31176996e+000
      1.96984005e+000 2.13047992e-002 1.54141998e+000 1.91348001e-001
      1.02150999e-002 1.77526999e-005 3.94837980e-006 3.23329002e-011
      3.59810997e-007 -6.88053000e-012 0. 4.90678012e-001
      5.62444985e-001 9.36372995e-001 9.39406991e-001</_>
    <_>
      1.80089998e+000 5.47448993e-001 1.44709997e+001 1.89918995e+000
      1.59922004e+000 2.23264992e-002 1.50820994e+000 1.72508001e-001
      3.30766989e-003 2.13477997e-005 5.64567017e-006 6.19391968e-011
      3.21509987e-007 2.23934998e-012 0. 4.68955010e-001 5.23196995e-001
      4.30855989e-001 9.54890013e-001</_>
    <_>
      2.08377004e+000 5.34998000e-001 1.22252998e+001 2.21600008e+000
      1.86392999e+000 2.16326006e-002 1.53536999e+000 1.85727999e-001
      7.58625008e-003 7.25555001e-005 1.30722001e-005 3.94902000e-010
      8.84227006e-007 -7.82855031e-011 0. 4.63889986e-001
      5.60497999e-001 5.01851022e-001 9.47999001e-001</_>
    <_>
      1.93203998e+000 5.89416027e-001 1.45228004e+001 2.06258011e+000
      1.75197995e+000 2.22391002e-002 1.53961003e+000 1.80814996e-001
      6.34443015e-003 1.92033003e-005 4.03866989e-006 3.51552017e-011
      3.02370012e-007 5.39594021e-012 0. 5.36939025e-001 4.99951005e-001
      5.47379971e-001 9.37395990e-001</_>
    <_>
      2.08377004e+000 5.54499984e-001 1.26695995e+001 2.17523003e+000
      1.79917002e+000 2.16330998e-002 1.53557003e+000 1.83497995e-001
      7.18626985e-003 2.19407993e-005 6.39552991e-006 7.57190005e-011
      4.75028003e-007 2.50023006e-012 0. 4.37065989e-001 5.64813018e-001
      4.82127994e-001 9.57799971e-001</_>
    <_>
      2.21111012e+000 5.73248029e-001 1.23452997e+001 2.34622002e+000
      1.98607004e+000 2.12920997e-002 1.53991997e+000 1.92811996e-001
      1.09519996e-002 6.97373980e-006 1.28602005e-006 3.65734006e-012
      1.09637000e-007 1.20673003e-012 0. 4.31340009e-001 5.68777025e-001
      5.21309972e-001 9.56340015e-001</_>
    <_>
      2.22345996e+000 5.46756029e-001 1.16669998e+001 2.37149000e+000
      2.01775002e+000 2.13364996e-002 1.55140996e+000 1.92498997e-001
      1.01701999e-002 6.44247993e-005 1.24508997e-005 3.38801986e-010
      7.13446980e-007 9.77991993e-011 0. 4.60566998e-001 5.80609977e-001
      4.99105990e-001 9.46401000e-001</_>
    <_>
      2.13978004e+000 5.60442984e-001 1.24588003e+001 2.31921005e+000
      1.94850004e+000 2.15434004e-002 1.54369998e+000 1.90267995e-001
      9.50276013e-003 3.66854983e-005 5.70217981e-006 7.93762001e-011
      4.05271010e-007 -2.23856992e-011 0. 4.75279003e-001
      5.55015981e-001 5.24131000e-001 9.46096003e-001</_>
    <_>
      2.08377004e+000 5.55822015e-001 1.26953001e+001 2.17548990e+000
      1.82086003e+000 2.16163993e-002 1.53491998e+000 1.84146002e-001
      7.36356992e-003 2.86594004e-005 8.52721041e-006 1.33211997e-010
      6.55942017e-007 -4.96974987e-012 0. 4.95725006e-001
      5.45360982e-001 8.16549003e-001 9.38140988e-001</_>
    <_>
      2.22345996e+000 5.74070990e-001 1.22945995e+001 2.35068989e+000
      2.00906992e+000 2.12827008e-002 1.54188001e+000 1.93338007e-001
      1.11426003e-002 4.60153979e-006 1.06584002e-006 2.30530005e-012
      1.04373001e-007 -5.07129007e-013 0. 4.96221989e-001
      5.52595973e-001 8.64156008e-001 9.31564987e-001</_>
    <_>
      2.12834001e+000 5.62713027e-001 1.25834999e+001 2.29091001e+000
      1.92637002e+000 2.15760991e-002 1.54253995e+000 1.90936998e-001
      9.67114046e-003 3.64558982e-005 7.16184013e-006 1.13797000e-010
      5.75548995e-007 2.10248000e-011 0. 5.15146971e-001 5.48201978e-001
      9.43615019e-001 9.24560010e-001</_>
    <_>
      2.18681002e+000 5.60253024e-001 1.21995001e+001 2.31607008e+000
      1.97165000e+000 2.13088002e-002 1.53580999e+000 1.92175999e-001
      1.05502997e-002 3.46414004e-006 9.17853015e-007 1.63561005e-012
      9.14345009e-008 5.86264978e-014 0. 4.40685987e-001 5.71763992e-001
      4.89571989e-001 9.51927006e-001</_>
    <_>
      2.07292008e+000 5.44911981e-001 1.24512997e+001 2.20022988e+000
      1.88777995e+000 2.16048993e-002 1.53889000e+000 1.85991004e-001
      7.67531013e-003 1.21284997e-004 3.88801018e-005 2.66158007e-009
      3.40402994e-006 2.10570006e-010 0. 4.55653995e-001 5.62955022e-001
      4.64709997e-001 9.52198029e-001</_>
    <_>
      1.89523995e+000 5.64321995e-001 1.41766996e+001 2.00557995e+000
      1.68184996e+000 2.21526995e-002 1.52330995e+000 1.76877007e-001
      4.79832012e-003 2.41717007e-005 5.25542009e-006 5.87589005e-011
      2.82875988e-007 7.47922991e-012 0. 5.51240981e-001 5.06478012e-001
      8.32656980e-001 9.27129984e-001</_>
    <_>
      2.35503006e+000 6.30854011e-001 1.27132998e+001 2.48848009e+000
      2.14238000e+000 2.13376004e-002 1.57837999e+000 2.02922001e-001
      1.52326003e-002 2.25107997e-005 9.21309038e-006 1.32377997e-010
      1.13405997e-006 -8.93640977e-012 0. 5.18507004e-001
      5.42291999e-001 6.23462975e-001 9.37390029e-001</_>
    <_>
      2.18681002e+000 5.59749007e-001 1.21887999e+001 2.32096004e+000
      1.94362998e+000 2.12987997e-002 1.53505003e+000 1.92320004e-001
      1.05504002e-002 4.32475008e-006 1.59695003e-006 4.19625012e-012
      1.64029998e-007 6.64802008e-014 0. 4.90862012e-001 5.60805023e-001
      8.57935011e-001 9.33655024e-001</_>
    <_>
      2.09473991e+000 5.49199998e-001 1.24797001e+001 2.19571996e+000
      1.90426004e+000 2.16432009e-002 1.53928006e+000 1.86061993e-001
      7.71653978e-003 1.17310999e-004 3.57936005e-005 2.31178010e-009
      3.12408997e-006 -1.88089003e-010 0. 5.07197022e-001
      5.51937997e-001 7.74294972e-001 9.32269990e-001</_>
    <_>
      1.95097995e+000 5.32662988e-001 1.29997997e+001 2.06857991e+000
      1.65751004e+000 2.18180995e-002 1.51516998e+000 1.78279996e-001
      4.92896978e-003 2.50311996e-006 2.39846003e-007 1.36174004e-013
      9.06825992e-009 -1.26463998e-013 0. 5.24271011e-001
      5.37006974e-001 8.54471028e-001 9.32675004e-001</_>
    <_>
      1.90430999e+000 5.57596982e-001 1.39410000e+001 2.01647997e+000
      1.67753994e+000 2.21117008e-002 1.52298999e+000 1.76015005e-001
      4.61649988e-003 2.17671004e-005 3.30374996e-006 2.80010997e-011
      1.44994004e-007 9.23784053e-013 0. 5.12776971e-001 5.19894004e-001
      4.97947007e-001 9.45316017e-001</_>
    <_>
      2.34118009e+000 6.32795990e-001 1.28350000e+001 2.47376990e+000
      2.12102008e+000 2.13943999e-002 1.57892001e+000 2.02970996e-001
      1.52807999e-002 1.81438008e-005 7.68910013e-006 9.05883007e-011
      9.41128008e-007 6.46953021e-012 0. 5.32980025e-001 5.37086010e-001
      8.45843971e-001 9.23467994e-001</_>
    <_>
      2.03061008e+000 5.69357991e-001 1.33516998e+001 2.15169001e+000
      1.83109999e+000 2.17861999e-002 1.53318000e+000 1.84687003e-001
      7.79767986e-003 3.57596000e-005 7.32563012e-006 1.18477006e-010
      6.45518014e-007 4.61626007e-012 0. 4.66190010e-001 5.43138981e-001
      4.66044992e-001 9.53809023e-001</_>
    <_>
      1.77679002e+000 5.94832003e-001 1.58973999e+001 1.87803996e+000
      1.60604000e+000 2.24718992e-002 1.51445997e+000 1.74458995e-001
      4.40745009e-003 1.78940008e-005 2.22352992e-006 1.40047002e-011
      1.35389001e-007 7.63154026e-013 0. 5.28684974e-001 4.79815006e-001
      4.77266997e-001 9.46732998e-001</_>
    <_>
      2.03061008e+000 5.79542994e-001 1.35836000e+001 2.18092990e+000
      1.79324996e+000 2.17180997e-002 1.52916002e+000 1.83458999e-001
      7.48451985e-003 1.91907002e-005 2.18658010e-006 1.41382999e-011
      1.84672999e-007 8.57020997e-013 0. 5.11476994e-001 5.27571976e-001
      4.97431010e-001 9.38888013e-001</_>
    <_>
      2.04102993e+000 5.73759973e-001 1.33760996e+001 2.15214992e+000
      1.85249996e+000 2.17749998e-002 1.53614998e+000 1.85398996e-001
      8.06526002e-003 3.54334006e-005 7.63357002e-006 1.25440006e-010
      6.85541977e-007 -5.12280019e-012 0. 5.24531007e-001
      5.25256991e-001 7.73765981e-001 9.30203021e-001</_>
    <_>
      1.76889002e+000 5.97521007e-001 1.60559998e+001 1.87179005e+000
      1.60433996e+000 2.25491002e-002 1.51575994e+000 1.74522996e-001
      4.42543020e-003 1.80169991e-005 2.67250994e-006 1.85422008e-011
      1.71888999e-007 -3.06333003e-013 0. 5.79851985e-001
      4.57695007e-001 7.86826015e-001 9.28122997e-001</_>
    <_>
      2.01009989e+000 5.79019010e-001 1.37160997e+001 2.10784006e+000
      1.78877997e+000 2.17735004e-002 1.52722001e+000 1.82326004e-001
      7.01919990e-003 2.26910997e-005 3.07487994e-006 2.56663996e-011
      2.50168995e-007 -9.64010013e-013 0. 5.61800003e-001
      5.13850987e-001 9.65290010e-001 9.20671999e-001</_>
    <_>
      2.04102993e+000 5.16189992e-001 1.20369997e+001 2.20424008e+000
      1.83425999e+000 2.15491001e-002 1.51981997e+000 1.81540996e-001
      5.88343991e-003 2.81589996e-006 1.87921003e-007 -7.68128982e-014
      1.31456996e-008 1.13079000e-013 0. 4.68535990e-001 5.65217972e-001
      5.22908986e-001 9.45128024e-001</_>
    <_>
      2.21111012e+000 5.58229029e-001 1.20221004e+001 2.33150005e+000
      1.96013999e+000 2.13434994e-002 1.54359996e+000 1.89062998e-001
      9.48880985e-003 2.65341005e-005 9.71296959e-006 1.55643998e-010
      9.28373026e-007 -9.45022966e-012 0. 4.39350992e-001
      5.71886003e-001 4.95604992e-001 9.52611029e-001</_>
    <_>
      1.97029996e+000 5.04433990e-001 1.21911001e+001 2.12413001e+000
      1.75768006e+000 2.16787998e-002 1.51039004e+000 1.77226007e-001
      4.56925016e-003 1.21335997e-005 4.73423000e-007 8.42074999e-013
      3.11436992e-008 -7.60515999e-013 0. 4.46182996e-001
      5.64963996e-001 6.04156017e-001 9.50742006e-001</_>
    <_>
      2.15135002e+000 4.86900985e-001 1.07674999e+001 2.29554009e+000
      1.90645003e+000 2.12977007e-002 1.52847004e+000 1.88161999e-001
      7.31491018e-003 2.00759996e-006 3.13507007e-006 4.00634994e-012
      2.56179987e-007 -6.76836018e-012 0. 4.42431003e-001
      6.03507996e-001 5.28262019e-001 9.49759007e-001</_>
    <_>
      2.12834001e+000 4.97534007e-001 1.11063004e+001 2.29279995e+000
      1.82166004e+000 2.14677993e-002 1.53752005e+000 1.84166998e-001
      5.67445997e-003 2.62726011e-004 3.39612016e-005 3.17175997e-009
      2.41591010e-006 4.80466000e-010 0. 3.86642009e-001 6.11860991e-001
      5.49798012e-001 9.66512024e-001</_>
    <_>
      2.06218004e+000 4.94194001e-001 1.14098997e+001 2.17325997e+000
      1.82508004e+000 2.15648003e-002 1.52553999e+000 1.82574004e-001
      5.27857011e-003 7.06158971e-005 5.75851982e-006 1.14199997e-010
      1.02248002e-007 2.10430996e-011 0. 4.54623014e-001 5.87585986e-001
      5.78350008e-001 9.52156007e-001</_>
    <_>
      2.17486000e+000 5.06610990e-001 1.10921001e+001 2.29496002e+000
      1.87588000e+000 2.13296991e-002 1.53467000e+000 1.82420999e-001
      6.15902990e-003 3.03056004e-005 1.48543995e-006 6.41296001e-012
      5.89081992e-008 7.62924966e-012 0. 3.88159007e-001 6.08667016e-001
      5.27154028e-001 9.64366019e-001</_>
    <_>
      2.09473991e+000 4.87946004e-001 1.10906000e+001 2.25415993e+000
      1.85976005e+000 2.13929992e-002 1.52110004e+000 1.81664005e-001
      5.29938983e-003 1.14529001e-004 1.00424004e-005 3.37688988e-010
      7.14491023e-007 -4.42667014e-011 0. 4.09521997e-001
      6.06746018e-001 5.24357975e-001 9.60246027e-001</_>
    <_>
      1.72293997e+000 5.97288013e-001 1.64953003e+001 1.81745005e+000
      1.56211996e+000 2.28908993e-002 1.52243996e+000 1.72377005e-001
      3.50141991e-003 6.87686997e-006 1.68636996e-006 5.71587005e-012
      9.72641985e-008 -5.55622009e-013 0. 5.70243001e-001
      4.53934014e-001 5.13034999e-001 9.38840985e-001</_>
    <_>
      2.16303992e+000 5.08172989e-001 1.11771002e+001 2.28662992e+000
      1.94102001e+000 2.13421993e-002 1.53428996e+000 1.84159994e-001
      6.96747983e-003 4.05113997e-006 5.20145022e-007 2.69865998e-013
      -4.42202996e-010 -7.05175013e-013 0. 4.34350014e-001
      5.93663990e-001 5.19986987e-001 9.51032996e-001</_>
    <_>
      2.19889998e+000 5.06531000e-001 1.09415998e+001 2.30833006e+000
      1.90919006e+000 2.12718006e-002 1.53964996e+000 1.84046999e-001
      6.53616991e-003 2.63380007e-005 1.12662997e-006 2.46465999e-012
      2.28919994e-008 -5.62048021e-012 0. 4.22553986e-001
      6.05768025e-001 8.42971981e-001 9.51341987e-001</_>
    <_>
      1.99000001e+000 4.66960013e-001 1.11732998e+001 2.22122002e+000
      1.77635002e+000 2.15588007e-002 1.50711000e+000 1.81437999e-001
      5.12260990e-003 1.26522995e-004 1.25043998e-005 4.96301999e-010
      8.80338973e-007 3.25201012e-011 0. 4.42923009e-001 5.98196983e-001
      8.21838975e-001 9.48148012e-001</_>
    <_>
      1.73043001e+000 6.00557029e-001 1.64846001e+001 1.83764994e+000
      1.58377004e+000 2.28295997e-002 1.52347004e+000 1.72611997e-001
      3.56635009e-003 8.50187007e-006 1.67018004e-006 6.26762010e-012
      9.46306002e-008 5.71676007e-013 0. 6.08177006e-001 4.45140004e-001
      7.94610023e-001 9.15207028e-001</_>
    <_>
      2.09473991e+000 5.22930026e-001 1.18748999e+001 2.26400995e+000
      1.84951997e+000 2.14828998e-002 1.52889001e+000 1.85525000e-001
      7.26353005e-003 9.72929956e-006 2.95069003e-006 1.48419992e-011
      1.39080996e-007 5.44660020e-012 0. 4.83375013e-001 5.70479989e-001
      8.96561980e-001 9.42242980e-001</_>
    <_>
      2.23596001e+000 5.03268003e-001 1.07097998e+001 2.37428999e+000
      1.97546995e+000 2.12565996e-002 1.54383004e+000 1.90000996e-001
      8.28410964e-003 6.55362965e-005 2.70452001e-005 1.13543996e-009
      2.22060999e-006 8.49705029e-011 0. 4.11321014e-001 6.12344980e-001
      8.29281986e-001 9.53818023e-001</_>
    <_>
      2.23596001e+000 5.49234986e-001 1.16824999e+001 2.37485003e+000
      2.04966998e+000 2.13821009e-002 1.55368996e+000 1.92837998e-001
      1.03165004e-002 5.85991002e-005 1.06751004e-005 2.54933991e-010
      5.76178024e-007 -7.93416999e-011 0. 5.03818989e-001
      5.70357978e-001 8.22480977e-001 9.27936018e-001</_>
    <_>
      1.95097995e+000 5.35643995e-001 1.30725002e+001 2.05267000e+000
      1.72002995e+000 2.18407009e-002 1.51673996e+000 1.77798003e-001
      4.87986999e-003 2.67346991e-006 1.21838994e-007 6.50995032e-014
      1.86998994e-009 2.44428992e-014 0. 4.94785994e-001 5.36920011e-001
      5.29797971e-001 9.42026973e-001</_>
    <_>
      1.97029996e+000 5.08539021e-001 1.22855997e+001 2.11371994e+000
      1.71870005e+000 2.17340998e-002 1.51481998e+000 1.77704006e-001
      4.64366004e-003 1.33529002e-005 4.45982010e-007 7.46801004e-013
      2.90926003e-008 7.91683017e-013 0. 4.55702007e-001 5.65757990e-001
      9.73564029e-001 9.48894978e-001</_>
    <_>
      2.38322997e+000 5.83989978e-001 1.16674004e+001 2.53199005e+000
      2.20514011e+000 2.13658996e-002 1.58092999e+000 1.98825002e-001
      1.30868005e-002 1.69464998e-004 5.26356998e-005 4.92590990e-009
      5.63719004e-006 -6.69463984e-010 0. 4.25837994e-001
      5.88649988e-001 4.66360003e-001 9.58232999e-001</_>
    <_>
      1.80909002e+000 3.22555989e-001 8.09270954e+000 3.20667005e+000
      1.81713998e+000 2.19473001e-002 1.55746996e+000 2.02714995e-001
      6.63872983e-004 1.53486000e-003 1.21324998e-003 1.65060999e-006
      3.06801012e-005 -1.28802000e-007 0. 3.59667987e-001
      6.73597991e-001 8.83185983e-001 9.57463026e-001</_>
    <_>
      1.01271999e+000 5.78535020e-001 2.40037003e+001 1.79269004e+000
      1.13567996e+000 2.64063999e-002 1.58150005e+000 1.70190006e-001
      7.03145983e-004 1.62989003e-004 9.79154947e-007 6.65309995e-012
      -2.22946994e-008 -1.04279996e-011 0. 7.10207999e-001
      2.80081987e-001 5.06057978e-001 9.14614975e-001</_>
    <_>
      1.02050996e+000 5.78031003e-001 2.39232998e+001 1.80753005e+000
      1.09300995e+000 2.64193993e-002 1.58010006e+000 1.70355007e-001
      7.08425010e-004 1.72582993e-004 9.25986001e-007 7.12871992e-012
      -2.15254996e-008 9.28494000e-012 0. 7.06721008e-001
      2.88385004e-001 7.16863990e-001 8.93848002e-001</_>
    <_>
      1.00759006e+000 4.82479006e-001 1.96550999e+001 1.99799001e+000
      1.02058005e+000 2.55417004e-002 1.56195998e+000 1.75087005e-001
      3.45835986e-004 2.49170000e-004 1.54147001e-005 9.52580015e-010
      -2.78301002e-007 -7.23527974e-011 0. 5.47967017e-001
      4.09985989e-001 6.09232008e-001 9.45926011e-001</_>
    <_>
      1.04736996e+000 5.66879988e-001 2.29647007e+001 1.81147003e+000
      1.07014000e+000 2.58760005e-002 1.56035995e+000 1.69839993e-001
      2.47652002e-004 2.58232991e-004 4.50152993e-006 1.42897000e-010
      -5.26287991e-008 -5.60014014e-011 0. 6.47415996e-001
      3.35323989e-001 5.62519014e-001 9.28059995e-001</_>
    <_>
      1.02841997e+000 4.97249991e-001 1.98204994e+001 1.98490000e+000
      1.02201998e+000 2.56386995e-002 1.58596003e+000 1.75084993e-001
      3.47069988e-004 2.49523990e-004 1.59377996e-005 1.00479003e-009
      -2.85704004e-007 2.37000003e-011 0. 5.51027000e-001
      4.11682010e-001 8.63388002e-001 9.41361010e-001</_>
    <_>
      1.08743000e+000 5.66242993e-001 2.34615993e+001 1.94485998e+000
      1.14356005e+000 2.69301999e-002 1.55727005e+000 1.72692001e-001
      1.33769005e-003 2.34634994e-004 2.90698011e-007 -2.39479010e-012
      6.47735998e-009 1.69970998e-013 0. 5.54503024e-001 4.04044986e-001
      4.66499001e-001 9.49983001e-001</_>
    <_>
      1.07278001e+000 5.73301017e-001 2.37768002e+001 1.90587997e+000
      1.13532996e+000 2.69076005e-002 1.56546998e+000 1.72564000e-001
      1.28530001e-003 2.25854004e-004 3.22440002e-007 -2.27507011e-012
      2.78212009e-009 1.54770999e-012 0. 7.20539987e-001 2.91527987e-001
      7.45100975e-001 9.00204003e-001</_>
    <_>
      1.29220998e+000 5.22642016e-001 1.92586994e+001 1.94092000e+000
      1.22219002e+000 2.60029007e-002 1.53970003e+000 1.75807998e-001
      3.67722998e-004 7.81808980e-004 5.09429992e-005 9.91910021e-009
      7.91729008e-007 -2.22973995e-009 0. 5.58874011e-001
      4.27839994e-001 4.69559014e-001 9.45082009e-001</_>
    <_>
      1.09040999e+000 5.58870018e-001 2.29647007e+001 1.80511999e+000
      1.06250000e+000 2.66172998e-002 1.54980004e+000 1.69633999e-001
      2.58437009e-004 2.43180999e-004 4.11605015e-006 1.22580002e-010
      -4.79735007e-008 4.39554990e-011 0. 6.19796991e-001
      3.60092998e-001 7.38714993e-001 9.30043995e-001</_>
    <_>
      1.31352997e+000 5.31410992e-001 1.89190006e+001 1.96135998e+000
      1.25390995e+000 2.55964994e-002 1.55428004e+000 1.76058993e-001
      3.50410002e-004 8.04111012e-004 5.48997996e-005 1.12039000e-008
      8.72470991e-007 2.74373990e-009 0. 5.34447014e-001 4.40829992e-001
      6.87606990e-001 9.40289021e-001</_>
    <_>
      1.10248995e+000 5.80206990e-001 2.12185001e+001 1.99593997e+000
      1.07736003e+000 2.52107996e-002 1.63988996e+000 1.74737006e-001
      5.04190975e-004 4.18003008e-004 7.52794995e-006 4.02592987e-010
      -1.43118001e-007 1.27447997e-010 0. 6.48742974e-001
      3.37861001e-001 8.07985008e-001 9.14303005e-001</_>
    <_>
      1.06132996e+000 5.56780994e-001 2.39713993e+001 1.94418001e+000
      1.12142003e+000 2.73403991e-002 1.54077995e+000 1.72297999e-001
      1.10375998e-003 1.35120994e-004 1.21918004e-006 1.53452997e-011
      -3.87965997e-008 -3.06326991e-012 0. 5.95174015e-001
      3.76248986e-001 4.81990010e-001 9.41262007e-001</_>
    <_>
      1.09040999e+000 5.80006003e-001 2.49151001e+001 1.89565003e+000
      1.09504998e+000 2.81853992e-002 1.56983995e+000 1.72105998e-001
      1.05492002e-003 1.32447007e-004 1.35426001e-006 1.71775996e-011
      -4.05911003e-008 5.82210018e-012 0. 7.28133976e-001
      2.83674002e-001 7.73248971e-001 8.91165972e-001</_>
    <_>
      1.15362000e+000 4.57621008e-001 1.81305008e+001 2.34115005e+000
      1.11088002e+000 2.65503004e-002 1.55628002e+000 1.82726994e-001
      1.35333001e-004 6.74852985e-004 7.24545971e-005 1.56401008e-008
      -4.49440989e-007 3.47519991e-009 0. 6.35766983e-001
      4.04872000e-001 7.30013013e-001 9.30140018e-001</_>
    <_>
      1.16034997e+000 4.53056008e-001 1.80515995e+001 2.28516006e+000
      1.12773001e+000 2.65683997e-002 1.54372001e+000 1.83094993e-001
      1.09692999e-004 7.27777020e-004 7.96457971e-005 1.87415008e-008
      -3.58677994e-007 -4.05567979e-009 0. 6.49899006e-001
      4.05261993e-001 8.80654991e-001 9.13707972e-001</_>
    <_>
      1.09040999e+000 5.38810015e-001 2.06331005e+001 2.02782989e+000
      1.09577000e+000 2.55741999e-002 1.59784997e+000 1.74422994e-001
      3.55202996e-004 3.47983005e-004 1.06416001e-005 6.45761999e-010
      -1.85534006e-007 4.84694992e-011 0. 5.83692014e-001
      3.86402994e-001 4.98854011e-001 9.39342976e-001</_>
    <_>
      1.04462004e+000 5.58574021e-001 2.17099991e+001 1.97249997e+000
      1.05631995e+000 2.54117996e-002 1.59932005e+000 1.72932997e-001
      5.11564023e-004 2.96660000e-004 3.58355010e-006 1.16657004e-010
      -7.82356011e-008 -6.58187003e-012 0. 6.89176023e-001
      3.01054001e-001 5.21888971e-001 9.19113994e-001</_>
    <_>
      1.09642005e+000 5.02686024e-001 2.03911991e+001 2.01849008e+000
      1.04855001e+000 2.64980998e-002 1.55841005e+000 1.75171003e-001
      2.52553000e-004 3.54810007e-004 1.90611008e-005 1.56741997e-009
      -2.89837004e-007 -1.94087992e-011 0. 5.80627024e-001
      3.99226993e-001 8.72430980e-001 9.29579973e-001</_>
    <_>
      1.18806005e+000 5.24048984e-001 1.94717999e+001 2.01543999e+000
      1.09990001e+000 2.57341992e-002 1.58310997e+000 1.74950004e-001
      3.45394001e-005 4.46012011e-004 3.17843005e-005 3.75862985e-009
      -1.53349006e-007 -4.40440989e-010 0. 6.16343021e-001
      3.70337009e-001 5.35830975e-001 9.31598008e-001</_>
    <_>
      1.18452001e+000 5.23368001e-001 1.95566006e+001 2.04506993e+000
      1.06805003e+000 2.57977992e-002 1.58064997e+000 1.75088003e-001
      3.88441986e-005 4.44787001e-004 3.26223999e-005 3.92057009e-009
      -1.47660998e-007 2.66349998e-010 0. 5.96533000e-001
      3.88543993e-001 7.86661983e-001 9.24512982e-001</_>
    <_>
      1.24765003e+000 5.60178995e-001 2.12668991e+001 1.70536995e+000
      1.23933995e+000 2.61403006e-002 1.53214002e+000 1.72739998e-001
      4.17503004e-004 7.58924987e-004 4.13248017e-005 7.21788007e-009
      8.43493979e-007 -1.20876997e-009 0. 6.28822982e-001
      3.60482991e-001 4.15542006e-001 9.30765986e-001</_>
    <_>
      1.27156997e+000 5.69163978e-001 2.10559998e+001 1.71114004e+000
      1.23079002e+000 2.59386003e-002 1.54374003e+000 1.72961995e-001
      4.81196999e-004 7.66357000e-004 4.41656011e-005 7.98763011e-009
      9.68649033e-007 1.48968005e-009 0. 6.51847005e-001 3.54214996e-001
      6.37834013e-001 9.11632001e-001</_>
    <_>
      1.79279006e+000 3.28862995e-001 8.67144966e+000 2.75695992e+000
      1.78576005e+000 2.26413999e-002 1.53772998e+000 2.14291006e-001
      2.98398011e-003 4.03016992e-003 2.96452991e-003 1.02419999e-005
      1.61931996e-004 -3.18779001e-007 0. 4.03771013e-001
      6.69085026e-001 3.52656990e-001 9.58741009e-001</_>
    <_>
      1.78474998e+000 3.72602999e-001 9.69721985e+000 2.84221005e+000
      1.74933004e+000 2.26610005e-002 1.56380999e+000 2.04069003e-001
      2.06340011e-003 2.24496005e-003 1.42524997e-003 2.53820008e-006
      6.43220992e-005 2.38962002e-007 0. 4.66325015e-001 6.27928972e-001
      5.19584000e-001 9.46821988e-001</_>
    <_>
      1.80909002e+000 3.23224008e-001 8.10947990e+000 3.01483989e+000
      1.84341002e+000 2.16429997e-002 1.53586996e+000 2.14558005e-001
      3.46350996e-003 2.62191007e-003 1.85962999e-003 4.09456015e-006
      1.09414003e-004 3.09932005e-007 0. 4.11738008e-001 6.75675988e-001
      3.47631991e-001 9.53531027e-001</_>
    <_>
      1.50758004e+000 4.34839994e-001 1.37342997e+001 2.32327008e+000
      1.22262001e+000 2.40077991e-002 1.51604998e+000 1.78128004e-001
      1.19033000e-004 2.01552000e-004 1.66938007e-005 9.68090053e-010
      1.74929994e-007 2.18890999e-011 0. 5.76610982e-001 5.19725978e-001
      3.51713002e-001 9.33604002e-001</_>
    <_>
      1.97029996e+000 3.37024987e-001 8.13527012e+000 3.06680989e+000
      1.75187004e+000 2.20982991e-002 1.54149997e+000 2.10436001e-001
      2.65851989e-003 1.56123994e-003 1.41246000e-003 2.09684003e-006
      7.27556035e-005 -5.20451984e-008 0. 4.23617005e-001
      6.83495998e-001 4.65793014e-001 9.45298016e-001</_>
    <_>
      1.04462004e+000 5.71249008e-001 2.35837994e+001 1.83517003e+000
      1.06351995e+000 2.70118006e-002 1.60046005e+000 1.71492994e-001
      4.44089994e-004 1.35091002e-004 5.57190015e-006 1.03334001e-010
      -1.07336000e-007 -1.12653997e-010 0. 7.28305995e-001
      2.74780005e-001 7.52689004e-001 8.86475980e-001</_>
    <_>
      1.62449002e+000 6.07537985e-001 1.78034000e+001 1.69693995e+000
      1.47860003e+000 2.35325992e-002 1.53033996e+000 1.69152007e-001
      2.31996994e-003 6.47366032e-005 1.36034996e-005 4.02765987e-010
      6.41683016e-007 2.73576994e-011 0. 5.84205985e-001 4.36307013e-001
      6.27191007e-001 9.44435000e-001</_>
    <_>
      1.46862996e+000 6.86712980e-001 2.19582005e+001 1.54375994e+000
      1.40913999e+000 2.45606005e-002 1.55614996e+000 1.67125002e-001
      2.11128010e-003 9.36915967e-005 3.85732983e-006 7.28926988e-011
      1.72384006e-007 -7.99453993e-012 0. 6.27220988e-001
      3.75930011e-001 6.68514013e-001 9.40626979e-001</_>
    <_>
      1.96059000e+000 5.75204015e-001 1.38964996e+001 2.02970004e+000
      1.95067000e+000 2.23329999e-002 1.56163001e+000 1.83492005e-001
      6.52016001e-003 2.95931008e-004 9.67095984e-005 1.63531997e-008
      7.73712964e-006 4.93232011e-010 0. 5.38735986e-001 5.12887001e-001
      7.70756006e-001 9.41100001e-001</_>
    <_>
      1.50188994e+000 6.10225976e-001 1.93448009e+001 1.57705998e+000
      1.42050004e+000 2.40925997e-002 1.51926994e+000 1.67147994e-001
      1.64172996e-003 8.19726993e-005 1.17945001e-005 3.64560993e-010
      4.77674973e-007 3.98652986e-011 0. 5.78140020e-001 4.20870006e-001
      6.47455990e-001 9.45228994e-001</_>
    <_>
      2.02029991e+000 6.48151994e-001 1.52762003e+001 2.15401006e+000
      1.87037003e+000 2.21174993e-002 1.55395997e+000 1.89504996e-001
      1.01164998e-002 3.62957007e-006 1.20567995e-006 2.51634000e-012
      1.01772002e-007 1.71570996e-013 0. 5.53259015e-001 4.82403994e-001
      6.89420998e-001 9.47364986e-001</_>
    <_>
      1.43165004e+000 7.09483027e-001 2.32127991e+001 1.51540995e+000
      1.38592005e+000 2.50595994e-002 1.57535994e+000 1.67030007e-001
      1.99129991e-003 1.36597999e-004 4.78699985e-006 1.20379998e-010
      2.06520994e-007 -2.22005001e-011 0. 6.60228014e-001
      3.35476011e-001 6.77317023e-001 9.35151994e-001</_>
    <_>
      1.64462996e+000 6.20593011e-001 1.78920994e+001 1.72178996e+000
      1.50174999e+000 2.35066004e-002 1.54192996e+000 1.69942006e-001
      2.46515009e-003 6.77736971e-005 1.64735993e-005 5.42216994e-010
      8.07621007e-007 -9.48262996e-011 0. 5.60288012e-001
      4.36800987e-001 8.42984974e-001 9.48297977e-001</_>
    <_>
      1.40140998e+000 6.89230025e-001 2.32553005e+001 1.48471999e+000
      1.35153997e+000 2.53426991e-002 1.56430995e+000 1.66639999e-001
      1.76660996e-003 1.38229007e-004 5.66944982e-006 1.52939994e-010
      2.25974006e-007 4.24167992e-011 0. 6.65409029e-001 3.29053015e-001
      9.34736013e-001 9.34909999e-001</_>
    <_>
      1.70085001e+000 5.85223019e-001 1.63761005e+001 1.79606998e+000
      1.60017002e+000 2.29723994e-002 1.52023005e+000 1.73204005e-001
      3.35146999e-003 8.68845964e-005 2.65406998e-005 1.27444999e-009
      1.48042000e-006 1.11781999e-011 0. 5.01935005e-001 4.87127006e-001
      9.84761000e-001 9.56142008e-001</_>
    <_>
      1.61134005e+000 6.74883008e-001 1.99318008e+001 1.72543001e+000
      1.55203998e+000 2.40618009e-002 1.56041002e+000 1.73052996e-001
      4.02999995e-003 1.12412999e-004 9.88609008e-006 3.22127991e-010
      5.73368027e-007 -6.96357971e-011 0. 5.95322013e-001
      4.01540995e-001 9.40075994e-001 9.43028986e-001</_>
    <_>
      1.40140998e+000 6.69731021e-001 2.27201004e+001 1.49777997e+000
      1.38396001e+000 2.54229009e-002 1.56078005e+000 1.66932002e-001
      1.55476003e-003 2.09976002e-004 1.02125996e-005 4.52756999e-010
      3.64888990e-007 1.36632997e-010 0. 6.00709021e-001 3.92194986e-001
      9.22883987e-001 9.46004987e-001</_>
    <_>
      1.74561000e+000 6.64170980e-001 1.81042004e+001 1.86518002e+000
      1.67215002e+000 2.32366007e-002 1.55283999e+000 1.77625999e-001
      5.74117992e-003 8.80110965e-005 1.18659000e-005 3.82895993e-010
      8.99004988e-007 -2.07966994e-011 0. 5.88455021e-001
      4.26373005e-001 6.10994995e-001 9.45680976e-001</_>
    <_>
      1.44202995e+000 6.96889997e-001 2.25270996e+001 1.54434001e+000
      1.37625003e+000 2.48070993e-002 1.57173002e+000 1.67034000e-001
      2.00645998e-003 8.19545967e-005 5.33079992e-006 1.11412997e-010
      2.38470989e-007 -1.52155003e-012 0. 6.62348986e-001
      3.50068986e-001 9.80542004e-001 9.37627971e-001</_>
    <_>
      1.55469000e+000 7.17002988e-001 2.15023994e+001 1.62697005e+000
      1.51130998e+000 2.44188998e-002 1.59410000e+000 1.70736998e-001
      3.24594998e-003 1.24578000e-004 8.38366032e-006 2.60289013e-010
      4.43831993e-007 7.52143001e-011 0. 6.44128978e-001 3.56918007e-001
      8.94394994e-001 9.38907981e-001</_>
    <_>
      1.45788002e+000 6.77636981e-001 2.12908001e+001 1.55552995e+000
      1.46196997e+000 2.41202004e-002 1.56213999e+000 1.70468003e-001
      2.66760006e-003 2.32449005e-004 1.87592996e-005 1.23126997e-009
      9.64151013e-007 -1.36087003e-010 0. 6.12653971e-001
      3.80400002e-001 8.29962015e-001 9.46556985e-001</_>
    <_>
      1.52489996e+000 5.92945993e-001 1.84487991e+001 1.64921999e+000
      1.44152999e+000 2.38109995e-002 1.51591003e+000 1.70188993e-001
      2.07531010e-003 1.94348002e-004 3.01827004e-005 2.26851005e-009
      1.37253005e-006 -4.44633996e-010 0. 5.81493020e-001
      4.16476995e-001 7.71650016e-001 9.46542025e-001</_>
    <_>
      1.98010004e+000 5.62527001e-001 1.34352999e+001 2.07242990e+000
      1.94665003e+000 2.21605003e-002 1.55718005e+000 1.85911000e-001
      7.02001015e-003 4.31894994e-004 1.49589003e-004 3.80208007e-008
      1.24713997e-005 -3.57194996e-010 0. 4.26176995e-001
      5.53663015e-001 8.52367997e-001 9.66416001e-001</_>
    <_>
      1.49624002e+000 6.11015975e-001 1.94283009e+001 1.57902002e+000
      1.43850994e+000 2.41893008e-002 1.52421999e+000 1.69094995e-001
      1.82743999e-003 1.30804998e-004 2.42730002e-005 1.34268996e-009
      1.03358002e-006 -2.60456989e-010 0. 5.90744019e-001
      4.07770991e-001 9.31877017e-001 9.43832994e-001</_>
    <_>
      1.46862996e+000 6.87061012e-001 2.21054993e+001 1.55486000e+000
      1.41417003e+000 2.47997008e-002 1.56163001e+000 1.67506993e-001
      2.13857996e-003 9.48333982e-005 5.17660010e-006 1.13589999e-010
      2.31719994e-007 1.58837995e-011 0. 6.45515025e-001 3.46648991e-001
      9.27770972e-001 9.39327002e-001</_>
    <_>
      1.68643999e+000 6.51823997e-001 1.83435993e+001 1.81815004e+000
      1.64909005e+000 2.32956000e-002 1.54111004e+000 1.76864997e-001
      5.35491994e-003 1.01824000e-004 1.39378999e-005 5.24322974e-010
      1.01899002e-006 2.80688996e-011 0. 5.56553006e-001 4.35705006e-001
      8.82708013e-001 9.46039021e-001</_>
    <_>
      2.02029991e+000 6.36570990e-001 1.50032997e+001 2.19938993e+000
      1.87048995e+000 2.20676009e-002 1.55044997e+000 1.90072000e-001
      1.01402998e-002 7.20608023e-006 1.84653004e-006 6.73571008e-012
      1.28321005e-007 8.78920011e-015 0. 5.13523996e-001 5.01608014e-001
      9.10364985e-001 9.53781009e-001</_>
    <_>
      2.18681002e+000 6.17309988e-001 1.34082003e+001 2.30833006e+000
      2.02748990e+000 2.17678994e-002 1.57283998e+000 1.96385995e-001
      1.22007001e-002 2.13413005e-004 6.46094995e-005 7.56445040e-009
      6.88304999e-006 5.81111992e-010 0. 4.42485988e-001 5.49647987e-001
      5.72996974e-001 9.60278988e-001</_>
    <_>
      1.61789000e+000 6.68928981e-001 1.96840000e+001 1.73286998e+000
      1.56248999e+000 2.39540003e-002 1.55520999e+000 1.72999993e-001
      4.07609018e-003 1.10487999e-004 9.30601982e-006 2.91732999e-010
      5.53268023e-007 6.27370031e-011 0. 6.30702972e-001 3.90435994e-001
      6.58223987e-001 9.39267993e-001</_>
    <_>
      1.95097995e+000 5.90101004e-001 1.43851995e+001 2.07881999e+000
      1.81010997e+000 2.21996997e-002 1.54341996e+000 1.84786007e-001
      7.50426017e-003 1.18958000e-004 4.78190013e-005 3.60465990e-009
      4.13989983e-006 -1.18356006e-010 0. 5.49160004e-001
      5.03642976e-001 7.47228980e-001 9.47476029e-001</_>
    <_>
      1.69361997e+000 6.09103978e-001 1.69538994e+001 1.77146995e+000
      1.69295001e+000 2.32005008e-002 1.54765999e+000 1.75518006e-001
      4.03341977e-003 2.01507995e-004 4.45935984e-005 4.21366986e-009
      2.78399989e-006 -3.38066991e-010 0. 5.48904002e-001
      4.59657997e-001 5.58400989e-001 9.52409029e-001</_>
    <_>
      1.90430999e+000 6.19899988e-001 1.54932003e+001 2.00826001e+000
      1.74992001e+000 2.25393996e-002 1.55299997e+000 1.81963995e-001
      6.85924012e-003 5.86753995e-005 2.34818999e-005 8.71474004e-010
      1.94442009e-006 -1.59750997e-011 0. 5.49412012e-001
      4.82517004e-001 7.87379980e-001 9.47386980e-001</_>
    <_>
      1.65832996e+000 6.09903991e-001 1.74734001e+001 1.74135995e+000
      1.63012004e+000 2.35753991e-002 1.54820001e+000 1.73592001e-001
      3.49507993e-003 1.98727997e-004 3.44282998e-005 2.84086998e-009
      2.01118996e-006 -1.98009997e-010 0. 5.73710024e-001
      4.43486005e-001 6.23513997e-001 9.46507990e-001</_>
    <_>
      1.61134005e+000 6.10364974e-001 1.80007992e+001 1.70077002e+000
      1.63100004e+000 2.37399992e-002 1.54173005e+000 1.72754005e-001
      3.15900007e-003 2.20938004e-004 3.58358993e-005 3.18330007e-009
      2.01313992e-006 -1.85485002e-010 0. 5.68163991e-001
      4.42135006e-001 6.15113020e-001 9.49550986e-001</_>
    <_>
      1.59200001e+000 6.81357026e-001 2.02646008e+001 1.69307995e+000
      1.59651995e+000 2.43069008e-002 1.57696998e+000 1.73124000e-001
      3.85010010e-003 2.04352007e-004 1.51292998e-005 8.29538993e-010
      9.05345019e-007 1.39795994e-010 0. 6.52885020e-001 3.72096002e-001
      6.71145976e-001 9.34841990e-001</_>
    <_>
      1.73799002e+000 6.02028012e-001 1.63883991e+001 1.83845997e+000
      1.65443003e+000 2.27211006e-002 1.52464998e+000 1.75824001e-001
      4.56687016e-003 6.90746019e-005 1.92984007e-005 7.00886016e-010
      1.30373996e-006 -7.22399987e-011 0. 5.06422997e-001
      4.79505002e-001 6.23564005e-001 9.54186976e-001</_>
    <_>
      1.60484004e+000 6.99029028e-001 2.07404995e+001 1.69068003e+000
      1.59860003e+000 2.42653992e-002 1.57026994e+000 1.74042001e-001
      4.53290017e-003 1.05229003e-004 8.73743011e-006 2.62959987e-010
      5.75717991e-007 3.23151991e-011 0. 6.36666000e-001 3.71773005e-001
      6.13072991e-001 9.42762971e-001</_>
    <_>
      1.95097995e+000 5.93993008e-001 1.44947004e+001 2.10769010e+000
      1.87013996e+000 2.24147998e-002 1.55680001e+000 1.84838995e-001
      7.54346000e-003 1.47804007e-004 5.49565993e-005 4.95293007e-009
      4.70617988e-006 3.57677984e-011 0. 5.27058005e-001 5.07667005e-001
      7.91297019e-001 9.50464010e-001</_>
    <_>
      1.74561000e+000 6.17797971e-001 1.68491993e+001 1.84214997e+000
      1.56692004e+000 2.29880009e-002 1.53540003e+000 1.73758999e-001
      3.98869021e-003 7.81370036e-005 1.62193992e-005 5.77351000e-010
      1.01702994e-006 -8.03748040e-012 0. 5.23932993e-001
      4.69235986e-001 5.86548984e-001 9.54638004e-001</_>
    <_>
      1.38194001e+000 6.91910028e-001 2.31686993e+001 1.48827004e+000
      1.35987997e+000 2.49630008e-002 1.56533003e+000 1.66201994e-001
      1.56934001e-003 1.67413004e-004 6.08948994e-006 1.89754004e-010
      2.29864995e-007 -4.23902996e-011 0. 6.98468029e-001
      3.20302993e-001 6.73525989e-001 9.35244977e-001</_>
    <_>
      1.95097995e+000 6.36102974e-001 1.55256996e+001 2.08454990e+000
      1.82612002e+000 2.22880002e-002 1.54764998e+000 1.87115997e-001
      9.11497045e-003 1.37825000e-005 3.88865010e-006 2.83799009e-011
      3.47460997e-007 2.24302998e-012 0. 5.35426974e-001 4.84847993e-001
      5.76032996e-001 9.52427030e-001</_>
    <_>
      2.02029991e+000 6.66849017e-001 1.56696997e+001 2.14963007e+000
      1.94682002e+000 2.23459993e-002 1.57474005e+000 1.90729007e-001
      1.03986999e-002 1.32938003e-004 2.58141008e-005 1.49889001e-009
      2.42782994e-006 -2.00225003e-010 0. 5.49688995e-001
      4.72714007e-001 5.97833991e-001 9.48351979e-001</_>
    <_>
      1.77679002e+000 5.85987985e-001 1.57047997e+001 1.87541997e+000
      1.68975997e+000 2.28834003e-002 1.53789997e+000 1.76696002e-001
      4.50824993e-003 1.57297007e-004 3.80076017e-005 2.93752001e-009
      2.51318011e-006 -8.59591009e-011 0. 5.71646988e-001
      4.70627993e-001 7.01674998e-001 9.45155025e-001</_>
    <_>
      2.07292008e+000 6.50602996e-001 1.48767996e+001 2.17564988e+000
      2.00108004e+000 2.21413001e-002 1.57597995e+000 1.95180997e-001
      1.20420000e-002 1.54765003e-004 3.05526009e-005 2.05231010e-009
      2.88286992e-006 4.49266013e-010 0. 5.31874001e-001 4.94284004e-001
      5.69168985e-001 9.46645975e-001</_>
    <_>
      1.82569003e+000 5.63067973e-001 1.46840000e+001 1.98515999e+000
      1.74696004e+000 2.26115994e-002 1.53467000e+000 1.80380002e-001
      5.41319000e-003 2.55027000e-004 7.32949993e-005 9.91999016e-009
      4.86529007e-006 1.41824996e-009 0. 4.91293013e-001 5.12579978e-001
      5.93551993e-001 9.52323973e-001</_>
    <_>
      1.86854005e+000 5.89998007e-001 1.50297003e+001 1.99872994e+000
      1.76786005e+000 2.25418005e-002 1.54282999e+000 1.81116998e-001
      6.35713013e-003 8.60348009e-005 2.83637000e-005 1.40082002e-009
      2.10008989e-006 3.00878003e-011 0. 5.01332998e-001 5.04750013e-001
      5.93060017e-001 9.54082012e-001</_>
    <_>
      1.89523995e+000 5.79982996e-001 1.45632000e+001 1.99553001e+000
      1.83758998e+000 2.25568991e-002 1.55183995e+000 1.83016002e-001
      6.29264023e-003 3.45909008e-004 1.02582999e-004 1.92440002e-008
      8.09102039e-006 -1.75648995e-009 0. 5.19545019e-001
      5.09693980e-001 6.15907013e-001 9.49361026e-001</_>
    <_>
      1.59200001e+000 6.14628017e-001 1.83675995e+001 1.67001998e+000
      1.52815998e+000 2.37879008e-002 1.53593004e+000 1.71951994e-001
      2.83336011e-003 1.48809995e-004 3.17222002e-005 2.15826002e-009
      1.67270002e-006 -3.03672004e-010 0. 5.91126978e-001
      4.16036010e-001 8.91461015e-001 9.37413990e-001</_>
    <_>
      1.78474998e+000 6.21188998e-001 1.64976006e+001 1.89294004e+000
      1.65752006e+000 2.25694999e-002 1.52627003e+000 1.78322002e-001
      5.74888987e-003 4.07822990e-005 6.20428000e-006 9.85949031e-011
      3.93916991e-007 -4.33128013e-012 0. 5.58363974e-001
      4.55846995e-001 7.52808988e-001 9.49490011e-001</_>
    <_>
      1.90430999e+000 6.03080988e-001 1.50802002e+001 2.05559993e+000
      1.76815999e+000 2.24169008e-002 1.54381001e+000 1.80492997e-001
      5.98584022e-003 1.18964002e-004 3.38526988e-005 2.14643991e-009
      2.49928007e-006 8.98211019e-011 0. 4.89457011e-001 5.05623996e-001
      9.77091014e-001 9.59231973e-001</_>
    <_>
      1.70815003e+000 5.85372984e-001 1.63038006e+001 1.80060005e+000
      1.60011005e+000 2.29675993e-002 1.52292001e+000 1.72738999e-001
      3.36287008e-003 5.99234991e-005 1.96811998e-005 6.75852985e-010
      1.08814004e-006 6.92610986e-012 0. 5.64981997e-001 4.63804007e-001
      7.32909024e-001 9.44950998e-001</_>
    <_>
      1.69361997e+000 6.13707006e-001 1.72422009e+001 1.77855003e+000
      1.62260997e+000 2.32784003e-002 1.53842998e+000 1.74904004e-001
      4.07266011e-003 1.99563001e-004 3.34432007e-005 2.71983991e-009
      2.11941006e-006 2.58891991e-010 0. 5.54584980e-001 4.43154007e-001
      7.87178993e-001 9.51794982e-001</_>
    <_>
      1.46324003e+000 7.02659011e-001 2.24955997e+001 1.55718005e+000
      1.38512003e+000 2.49128994e-002 1.58000004e+000 1.67225003e-001
      2.10367003e-003 7.13413028e-005 4.42771989e-006 7.84452989e-011
      2.01467998e-007 6.24945018e-012 0. 6.99410975e-001 3.34051013e-001
      7.57934988e-001 9.29678023e-001</_>
    <_>
      1.54864001e+000 7.07608998e-001 2.15396004e+001 1.63759005e+000
      1.51611996e+000 2.46325005e-002 1.58800006e+000 1.70955002e-001
      3.37101007e-003 1.19263001e-004 7.98149995e-006 2.33114000e-010
      4.19310993e-007 -7.93587973e-011 0. 6.47818029e-001
      3.58740002e-001 5.93702972e-001 9.42116022e-001</_>
    <_>
      1.43165004e+000 6.83077991e-001 2.16096001e+001 1.55718994e+000
      1.44140995e+000 2.40898002e-002 1.56620002e+000 1.69177994e-001
      2.39686994e-003 1.99525995e-004 1.33205003e-005 6.79987011e-010
      6.45896023e-007 9.59482979e-011 0. 6.80378973e-001 3.40591013e-001
      6.61902010e-001 9.36073005e-001</_>
    <_>
      1.52489996e+000 5.93836010e-001 1.85209999e+001 1.61404002e+000
      1.40742004e+000 2.37767994e-002 1.51008999e+000 1.69139996e-001
      1.90519996e-003 1.55838003e-004 2.19159992e-005 1.26224997e-009
      9.56486019e-007 2.17191001e-010 0. 5.61088026e-001 4.36102986e-001
      6.24961972e-001 9.50761974e-001</_>
    <_>
      1.61134005e+000 5.36406994e-001 1.58485003e+001 1.77138996e+000
      1.48485005e+000 2.28739008e-002 1.48276997e+000 1.72391996e-001
      2.39345990e-003 6.82337995e-005 1.58074997e-007 4.94529981e-013
      7.24759985e-009 -1.57984005e-013 0. 5.41027009e-001
      4.79876995e-001 6.24823987e-001 9.49608028e-001</_>
    <_>
      1.61789000e+000 5.19074023e-001 1.52615004e+001 1.83431005e+000
      1.42951000e+000 2.28966996e-002 1.48781002e+000 1.72479004e-001
      1.98571011e-003 1.22615995e-004 2.75610000e-006 5.06362001e-011
      1.18197001e-007 -1.73664002e-012 0. 5.21732986e-001
      4.84252989e-001 7.08728015e-001 9.48733985e-001</_>
    <_>
      1.85116005e+000 6.17208004e-001 1.58599997e+001 1.95400000e+000
      1.76094997e+000 2.24698000e-002 1.53391004e+000 1.89041004e-001
      8.85677990e-003 3.35099001e-004 5.38710010e-005 7.23703009e-009
      5.05980006e-006 -1.19593002e-010 0. 5.19665003e-001
      4.84450012e-001 7.60630012e-001 9.52169001e-001</_>
    <_>
      1.65832996e+000 6.10301971e-001 1.75114002e+001 1.78585994e+000
      1.59974003e+000 2.31683999e-002 1.51916003e+000 1.80932000e-001
      5.67980018e-003 3.74586001e-004 5.62032001e-005 8.15152035e-009
      4.20791002e-006 2.34469999e-010 0. 5.31413019e-001 4.61629987e-001
      7.52758026e-001 9.51849997e-001</_>
    <_>
      1.70085001e+000 5.93801975e-001 1.66119995e+001 1.80783999e+000
      1.58253002e+000 2.29020994e-002 1.51595998e+000 1.79611996e-001
      5.01400977e-003 2.53292004e-004 2.39299006e-005 1.82408999e-009
      1.58048999e-006 3.78942988e-010 0. 5.45046985e-001 4.67619002e-001
      7.35579014e-001 9.53280985e-001</_>
    <_>
      1.67931998e+000 6.43009007e-001 1.82327003e+001 1.77154005e+000
      1.67232001e+000 2.34376993e-002 1.54293001e+000 1.84138000e-001
      6.45969994e-003 7.28381972e-004 8.83004031e-005 2.23224994e-008
      7.08984999e-006 -1.78288995e-009 0. 5.47137976e-001
      4.44950014e-001 7.31913984e-001 9.53759015e-001</_>
    <_>
      1.71552002e+000 5.18670976e-001 1.43767004e+001 1.86363006e+000
      1.54869998e+000 2.24743001e-002 1.49335003e+000 1.73848003e-001
      2.72527011e-003 4.96503017e-005 1.53157998e-007 -2.97330005e-013
      7.19438997e-009 2.99955996e-013 0. 4.57489997e-001 5.29762983e-001
      7.46222019e-001 9.57867980e-001</_>
    <_>
      1.64462996e+000 6.53909981e-001 1.89237995e+001 1.71854997e+000
      1.57097006e+000 2.36352999e-002 1.54454994e+000 1.79708004e-001
      5.20214997e-003 5.74984995e-004 5.66363997e-005 1.01981996e-008
      4.06476011e-006 6.74411027e-010 0. 5.64284980e-001 4.28853005e-001
      6.67746007e-001 9.49500978e-001</_>
    <_>
      1.77679002e+000 4.93573010e-001 1.31716003e+001 1.96931005e+000
      1.60107994e+000 2.22299006e-002 1.50038004e+000 1.79932997e-001
      3.31678009e-003 3.30732990e-004 1.10189003e-005 6.65186017e-010
      6.34413027e-007 1.33006995e-012 0. 4.74038005e-001 5.38947999e-001
      7.43829012e-001 9.52480018e-001</_>
    <_>
      1.57312000e+000 6.07672989e-001 1.83945007e+001 1.74544001e+000
      1.52242005e+000 2.36005001e-002 1.51542997e+000 1.80421993e-001
      4.90661990e-003 5.80373977e-004 5.16016007e-005 8.92832031e-009
      3.53151995e-006 1.69364994e-010 0. 5.70379019e-001 4.42016006e-001
      8.23185980e-001 9.47034001e-001</_>
    <_>
      1.51330996e+000 5.36818981e-001 1.68868008e+001 1.71450996e+000
      1.36592996e+000 2.34258007e-002 1.48192000e+000 1.70517996e-001
      1.30762998e-003 2.41157002e-004 1.39063004e-005 8.02842015e-010
      4.96850987e-007 6.31499991e-011 0. 5.56949973e-001 4.63263005e-001
      5.89295030e-001 9.48653996e-001</_>
    <_>
      1.64462996e+000 5.97600996e-001 1.73029995e+001 1.76432002e+000
      1.54442000e+000 2.31130999e-002 1.50964999e+000 1.78002000e-001
      4.61866008e-003 2.63221009e-004 2.36172000e-005 1.80585003e-009
      1.37373002e-006 -4.54230986e-010 0. 5.77093005e-001
      4.45621014e-001 5.19068003e-001 9.51822996e-001</_>
    <_>
      1.84258997e+000 6.03603005e-001 1.55911999e+001 1.96551001e+000
      1.71772003e+000 2.24513002e-002 1.52929997e+000 1.86174005e-001
      7.60032004e-003 2.31639002e-004 3.97816002e-005 3.80578991e-009
      3.46710999e-006 3.15246995e-010 0. 5.38745999e-001 4.84447986e-001
      4.76612002e-001 9.52262998e-001</_>
    <_>
      1.53667998e+000 5.59453011e-001 1.72880993e+001 1.71230996e+000
      1.40473998e+000 2.33373996e-002 1.48899996e+000 1.72475994e-001
      2.29268009e-003 2.11948005e-004 1.26365003e-005 6.51441012e-010
      6.01471015e-007 -5.74095008e-011 0. 5.86305022e-001
      4.43940014e-001 6.00856006e-001 9.46556985e-001</_>
    <_>
      1.80909002e+000 5.95340014e-001 1.56681004e+001 1.90687001e+000
      1.64365995e+000 2.26438008e-002 1.53188002e+000 1.81379005e-001
      5.70379989e-003 2.08010999e-004 2.27240998e-005 1.55766999e-009
      1.63568996e-006 1.20571997e-010 0. 5.65014005e-001 4.77746993e-001
      6.08967006e-001 9.46865976e-001</_>
    <_>
      1.71552002e+000 6.19883001e-001 1.67161999e+001 1.82035005e+000
      1.63944995e+000 2.26018000e-002 1.54367995e+000 1.82981998e-001
      5.92934992e-003 5.23300027e-004 7.76129964e-005 1.54121000e-008
      5.91999014e-006 -2.66911004e-009 0. 5.63189030e-001
      4.56487000e-001 5.07279992e-001 9.50603008e-001</_>
    <_>
      1.78474998e+000 5.69720984e-001 1.51973000e+001 1.88999999e+000
      1.67086005e+000 2.24802997e-002 1.51357996e+000 1.84791997e-001
      6.34494983e-003 4.13389003e-004 5.49875003e-005 8.25301960e-009
      4.37831022e-006 7.86215981e-010 0. 5.31291008e-001 4.98712003e-001
      5.39887011e-001 9.54038978e-001</_>
    <_>
      1.75329995e+000 5.29779971e-001 1.42061005e+001 1.90091002e+000
      1.57354999e+000 2.22759992e-002 1.50901997e+000 1.78358003e-001
      3.77895008e-003 2.30937003e-004 1.78016999e-005 1.13609000e-009
      1.07909000e-006 1.09996998e-010 0. 5.18128991e-001 5.07261992e-001
      6.36524022e-001 9.50294971e-001</_>
    <_>
      1.73799002e+000 6.08067989e-001 1.66222992e+001 1.85317004e+000
      1.64946997e+000 2.29054000e-002 1.53059006e+000 1.84816003e-001
      6.92693004e-003 3.80815996e-004 4.97412984e-005 6.83137991e-009
      4.12555983e-006 4.46298998e-010 0. 5.81116974e-001 4.56710994e-001
      5.66120982e-001 9.48450029e-001</_>
    <_>
      2.01009989e+000 5.74768007e-001 1.36091995e+001 2.14843011e+000
      1.92464006e+000 2.18470003e-002 1.53307998e+000 1.96083993e-001
      1.08195003e-002 3.33931006e-004 7.83232972e-005 1.26615998e-008
      8.14090981e-006 -3.61380009e-010 0. 5.28774977e-001
      5.26314020e-001 5.76738000e-001 9.47643995e-001</_>
    <_>
      1.72293997e+000 4.82998997e-001 1.33186998e+001 1.95225000e+000
      1.59721994e+000 2.24853009e-002 1.49775004e+000 1.77744001e-001
      2.55385996e-003 8.35113970e-005 1.57032002e-006 1.20355002e-011
      1.96979997e-008 1.33612999e-011 0. 4.84465986e-001 5.42324007e-001
      5.87695003e-001 9.54212010e-001</_>
    <_>
      1.74561000e+000 5.98800004e-001 1.63281994e+001 1.86267996e+000
      1.63952005e+000 2.28962004e-002 1.52953994e+000 1.83635995e-001
      6.12394977e-003 4.57780989e-004 7.71218984e-005 1.43397001e-008
      5.75838021e-006 -2.08771000e-009 0. 5.44202030e-001
      4.77485001e-001 4.66271996e-001 9.51305985e-001</_>
    <_>
      1.80909002e+000 6.28974020e-001 1.65555000e+001 1.89110005e+000
      1.69339001e+000 2.26773005e-002 1.53393996e+000 1.85790002e-001
      7.50965020e-003 4.81474999e-004 5.99013983e-005 1.01496003e-008
      5.17495982e-006 6.87455981e-010 0. 5.28226018e-001 4.79050010e-001
      6.31851017e-001 9.52588022e-001</_>
    <_>
      1.61789000e+000 5.80013990e-001 1.69542999e+001 1.76409996e+000
      1.52670002e+000 2.30272003e-002 1.50502002e+000 1.78681999e-001
      4.45961999e-003 3.27966001e-004 3.73937000e-005 4.09914014e-009
      2.49629011e-006 5.87781990e-010 0. 5.42572975e-001 4.69810009e-001
      4.66951996e-001 9.51274991e-001</_>
    <_>
      1.49064004e+000 5.42761028e-001 1.73031998e+001 1.69965005e+000
      1.33248997e+000 2.35070009e-002 1.48069000e+000 1.71175003e-001
      1.40587997e-003 2.62546993e-004 1.74408997e-005 1.17476995e-009
      6.51921994e-007 -1.13134002e-010 0. 5.22216976e-001
      4.70613986e-001 7.31863976e-001 9.55686986e-001</_>
    <_>
      1.85116005e+000 5.62439978e-001 1.44110003e+001 1.98584998e+000
      1.74065006e+000 2.22667996e-002 1.52444994e+000 1.86623007e-001
      6.78709010e-003 3.58482008e-004 4.99943999e-005 6.69027989e-009
      4.09115000e-006 -1.87891994e-010 0. 5.22762001e-001
      5.08001983e-001 7.08980024e-001 9.52848971e-001</_>
    <_>
      1.60484004e+000 5.33535004e-001 1.58142004e+001 1.82530999e+000
      1.44939005e+000 2.29767002e-002 1.48838997e+000 1.75257996e-001
      2.74025998e-003 1.25443999e-004 4.07678999e-006 9.17350015e-011
      2.10476003e-007 -9.18668960e-012 0. 5.59011996e-001
      4.73482013e-001 8.08601975e-001 9.50022995e-001</_>
    <_>
      1.76889002e+000 6.04907990e-001 1.62668991e+001 1.90311003e+000
      1.67772996e+000 2.27196999e-002 1.52608001e+000 1.86003998e-001
      7.42838997e-003 3.22547014e-004 5.44579998e-005 7.20645987e-009
      4.69328006e-006 -3.99773992e-010 0. 5.24524987e-001
      4.82356995e-001 6.12003028e-001 9.50007021e-001</_>
    <_>
      1.61789000e+000 5.94308019e-001 1.74116993e+001 1.76733994e+000
      1.58171999e+000 2.32970007e-002 1.51919997e+000 1.83378994e-001
      5.50433993e-003 8.53770995e-004 1.18488999e-004 3.76862985e-008
      8.78668016e-006 1.25267005e-010 0. 5.60521007e-001 4.54272002e-001
      6.94710016e-001 9.51919973e-001</_>
    <_>
      1.67227006e+000 5.99695027e-001 1.68787003e+001 1.80367994e+000
      1.63532996e+000 2.29447000e-002 1.52576005e+000 1.83074996e-001
      5.59089985e-003 6.35326025e-004 9.18091973e-005 2.19739000e-008
      6.81966003e-006 2.96588998e-009 0. 5.22267997e-001 4.72739011e-001
      6.79558992e-001 9.54668999e-001</_>
    <_>
      1.86854005e+000 4.94291008e-001 1.25960999e+001 2.00780010e+000
      1.69895005e+000 2.20446009e-002 1.50828004e+000 1.81829005e-001
      4.35303012e-003 1.21575002e-004 1.29603995e-006 4.86735001e-012
      4.24046007e-008 -1.55232997e-011 0. 4.65898007e-001
      5.55684984e-001 7.52102971e-001 9.57964003e-001</_>
    <_>
      1.76889002e+000 6.04188025e-001 1.61900005e+001 1.93292999e+000
      1.68262005e+000 2.26888005e-002 1.52941000e+000 1.85984999e-001
      7.31287012e-003 4.72334999e-004 5.90636009e-005 9.82108972e-009
      5.04942000e-006 -9.31712041e-010 0. 5.52013993e-001
      4.67637002e-001 6.15881979e-001 9.48876977e-001</_>
    <_>
      1.89523995e+000 5.79989016e-001 1.45393000e+001 2.07562995e+000
      1.81502998e+000 2.22293995e-002 1.53183997e+000 1.95296004e-001
      1.02265002e-002 5.51080971e-004 1.11697998e-004 2.74994996e-008
      1.11644003e-005 3.42968010e-009 0. 5.00814974e-001 5.18742025e-001
      7.25919008e-001 9.54560995e-001</_>
    <_>
      1.90430999e+000 6.18071973e-001 1.54554005e+001 1.98501003e+000
      1.77006996e+000 2.23145001e-002 1.53672004e+000 1.89693004e-001
      9.15195979e-003 3.32914991e-004 5.20342983e-005 6.84801993e-009
      4.96469011e-006 8.89375032e-011 0. 5.17872989e-001 4.91405010e-001
      5.37809014e-001 9.55283999e-001</_>
    <_>
      1.80909002e+000 5.76964021e-001 1.51219997e+001 1.93865001e+000
      1.64651000e+000 2.25272998e-002 1.53030002e+000 1.84916005e-001
      6.29738998e-003 3.49559006e-004 5.13878986e-005 6.78718015e-009
      3.93218988e-006 1.17031995e-009 0. 4.96064991e-001 5.08494020e-001
      5.45466006e-001 9.56116021e-001</_>
    <_>
      1.62449002e+000 5.13234973e-001 1.49590998e+001 1.86636996e+000
      1.49282002e+000 2.28046998e-002 1.49100995e+000 1.76440999e-001
      2.55893008e-003 2.42007998e-004 1.32844998e-005 7.39058981e-010
      6.68185976e-007 -1.45471996e-010 0. 4.45003003e-001
      5.26201010e-001 6.62481010e-001 9.60870981e-001</_>
    <_>
      1.59200001e+000 6.00311995e-001 1.77182999e+001 1.76823997e+000
      1.53731000e+000 2.32222006e-002 1.51814997e+000 1.81126997e-001
      4.98478999e-003 5.51667996e-004 7.44564022e-005 1.48553996e-008
      5.23377003e-006 -2.65083999e-009 0. 5.71084976e-001
      4.37756002e-001 5.83563983e-001 9.45701003e-001</_>
    <_>
      1.34458995e+000 5.78788996e-001 1.97915993e+001 1.60736001e+000
      1.27517998e+000 2.43733991e-002 1.52049005e+000 1.72270998e-001
      9.59552010e-004 7.38875009e-004 5.44122013e-005 1.09076996e-008
      1.67294002e-006 2.28412997e-010 0. 6.48654997e-001 3.73032987e-001
      6.40693009e-001 9.36827004e-001</_>
    <_>
      2.16303992e+000 4.68887001e-001 1.03191996e+001 2.40840006e+000
      2.04053998e+000 2.13418007e-002 1.53333998e+000 2.08718002e-001
      1.23047996e-002 1.11540003e-005 5.50842014e-005 3.35113992e-010
      6.09723020e-006 1.32362998e-009 0. 4.38129008e-001 6.17878020e-001
      6.83829010e-001 9.55968976e-001</_>
    <_>
      1.85116005e+000 6.10137999e-001 1.56227999e+001 2.00629997e+000
      1.80168998e+000 2.22983994e-002 1.52760994e+000 1.91337004e-001
      9.56980046e-003 3.99635988e-004 7.56969966e-005 1.31659004e-008
      7.37552000e-006 -1.47108992e-011 0. 5.28995991e-001
      4.90933001e-001 5.39911985e-001 9.53683972e-001</_>
    <_>
      1.67227006e+000 5.46947002e-001 1.55579996e+001 1.80325997e+000
      1.54714000e+000 2.27451008e-002 1.49654996e+000 1.77191004e-001
      3.80026991e-003 1.97243993e-004 1.58199000e-005 8.83552009e-010
      9.72612042e-007 1.65567993e-011 0. 5.44332027e-001 4.87405002e-001
      6.90176010e-001 9.49919999e-001</_>
    <_>
      1.79279006e+000 5.95709026e-001 1.57972002e+001 1.90009999e+000
      1.67227995e+000 2.25974005e-002 1.52603996e+000 1.83240995e-001
      6.43250020e-003 1.86510006e-004 2.31507001e-005 1.48029000e-009
      1.66363998e-006 -3.50562995e-010 0. 5.57595015e-001
      4.83094007e-001 5.70819020e-001 9.51035976e-001</_>
    <_>
      1.79279006e+000 5.61489999e-001 1.49045000e+001 1.90508997e+000
      1.66252995e+000 2.25070007e-002 1.51844001e+000 1.84012994e-001
      5.60264988e-003 5.95509016e-004 9.15444034e-005 2.13213998e-008
      6.80300991e-006 -1.50206003e-009 0. 5.15271008e-001
      5.05433977e-001 5.97280025e-001 9.52118993e-001</_>
    <_>
      1.63115001e+000 4.87612009e-001 1.42350998e+001 1.90119004e+000
      1.46372998e+000 2.28387993e-002 1.48708999e+000 1.76400006e-001
      1.96950999e-003 3.20363004e-004 1.88177000e-005 1.45603996e-009
      8.29980024e-007 -1.21131993e-010 0. 5.24589002e-001
      5.08336008e-001 7.03086019e-001 9.47736979e-001</_>
    <_>
      1.60484004e+000 5.06043017e-001 1.48569002e+001 1.86196005e+000
      1.46631002e+000 2.26803999e-002 1.48327005e+000 1.72997996e-001
      2.04122998e-003 1.00177000e-004 5.88151977e-007 4.47535021e-012
      2.61763997e-008 5.93883991e-013 0. 4.99812990e-001 5.06088018e-001
      6.06271982e-001 9.55780029e-001</_>
    <_>
      1.74561000e+000 6.22223020e-001 1.61086998e+001 1.89043999e+000
      1.72463000e+000 2.25114003e-002 1.58395004e+000 1.87500000e-001
      6.42191013e-003 1.11316994e-003 1.81965006e-004 8.13721002e-008
      1.45084996e-005 9.24868004e-009 0. 5.65560997e-001 4.47111011e-001
      5.57480991e-001 9.49167013e-001</_>
    <_>
      1.72293997e+000 6.20890975e-001 1.71602993e+001 1.80587006e+000
      1.63230002e+000 2.28994992e-002 1.52184999e+000 1.80354998e-001
