svm_type c_svc
kernel_type rbf
gamma 0.0125
nr_class 42
total_sv 1486
rho 0.159883 0.214541 0.27689 0.510811 0.426172 0.43389 0.315339 0.458562 0.484653 0.0758522 0.210689 0.457237 0.125159 0.440105 0.461062 0.279809 0.255908 0.279727 0.344608 0.457042 0.538329 0.41108 0.340998 0.239548 0.344387 0.210635 0.145853 0.52161 0.41817 0.233824 0.350681 0.476273 0.0471122 0.285285 0.300209 0.279028 0.36783 0.0322564 0.297645 0.363857 0.215682 0.276206 0.0954742 0.386731 0.22193 0.256685 0.0923262 0.336328 0.302276 -0.0604402 0.0605809 0.31884 -0.0531132 0.277996 0.331143 0.146491 0.087744 0.115107 0.124212 0.236033 0.279839 0.132169 0.174602 0.100759 -0.12058 -0.0635638 -0.0836564 -0.0209698 0.0525116 -0.0935745 0.159542 0.307152 -0.115365 0.157117 -0.055261 0.133543 0.195089 -0.0548851 0.159232 0.22325 0.0382462 0.0590494 0.355921 0.191234 0.225059 0.0506892 0.303037 0.273233 -0.103555 0.0226989 0.287147 -0.0915223 0.245884 0.298415 0.109265 0.0408574 0.0789359 0.125739 0.206983 0.248856 0.096806 0.150418 0.052921 -0.175817 -0.0986557 -0.116944 -0.144484 0.0192599 -0.16393 0.124687 0.279503 -0.164584 0.124574 -0.0814467 0.0928348 0.163425 -0.0952684 0.12261 0.188034 -0.00328239 0.339003 0.0871364 0.223351 0.0690566 0.261699 0.145287 -0.159792 -0.0432054 0.262738 -0.151458 0.155325 0.270041 0.0544028 -0.0408024 0.0197583 0.0109012 0.125738 0.151423 0.0519902 0.0190238 -0.0082633 -0.219033 -0.171992 -0.220795 -0.126476 -0.184896 -0.229961 0.0753335 0.209625 -0.211631 0.0600357 -0.15887 0.0690085 0.098486 -0.1216 0.0690478 0.112235 -0.0614075 -0.201529 -0.170514 -0.317519 -0.0631977 -0.111229 -0.440847 -0.343169 -0.0186502 -0.503825 -0.134215 -0.0777501 -0.257234 -0.329403 -0.290928 -0.291001 -0.178769 -0.13644 -0.282705 -0.245704 -0.294093 -0.482947 -0.445311 -0.4695 -0.409356 -0.369509 -0.468576 -0.247906 -0.0984919 -0.478785 -0.248141 -0.436769 -0.283234 -0.237341 -0.458193 -0.256936 -0.194599 -0.363233 0.145699 -0.0895037 0.134577 0.0887566 -0.297271 -0.0977443 0.11548 -0.340762 0.0670828 0.133122 -0.0736296 -0.0881993 -0.109684 -0.150685 0.0374267 0.0865374 -0.121773 0.00564307 -0.131051 -0.348199 -0.301309 -0.319843 -0.272931 -0.142159 -0.321197 -0.0717441 0.17318 -0.338477 -0.0676132 -0.287859 0.0640315 -0.0395817 -0.361885 -0.0633676 -0.015847 -0.199289 -0.150942 0.099971 0.150995 -0.322437 -0.214531 0.0941585 -0.341327 0.0276821 0.0995828 -0.110868 -0.159533 -0.169622 -0.157115 0.0104628 0.0317134 -0.0810003 -0.0794086 -0.167704 -0.365013 -0.335386 -0.351316 -0.267054 -0.160452 -0.358663 -0.102659 0.0704657 -0.367962 -0.105046 -0.320788 -0.0336838 -0.0788558 -0.371959 -0.0966998 -0.0426609 -0.221365 0.253397 0.231368 -0.174053 -0.13429 0.235709 -0.37524 0.229487 0.253478 0.0504087 0.0883399 -7.32597e-05 -0.0606745 0.153205 0.167519 0.0639061 -0.0664806 -0.15191 -0.43724 -0.0914434 -0.202718 0.043588 -0.216858 -0.256415 0.0851814 0.244172 -0.217827 0.0560573 -0.124724 0.0221986 0.112079 -0.488753 0.0644368 0.127515 -0.0364892 -0.0448052 -0.389209 -0.284931 -0.0201104 -0.414877 -0.0695223 -0.0233122 -0.211432 -0.265695 -0.233516 -0.230451 -0.119938 -0.0762685 -0.221776 -0.181167 -0.237942 -0.424211 -0.391021 -0.411727 -0.353631 -0.300129 -0.411848 -0.191622 -0.0389109 -0.43122 -0.193868 -0.38507 -0.222859 -0.163037 -0.391493 -0.2162 -0.128008 -0.306309 -0.366657 -0.264895 0.0288461 -0.40888 0.0375875 0.0469037 -0.157247 -0.230484 -0.197267 -0.215041 -0.105906 -0.0493524 -0.210147 -0.200079 -0.225954 -0.462214 -0.395899 -0.427937 -0.367101 -0.351294 -0.441684 -0.176674 0.0191525 -0.409478 -0.151285 -0.373999 -0.2014 -0.129378 -0.423264 -0.159727 -0.147449 -0.307362 0.129972 0.376951 0.0106603 0.337276 0.386149 0.204198 0.150879 0.170983 0.196124 0.302799 0.363639 0.199635 0.248816 0.173193 -0.0349121 0.0256082 -0.0144467 0.0709132 0.112646 -0.0228514 0.227431 0.365282 -0.0493042 0.20956 0.0469329 0.20939 0.265884 0.00726806 0.217807 0.282181 0.102062 0.272418 -0.11757 0.235578 0.281936 0.088075 0.0286393 0.0830732 0.0488399 0.185958 0.254895 0.0727739 0.139674 0.0459541 -0.169492 -0.139394 -0.139814 -0.0627098 0.0258924 -0.139008 0.0950875 0.264236 -0.185345 0.0937173 -0.119018 0.119389 0.14266 -0.147187 0.102226 0.168322 -0.0219999 -0.400076 -0.0580237 -0.0389432 -0.185543 -0.252991 -0.217956 -0.218213 -0.102592 -0.0594634 -0.210238 -0.16502 -0.222107 -0.417851 -0.379418 -0.406428 -0.343086 -0.29667 -0.406382 -0.174372 -0.0188485 -0.416705 -0.174084 -0.374255 -0.209962 -0.170692 -0.386486 -0.26585 -0.117303 -0.296293 0.415619 0.453725 0.19758 0.139544 0.17828 0.173042 0.315409 0.351835 0.224326 0.265476 0.156164 0.024572 -0.0103514 -0.0531142 0.0746405 0.112633 0.0626476 0.22884 0.395263 -0.0671326 0.202136 0.0024308 0.1956 0.235716 0.0546098 0.243923 0.275932 0.120446 0.0705023 -0.134028 -0.233756 -0.176304 -0.18788 -0.065697 -0.0259178 -0.173975 -0.127133 -0.20473 -0.432725 -0.354853 -0.385244 -0.337144 -0.239261 -0.452627 -0.128581 0.0289916 -0.388433 -0.128311 -0.345321 -0.142482 -0.0921467 -0.39256 -0.127494 -0.0790089 -0.289087 -0.197013 -0.267197 -0.229399 -0.227757 -0.116721 -0.0711329 -0.219748 -0.182466 -0.23373 -0.42894 -0.389825 -0.413424 -0.352827 -0.305886 -0.415324 -0.186777 -0.0321153 -0.427246 -0.187721 -0.381805 -0.223225 -0.155629 -0.400844 -0.192312 -0.0816313 -0.305483 -0.0647246 -0.0337009 -0.0294393 0.083162 0.126026 -0.0186797 0.0220267 -0.0389343 -0.237934 -0.203814 -0.224262 -0.161848 -0.0981545 -0.225248 0.00970624 0.162902 -0.252868 0.00566924 -0.198697 -0.019782 0.0491442 -0.198048 0.0116423 0.0784247 -0.109601 0.0331292 0.01583 0.154477 0.18114 -0.0516571 -0.0623853 -0.00321351 -0.226767 -0.250495 -0.25467 -0.0660644 -0.047612 -0.224716 0.127906 0.261056 -0.228135 0.0703973 -0.140287 0.187881 0.12198 -0.174012 0.0797543 0.139866 -0.0704158 0.0296437 0.125376 0.226145 0.00856606 0.060388 -0.011466 -0.229225 -0.18118 -0.20073 -0.136366 -0.0628648 -0.211556 0.023789 0.209325 -0.244205 0.0393778 -0.176877 0.0299957 0.0855213 -0.186012 0.0469614 0.113904 -0.0832367 0.127685 0.120739 0.0118047 0.0352711 -0.0461295 -0.0758537 -0.387309 -0.457189 -0.192906 0.0017155 -0.257693 0.0205149 0.221498 -0.347329 0.0351486 -0.319901 0.0850748 0.0877292 -0.24455 0.0429134 0.107983 -0.124259 0.0518841 -0.138255 -0.0419311 -0.138213 -0.332469 -0.365766 -0.387722 -0.308152 -0.215745 -0.343777 -0.00350208 0.124104 -0.362613 -0.0775226 -0.315907 -0.0204581 -0.0397805 -0.306097 -0.073414 -0.0134515 -0.260112 -0.190465 -0.16553 -0.208812 -0.295195 -0.288775 -0.378552 -0.229188 -0.0600303 -0.34627 -0.127155 0.0458058 -0.435013 -0.120379 -0.335707 -0.103708 -0.0751485 -0.416414 -0.115352 -0.0535359 -0.231394 0.0274163 -0.062908 -0.306832 -0.208999 -0.201116 -0.149169 -0.0379672 -0.268619 0.0364711 0.187516 -0.288298 0.0243036 -0.238312 0.12965 0.0734107 -0.227275 0.0323587 0.0960541 -0.103037 -0.0800978 -0.228622 -0.300004 -0.304364 -0.160694 -0.0613137 -0.261266 -0.0108409 0.179096 -0.313615 -0.0163917 -0.268056 -0.0485482 0.0227265 -0.202047 -0.0103922 0.0503422 -0.0729264 0.0889469 -0.121677 -0.175067 -0.0285506 0.0244602 -0.144263 0.0598783 0.221666 -0.228004 0.0446456 -0.15929 0.0577703 0.0959846 -0.138663 0.052499 0.120296 -0.104542 0.00722182 -0.0191795 0.118993 0.251642 -0.35342 0.23088 0.436798 -0.0672024 0.243641 -0.0972871 0.210599 0.314547 -0.0427193 0.257797 0.324695 0.0129939 -0.157191 0.17032 0.166042 -0.13074 0.24987 0.399567 0.043079 0.20936 0.0164313 0.244528 0.279277 -0.0705055 0.218927 0.286238 0.123745 0.0837252 0.231729 0.0154984 0.270264 0.43899 -0.157207 0.229792 0.0650186 0.270182 0.308298 0.0490575 0.241432 0.3098 0.12521 0.179329 0.11057 0.0585696 0.367129 -0.148297 0.167792 -0.378942 0.308527 0.233226 -0.111011 0.177981 0.245731 0.00464098 -0.416359 0.135861 0.280601 -0.186622 0.103685 -0.127225 0.0124521 0.165525 -0.229776 0.114807 0.176001 -0.0693789 0.333704 0.430461 -0.0487697 0.231163 0.0557222 -0.0183508 0.295406 -0.100511 0.243255 0.312393 0.126068 0.158366 -0.270792 -0.00403914 -0.204195 0.0117404 0.0421456 -0.244322 0.00308473 0.0693594 -0.106707 -0.42036 -0.156954 -0.379426 -0.233431 -0.125631 -0.389448 -0.155661 -0.121149 -0.293851 0.25833 0.0429656 0.276635 0.307801 0.0663246 0.265852 0.32868 0.170879 -0.204734 -0.0254667 0.0423886 -0.203481 0.00703127 0.072633 -0.115185 0.210447 0.261968 -0.017921 0.213159 0.278943 0.115454 0.0744503 -0.207106 0.0334071 0.0844183 -0.118823 -0.277429 -0.0332444 0.0319861 -0.171742 0.2177 0.283902 0.100748 0.0602564 -0.126918 -0.192913
label 1 2 3 4 5 6 7 8 9 10 11 12 13 14 15 16 17 18 19 20 21 22 23 24 25 26 27 28 29 30 31 32 33 34 35 36 37 38 39 40 41 42
nr_sv 35 23 28 38 33 40 36 45 27 44 23 34 35 28 37 21 24 40 31 41 39 47 37 41 29 39 41 41 49 49 39 38 33 32 15 40 47 32 37 31 28 39
SV
0 0 0 0 0 0 0 0 0 0 0 0 0 0 0 0 0 0 0 0 0 0 0 0 0 0 0 0 0 0 0.6254316079383235 0 0 0 0.0472863183411289 0 0 0 0 0 0 1:3.998806 2:-2.203595 3:1.442066 4:0.843791 5:0.526298 6:1.228642 7:0.708181 8:0.812596 9:1.429693 10:-0.401295 11:1.105787 12:-0.188444 13:-2.122989 14:0.399324 15:-0.717555 16:0.840559 17:2.328522 18:1.114069 19:-0.1879 20:-0.064779 21:1.308327 22:0.270236 23:-0.209398 24:2.190281 25:0.248821 26:0.385697 27:0.974172 28:0.098233 29:-0.432876 30:-0.145482 31:0.297857 32:-1.06953 33:-1.641448 34:-0.187821 35:2.321855 36:2.363818 37:0.836277 38:1.021614 39:0.309887 40:-0.67731 41:-0.390736 
0 0 0 0 0 0 0 0 0 0 0 0 0 0 0 0 0 0 0 0 0 0 0 0 0 0 0 0 0 0 0 0 0.0629465049388843 0 0.2108490032426613 0 0 0 0 0 0 1:3.816265 2:-1.516622 3:3.30529 4:1.404957 5:0.761958 6:1.037141 7:0.44948 8:1.104361 9:2.8478 10:0.701998 11:1.01491 12:-0.449045 13:-1.073959 14:-0.432327 15:-0.169301 16:-0.005754 17:0.787263 18:1.208448 19:-1.063567 20:1.664596 21:0.038112 22:0.941223 23:-0.439825 24:1.353225 25:-1.032007 26:0.75683 27:0.342877 28:0.385915 29:0.366207 30:1.30531 31:0.863374 32:0.448106 33:-2.2705 34:0.632499 35:2.789806 36:1.482721 37:-1.679826 38:0.555941 39:0.188307 40:-0.586302 41:0.323368 
0 0 0 0 0 0 0.3729740065871416 0 0 0 0 0.008183368471871247 0.1099879535116509 0.04754888001328223 0 0 0 0 0 0 0.63587685152938 0 0 0.1719013701325622 1.443316238728968 1.405952758224629 0.2956035538070398 1.636673718926476 0.5167031039885427 1.023515096579882 0.5987731237893248 0 0.4935408597063279 0 0.8438465637384268 0.7608404032545714 0.08802219473703005 0.3311086457374648 0 0 0.3372328971777708 1:3.071176 2:-1.376368 3:1.980454 4:1.983734 5:-1.029522 6:0.15143 7:0.523374 8:0.8791 9:2.277577 10:0.221455 11:0.65033 12:-0.519165 13:-1.298647 14:0.121025 15:-1.319209 16:-0.223251 17:1.130831 18:0.091902 19:-0.035076 20:-0.227996 21:0.361158 22:-0.077587 23:-0.322669 24:0.342406 25:0.810486 26:0.285737 27:0.523904 28:0.689575 29:-1.146762 30:0.645991 31:-0.423728 32:0.5683 33:-0.687515 34:-0.095918 35:1.469678 36:1.984905 37:-1.183137 38:-0.984642 39:0.112629 40:0.17345 41:-0.781182 
0 0 0 0 0 0 0 0 0 0 0 0 0 0 0 0 0 0 0 0 0 0 0 0 0 0 0 0 0 0.5686450267621574 0 0 0 0 0 0 0 0 0 0 0 1:3.842067 2:-2.013709 3:1.482559 4:1.367576 5:0.173316 6:1.475841 7:-0.064589 8:1.070968 9:1.937835 10:-0.416061 11:0.667979 12:0.170665 13:-1.362108 14:0.291298 15:-0.356447 16:0.207478 17:1.55444 18:0.77199 19:-1.119114 20:1.627553 21:0.634405 22:1.31448 23:0.555989 24:1.040674 25:0.377806 26:0.425019 27:0.261181 28:0.055523 29:-0.40136 30:-1.034353 31:-0.014747 32:1.736445 33:-0.314134 34:0.58365 35:1.056257 36:0.274477 37:0.759621 38:0.735918 39:0.026278 40:-0.828966 41:-0.484759 
0.6192727746905736 1.250910900915918 0.3660950724951186 0.3459583164103993 0.4375898673718453 0.3025417787677266 1.286932971753707 0.3299632737444194 0.3239053486286961 0.2052062201813937 0.3865208534579069 0.3186786249809977 0.6397517336695957 0.4014030857631848 0.3374880622742981 0.2928616035683891 0.4056044688440993 0.1666916404647734 0.5882196414811383 0.2173084977108951 0.5537874287833076 0.3644525854511824 0.4765991116241745 0.6846933514262663 1.523096471451528 0.2342836025059428 0 2.441480661067843 0.9039751580092427 4.690287545643622 0.4555445710055977 0.4092792201122182 0 0.2960859163671224 0 0.8654261644387575 0.3001984811927287 0.9591218377640363 0.2983927719975253 0.3013400636428368 0.3149805015460654 1:4.0991 2:-1.124692 3:1.180287 4:2.576616 5:-0.968165 6:-0.203543 7:1.331294 8:-1.181295 9:1.669791 10:-0.112592 11:1.660554 12:-0.269289 13:-1.644674 14:-0.365666 15:-1.545777 16:0.733527 17:0.120904 18:1.483595 19:-0.139009 20:1.399062 21:1.71476 22:0.148925 23:0.366218 24:1.143758 25:0.461878 26:0.708721 27:0.314674 28:0.699864 29:0.021725 30:-1.136083 31:-0.720997 32:-1.474245 33:0.096214 34:-0.17429 35:1.110661 36:0.315124 37:-0.523438 38:-0.178368 39:-0.999212 40:-0.102825 41:-0.841446 
0 0 0.2080710831714934 0.1054827702831925 0.1095510615552892 0.1976500379285834 0.5646192385247475 0.08687098520762236 0.3156548141173267 0.1328121597398213 0.1120678375188104 0.1431596848361368 0.3470241713112893 0.1751086243396827 0.1157723087728302 0.06436523161515026 0.1638213107535456 0.1576487895222209 0.7389241911103995 0 1.044964008181454 0.01004072597063306 0 0 0 0.6004560845948637 0.5880691273758157 0 1.004952063887487 0 0 0.1950473091020643 0 0.06132944831977071 0.03480704681650156 0 0.1978776106206445 0.07992187887343628 0.07017252667918193 0.1332465388397239 0 1:3.10726 2:-1.684966 3:2.077997 4:1.790378 5:0.288236 6:-0.156202 7:0.722932 8:-0.264613 9:3.02748 10:-0.187103 11:1.71393 12:0.239801 13:-1.191053 14:-1.079932 15:-0.63298 16:0.308686 17:0.354779 18:-0.300181 19:-0.038139 20:1.207411 21:1.09558 22:-0.440128 23:0.246172 24:0.85685 25:-0.474693 26:1.857496 27:1.920891 28:0.124228 29:0.411609 30:-0.05802 31:-0.762804 32:0.30358 33:-0.664352 34:0.726171 35:0.060373 36:-0.596409 37:-1.277276 38:0.194633 39:0.074172 40:-0.247087 41:0.380304 
0 0 0 0 0 0 0 0 0 0 0 0 0 0 0 0 0 0 0 0 0 0 0 0 0 0 0.3860272745123172 0 0 0 0 0 0 0 0 0 0 0 0 0 0 1:3.076602 2:-1.638433 3:1.918144 4:2.475305 5:-0.077883 6:0.13007 7:1.259792 8:0.292143 9:2.651445 10:0.448927 11:0.304622 12:0.772158 13:-1.933535 14:-0.914979 15:-1.075875 16:0.414621 17:1.442012 18:0.3887 19:-1.42003 20:-0.029469 21:0.65481 22:-0.36396 23:-0.114095 24:1.270812 25:0.332923 26:2.563869 27:0.266763 28:0.189879 29:-0.368261 30:-0.014633 31:0.733209 32:0.751346 33:-0.341879 34:1.831926 35:0.860598 36:-0.726223 37:0.297815 38:-1.113167 39:-0.468286 40:1.036409 41:0.113702 
0 0 0.03712569293110499 0.05725642746062593 0.05440883452213497 0.03353863608811183 0 0.0572890530842227 0.03607779980401695 0 0 0.08015230157142353 0 0.02058814557010823 0.05910796852435585 0.04957536425013848 0 0 0.1130367319031797 0 0.1548952543982118 0 0.0380427303889691 0 0 0 0.0386248346636676 0 0 0 0 0.02423990658535314 0 0.0498806019065717 0 0 0.06149505388068838 0 0.05397352667112775 0.05772466710289098 0 1:3.553071 2:-1.328735 3:1.405613 4:1.762613 5:0.57003 6:0.041142 7:0.123661 8:-1.442502 9:3.354876 10:0.663212 11:1.018164 12:-0.38511 13:-1.402317 14:-0.431514 15:-0.462689 16:1.112917 17:1.119109 18:-0.213015 19:-2.65376 20:1.386955 21:1.88809 22:0.474833 23:1.365872 24:3.572458 25:1.259342 26:2.803778 27:-0.251448 28:-1.277612 29:0.21674 30:0.922358 31:1.931082 32:0.302311 33:-1.229018 34:1.554867 35:2.979636 36:1.915874 37:-0.517011 38:0.564024 39:1.255852 40:-0.555678 41:1.328101 
0.01786672078846267 0.005407476217457313 0 0.01420026968819124 0 0 0 0.01775539868234337 0 0.1382133507373406 0 0 0 0 0.01531202758348772 0.02254930601241018 0 0.06980773394458442 0 0 0 0 0 0 0 0 0 0 0 0 0 0 0 0.02323537968841913 0 0 0 0 0.008262234404869369 0 0 1:3.634278 2:-1.437134 3:3.106721 4:1.322978 5:1.596399 6:-0.265277 7:-0.132305 8:-1.036634 9:2.540379 10:-1.709528 11:1.127866 12:-0.545578 13:-1.804486 14:0.803414 15:0.012019 16:-0.10194 17:2.557378 18:1.634265 19:-1.888017 20:1.353466 21:1.732188 22:0.359575 23:0.029253 24:3.302336 25:0.119569 26:1.044573 27:-0.054342 28:-1.234332 29:-0.686329 30:-0.380254 31:1.223671 32:1.625284 33:-2.396027 34:1.669527 35:2.038055 36:1.380585 37:-0.581048 38:-0.549807 39:1.311758 40:-1.642824 41:1.934938 
0 0.108393945883914 0 0 0 0 0 0 0 0 0 0 0 0 0 0 0 0 0 0 0 0 0 0 0 0.1549546012764507 0 0.01570747172954115 0 0.2314160659282179 0 0 0 0 0.7651970013257035 0 0 0 0 0 0 1:4.714228 2:-1.247343 3:1.729862 4:1.816093 5:0.157317 6:-0.251182 7:-0.003043 8:-0.79485 9:2.855619 10:0.138518 11:1.729024 12:-1.112093 13:-0.834961 14:0.313232 15:-0.548036 16:-0.7495 17:1.640372 18:1.141715 19:0.520281 20:1.444975 21:2.1586 22:-0.753943 23:1.590198 24:2.270785 25:0.92937 26:-0.429818 27:0.295006 28:-0.516721 29:0.535427 30:-0.182712 31:-0.173329 32:-0.859279 33:0.850023 34:1.133774 35:0.925015 36:1.432853 37:0.520915 38:0.245059 39:-0.002297 40:-0.876446 41:0.594303 
0.1665674833978956 0.01226969522173279 0.1223847122554096 0.1590375744100532 0.1265464868217164 0.2508753036157485 0.1262970384758727 0.1502863477289562 0.1561597741555079 0.04972240168433357 0.1150399744939046 0.1738479509767007 0.03822215099058911 0.1825260835517243 0.1377890100993744 0.1250553934560902 0 0.2222253099795312 0.05355677574408479 0.0969616376945502 0.157697566265126 0 0 0.170036584789005 0 0.1241426703374727 0 0 0.08515323887278978 0.2758658112540491 0.2701334417609666 0.2168295380609519 0 0.1255802705437797 0 0.375561368087173 0.1177393299065456 0.4240511072762225 0.1265212218283594 0.173379459875113 0 1:2.84846 2:-1.712644 3:1.505377 4:0.250927 5:0.241273 6:0.6894 7:0.339794 8:-1.150515 9:1.326682 10:-0.550084 11:1.632675 12:-1.857491 13:-2.039948 14:-0.257949 15:-1.056599 16:0.112213 17:1.449798 18:-0.478627 19:-0.789633 20:0.458845 21:1.279634 22:0.132982 23:-1.305716 24:2.864728 25:1.838908 26:0.085941 27:-0.608707 28:-1.789933 29:0.219915 30:0.65044 31:-0.88167 32:-0.150869 33:-1.341438 34:1.170986 35:2.398309 36:1.550476 37:-1.022609 38:1.093932 39:-1.717129 40:-0.664624 41:1.508597 
0.1983553109596048 0.3520011255092531 0.1174397755795288 0.1986735435958615 0.128141223757597 0.2237486188593334 1.112601455483367 0.1937534149310529 0.1174764536779431 0.2756409009833324 0 0.1663754233422249 0 0.1012559553302738 0.1674829269691174 0.1719059568567249 0.9948755081532893 0 0.1398422924877043 0.04780399749386705 0.3785330087566137 0.394538178304964 0.2488301487886737 0.434041633415516 0.7079375077420101 0.6908175677708354 0.5380814362222145 2.563224309526435 0.08737071473500928 0.708545836750174 0.3668786643762855 0.246824765324208 0.7981437140696983 0.1753222005275975 2.214333057958654 0 0.1089284643949828 0 0.1806939798776665 0.1625273868574366 0.5696221687591602 1:4.497551 2:-1.984274 3:2.426651 4:1.741582 5:-0.191195 6:0.346128 7:0.312982 8:0.452068 9:1.58696 10:1.038433 11:0.734291 12:-0.120418 13:-0.769215 14:-1.426353 15:0.361687 16:0.537893 17:0.359347 18:2.254266 19:-1.727273 20:1.294946 21:0.66875 22:-0.263734 23:0.169135 24:0.369263 25:-0.738246 26:0.364652 27:0.511077 28:0.418633 29:-0.062239 30:0.171597 31:0.372135 32:0.670141 33:-0.642743 34:0.367437 35:0.854261 36:-0.835521 37:-1.06377 38:0.338122 39:1.51929 40:-0.562891 41:0.346395 
0 0 0 0.06074814477512601 0 0 0 0.06168441948878035 0.01615493553760529 0.001729522484229004 0 0.04416842104752087 0 0 0.06329046151231581 0.05856183154465839 0 0 0.0435704625602981 0 0 0 0.01898913847721809 0 0 0 0.03158039789316112 0 0 0 0 0.03535725279365044 0 0.05961543840304941 0 0 0.03057286004944382 0 0.04920117292341118 0.03401510185983334 0 1:3.296111 2:-1.7368 3:1.612763 4:1.325558 5:0.312275 6:0.805964 7:-0.091043 8:-0.250362 9:3.205784 10:-0.107842 11:1.862033 12:-0.394258 13:-1.215358 14:0.599989 15:-1.759776 16:0.807945 17:1.921012 18:0.491093 19:-2.035347 20:1.922448 21:2.800823 22:1.528137 23:0.632638 24:5.217219 25:1.889877 26:1.969375 27:-0.275306 28:-1.613811 29:-0.162136 30:2.081166 31:1.164631 32:0.175161 33:-1.867109 34:0.682039 35:2.711092 36:2.454137 37:-0.037145 38:0.564351 39:-0.312883 40:-0.171653 41:0.656686 
0.2001370650937128 0.3835412255323076 0.01451212815673925 0.3015300214577977 0.02119824460212969 0.08826143525877084 0 0.2956064359483119 0.2216414787111301 0.08840046402240842 0.04042211867464014 0.2838422052400774 0 0.2320636750992238 0.2942924080295094 0.2630757069039668 0 0.2657105904336327 0 0 0 0.2208968128793793 0 0.2926609378390742 0.07088628092184882 0.1133300962064978 0.008104075869677214 0.314394231649292 0 0 0.2539301125516532 0.2702292506442991 0.7614098490069979 0.2641801538467207 0.7464174728728427 0 0.2160952821422055 0 0.2657736934416698 0.2763241372924718 0.1495066029163324 1:4.487085 2:-2.069829 3:2.078686 4:1.632168 5:0.57122 6:1.610768 7:0.193872 8:1.347705 9:2.481615 10:0.926122 11:1.349723 12:-1.247328 13:-0.574482 14:1.175815 15:1.210929 16:0.308091 17:1.412708 18:1.254637 19:-1.316571 20:1.943882 21:0.186763 22:1.216919 23:1.671935 24:3.038996 25:0.082002 26:-1.032296 27:-0.00878 28:-0.727766 29:-0.639719 30:0.559836 31:1.285985 32:0.542359 33:-1.717972 34:-0.307757 35:1.077219 36:2.048355 37:0.293799 38:1.484153 39:-1.401758 40:1.442739 41:-0.306628 
0.4999731360451654 0.30378783867168 0.5299157345043257 0.6861914212954413 0.5883442402923799 0.603147112916488 0.2129625345305548 0.6606047643032423 0.6481615787503464 0.4349063846170874 0.6547252066951706 0.665126050686159 0.4257591080332828 0.6503875709445622 0.6623935251181697 0.5785803446285229 0.2489837917101292 0.5458264940065717 0.2363625376032079 0.5438321295618943 0.2581918567076022 0.5823090046326209 0.5600859076884849 0.4494969491427687 0.1032285435784334 0.09292951547537204 0.09720490005608923 0 0.2569263697530489 0 0.194011655082412 0.6262900140667094 0.1996320871931574 0.5798500526242536 0 0.3885349324783381 0.5994737820647353 0.1575510327998212 0.5946615637297445 0.620687425816146 0.4009395025194973 1:3.243955 2:-1.819617 3:1.724716 4:2.42445 5:0.806562 6:1.416509 7:-0.69754 8:-1.468232 9:3.759512 10:-0.786974 11:2.034333 12:-0.913107 13:-1.923499 14:0.079764 15:-1.875032 16:-0.007895 17:1.397594 18:2.055209 19:-1.050554 20:1.995531 21:2.856179 22:1.095652 23:1.11855 24:4.500137 25:1.210537 26:1.995216 27:-0.369447 28:-1.339034 29:-0.245171 30:1.189788 31:2.736975 32:2.488678 33:-2.910322 34:0.997068 35:2.991693 36:1.310802 37:-0.743856 38:1.054872 39:0.273468 40:-1.092294 41:0.258813 
0 0 0 0 0 0 0 0 0 0 0 0 0 0 0 0 0 0 0 0 0.02497262092625744 0 0 0 0 0 0.279087653567453 0.7196729355012164 0 0.2690700778838315 0.1213221760625776 0 0 0 0 0 0 0 0 0 0 1:3.316625 2:-1.811336 3:1.836002 4:1.509144 5:-0.741265 6:0.79313 7:0.366895 8:0.324064 9:2.07575 10:-0.408246 11:1.48946 12:0.29324 13:-1.376006 14:0.078732 15:-0.889325 16:0.564088 17:0.64671 18:0.485415 19:-0.58526 20:0.141014 21:0.808298 22:-0.545922 23:-0.976595 24:1.268841 25:0.488231 26:1.605032 27:0.624822 28:-0.999913 29:-0.392198 30:1.304257 31:-0.448223 32:0.5002 33:-1.211558 34:1.472201 35:0.197231 36:1.089667 37:-0.337027 38:-0.103157 39:0.715207 40:-1.508599 41:0.858263 
0 0 0 0 0 0 0 0 0 0 0 0 0 0 0 0 0 0 0 0 0 0 0 0 0 0 0 0.4066773437606821 0 1.461345967117458 0 0 0 0 0 0.4620948702425745 0 0 0 0 0 1:3.405848 2:-2.687216 3:0.759217 4:1.555057 5:-0.426751 6:1.024784 7:0.734271 8:0.015461 9:2.690706 10:-1.141843 11:0.418641 12:-0.983834 13:-1.547077 14:0.934474 15:-0.054837 16:-0.092255 17:1.137979 18:1.11634 19:0.017177 20:-0.498032 21:1.634464 22:0.339698 23:0.78881 24:1.96128 25:0.544176 26:1.939944 27:-0.451308 28:0.065641 29:0.338568 30:0.303117 31:0.42397 32:-0.246148 33:-0.824629 34:-0.292031 35:1.859616 36:0.127489 37:-0.696188 38:0.242663 39:0.697838 40:0.336612 41:1.336219 
0.3957197082939355 0.3217509336686694 0.7777841641236534 0.5818573620721401 1.199047807689053 0.8669663433661837 0.7057531010447103 0.5303315679206404 0.7254074204044437 0.5324081309023802 0.713278487323729 0.5755407070878286 0.6145773189785726 0.7296632422835189 0.5595065611348666 0.4610513809218706 1.332488457210581 0.8162025861036388 1.80133621665667 1.0908762298084 0.906294652456799 0.9461881914815931 0.9670620045019804 0.6297805639369173 0.6385578156100987 0.6350411274975976 0.9071901256651295 0.3478314625486627 0.644363192792195 0.08384827081969558 0.4709241416023162 0.6345562434162937 0.2621234720849163 0.4632211808203844 0.122434133803603 1.636446036282686 0.658065222438355 0.4360674087644212 0.5061394291158998 0.5472232223123438 0.9144194972769305 1:2.765259 2:-2.106948 3:1.27654 4:-0.643494 5:0.641155 6:0.224056 7:-0.945869 8:0.360893 9:0.298197 10:-0.603879 11:-0.580368 12:0.661093 13:-2.475972 14:0.605257 15:-0.060763 16:-0.525112 17:0.751801 18:0.638185 19:-1.807422 20:0.881532 21:-0.357159 22:1.169912 23:-1.284453 24:0.521726 25:1.78573 26:1.247475 27:0.46286 28:-0.292943 29:-0.651695 30:0.504734 31:-0.206029 32:2.527968 33:-0.678757 34:0.754225 35:1.408496 36:1.857759 37:-0.366679 38:-0.319908 39:-0.213078 40:0.842943 41:0.520996 
0 0.2136434204930071 0 0 0 0 0.08824998459417573 0 0 0 0 0 0.1573500735819821 0 0 0 0 0 0 0.3976764891238578 0 0 0.3708359493645583 0 0 0 0.1163881904963346 0 0.4313914658311536 0.9837552725476783 0 0 0 0 0 0 0 0 0 0 0.03489863274652123 1:3.603723 2:-1.400065 3:1.559727 4:1.591824 5:-0.630625 6:-0.307693 7:0.960674 8:-0.011682 9:1.827048 10:0.363747 11:1.422149 12:0.454737 13:-1.216392 14:-0.757725 15:-0.162541 16:0.777052 17:2.656619 18:-0.228188 19:-1.11459 20:0.82123 21:1.207457 22:1.731512 23:1.524608 24:0.610145 25:0.017741 26:-0.831832 27:-0.400648 28:-0.550592 29:0.009978 30:1.289806 31:-0.25868 32:0.537033 33:0.280954 34:1.132077 35:1.515737 36:0.151374 37:-1.139428 38:0.547079 39:-0.250838 40:-0.616375 41:0.263695 
0 0 0 0 0 0 0 0 0 0 0.1098752945289673 0 0 0 0 0 0 0 0 0 0 0 0 0 0 0 0 0 0 0 0 0 0 0 0 0 0 0 0 0 0 1:4.024524 2:-2.579541 3:1.253818 4:0.575135 5:-0.47252 6:1.810152 7:-0.102932 8:0.021349 9:2.388486 10:-0.409751 11:1.098667 12:-0.396244 13:-1.946614 14:0.378377 15:-1.256154 16:-1.23724 17:2.20818 18:1.876278 19:-0.496629 20:-0.521804 21:0.228894 22:0.744723 23:1.099273 24:2.412815 25:1.598542 26:-0.748886 27:1.495679 28:-0.283205 29:0.113033 30:1.354806 31:0.13132 32:-0.322825 33:-0.381239 34:0.035569 35:1.086056 36:1.364589 37:0.016225 38:0.241181 39:-0.93783 40:0.313393 41:-0.545938 
0 0.05264276835626325 0 0.04464505918403703 0.06923107386817023 0.01118789001795296 0 0.04971477912467084 0.04462979781061962 0.04256501760076196 0 0.06735242658364306 0 0.04630898766747035 0.0406873169952084 0.03934139405129525 0 0.01030315344045551 0.4037667573338785 0 0 0 0 0 0 0 0.5359808386818147 0 0 0 0 0.06105493343241897 0 0.039480864791171 0 0 0.09723433834652641 0 0.0332638592869214 0.03166316916614163 0 1:3.338915 2:-2.02608 3:2.615918 4:0.641937 5:1.033059 6:-0.246612 7:-0.661476 8:-0.306747 9:3.75031 10:-0.525374 11:0.866668 12:0.051764 13:-0.190109 14:0.260239 15:1.066531 16:1.339717 17:2.602358 18:0.476068 19:-1.671479 20:1.520035 21:1.022521 22:0.489078 23:1.00051 24:3.218662 25:-0.066386 26:0.225739 27:0.187926 28:-1.3414 29:-0.973506 30:0.603128 31:0.525869 32:1.846254 33:-2.123223 34:2.003514 35:0.476007 36:-0.117992 37:-0.070986 38:0.050077 39:-1.235154 40:-0.169014 41:-0.360271 
0 0 0 0 0 0 0 0 0 0 0 0 0 0 0 0 0 0 0 0 0 0 0 0 0.09432979071411293 0 0 0.1004352426448129 0 1.070485825041395 0 0 0 0 0.5388386974838242 0 0 0 0 0 0 1:4.32687 2:-1.284462 3:1.87013 4:1.518234 5:-0.107747 6:0.671777 7:0.577891 8:1.066025 9:1.824608 10:0.734258 11:1.138817 12:-1.468809 13:-0.856923 14:0.679915 15:-0.206774 16:0.085551 17:1.745911 18:1.45577 19:-1.429808 20:1.373679 21:0.789748 22:1.314666 23:0.926631 24:1.158941 25:-0.452473 26:0.852122 27:-1.519348 28:0.164626 29:-0.742294 30:0.603703 31:0.100064 32:1.253109 33:0.146853 34:-0.02932 35:1.596281 36:0.777482 37:-0.83936 38:0.06549 39:-0.020924 40:0.292075 41:-1.424191 
0 0 0 0 0 0 0 0 0 0 0 0 0 0 0 0 0 0 0 0 0.3111521380425553 0 0 0 0 0 0 0 0 0 0 0 0 0 0.2012165886457682 0 0 0 0 0 0 1:3.118352 2:-2.000619 3:2.383882 4:1.512054 5:0.766718 6:0.463333 7:0.393653 8:-0.305412 9:1.949223 10:-0.279403 11:1.0604 12:0.026715 13:-1.717801 14:-0.378123 15:0.152709 16:0.948729 17:1.224442 18:-0.276426 19:-0.686985 20:1.002208 21:1.818251 22:0.157904 23:0.891061 24:1.898272 25:0.596934 26:1.745546 27:0.759627 28:-0.085929 29:0.208107 30:0.896699 31:0.490351 32:0.149691 33:-1.998482 34:-0.229203 35:-0.34169 36:0.216999 37:-1.585107 38:0.853969 39:-1.780886 40:0.386415 41:-0.967235 
0.03737603202085547 0 0.2640243353316302 0.1990495909787485 0.2954729472750226 0.2987952111175994 0 0.2007822822296849 0.1752707433863978 0.1257609607178063 0.2452105345662156 0.2199868862631764 0.1131134575680137 0.246615120279868 0.2130882001567409 0.1667594023384046 0.2914470660077477 0.4803107718634061 0 0.4825074096237727 0.06958300334061553 0.209513656569538 0 0.1968572090351439 0.2847914501583774 0 0 0.9155520956720856 0.327999209323215 0.09126829820838396 1.144034273776215 0.1911924190005075 0 0.1663293164639029 0.6055765377974129 0.6871735096625785 0.1169816193044503 0.09385337659773246 0.1830295981686103 0.2158311586878288 0.5646483526383146 1:2.428737 2:-2.332603 3:1.957024 4:0.232931 5:0.397533 6:2.227423 7:0.570355 8:0.413345 9:1.246624 10:-1.128595 11:1.165005 12:-0.342759 13:-2.464066 14:1.542092 15:-0.350048 16:0.072867 17:3.33348 18:0.075742 19:-0.837432 20:-0.546324 21:1.067963 22:-0.269594 23:-0.561487 24:1.932708 25:-0.698793 26:1.159228 27:-0.817498 28:-0.668666 29:0.773046 30:-0.120443 31:1.771952 32:-0.68919 33:-0.651796 34:0.96675 35:1.275966 36:-0.140427 37:-0.681371 38:-0.376106 39:-0.663333 40:1.515643 41:0.310441 
0.3403403753374277 0.457885996942792 0.4027129011773813 0.4520260693942052 0.4287699847752849 0.4899558219569141 0.4861938924331515 0.4210474576908801 0.5065971852265161 0.4713499444386255 0.335775561681579 0.4180312183651076 0.3391057083017309 0.4264139721589087 0.4339079502661085 0.3674535234235757 0.8061894923235411 0.3276212748432024 0.8993040332447614 0.7092103485448611 0.9252721724492859 0.3900315073975363 0.511955239269373 0.4303413133389574 0.1944187411302315 0.4228243012625561 0.02503865754488865 0.7654012705769595 0.1438321412566279 0 0.2956107003369109 0.4607454979935281 0.5399221586664916 0.3701778936536637 2.292818985466126 0.5594999215697131 0.4208201042204028 0.1305373576082772 0.3806677984303538 0.4160415120960382 0.2134868521909804 1:3.514904 2:-1.765061 3:2.190628 4:1.553135 5:1.097012 6:0.632605 7:0.773108 8:0.254915 9:1.979676 10:0.306182 11:1.161167 12:0.350786 13:-0.38323 14:0.568883 15:0.483721 16:-0.693452 17:1.845374 18:1.151124 19:0.252601 20:0.072422 21:1.367446 22:1.018589 23:1.35818 24:1.36432 25:0.139401 26:0.015412 27:-0.970175 28:-2.337585 29:0.987767 30:-0.981619 31:1.306731 32:-1.158975 33:1.423847 34:1.237986 35:0.621473 36:-0.631166 37:-0.345469 38:-1.315427 39:-0.906059 40:1.409565 41:0.575966 
0 0 0.09886595234439544 0 0.2338026338255979 0 0.7695898888671208 0 0 0 0 0 0.2628815207040643 0.06134297232535583 0 0 0.1556062238529619 0 0 0.3955119254066737 0.5629832064514184 0.05409139631346604 0.2657079593618096 0.05683854952955898 1.884799595578561 0 0.1168694153359839 0 0.4501356374891992 1.412560302801116 0.1769201948474213 0 0 0 0 0.6543839717212938 0 0.3909361831574323 0 0 0.2952006017730409 1:3.886694 2:-1.603031 3:0.072006 4:0.610669 5:-0.872929 6:0.77858 7:0.044721 8:-0.374644 9:0.94079 10:-1.264432 11:0.974516 12:0.202397 13:-1.231437 14:-0.363227 15:-0.21436 16:0.704545 17:1.42899 18:1.657818 19:-0.659816 20:1.419935 21:0.862898 22:2.382767 23:0.065594 24:1.542147 25:0.037954 26:0.333461 27:0.59039 28:-0.646148 29:-0.744383 30:-0.837014 31:0.024462 32:0.500688 33:0.246075 34:0.794958 35:1.186155 36:2.347443 37:-0.301695 38:0.487616 39:-0.249474 40:-0.365292 41:-0.026576 
0 0 0.3951925483970259 0 0.1688926798024789 0.05951694268276567 1.572666605772383 0 0.09525874011380066 0 0.571581318587331 0 0.1442356834163476 0 0 0 0.6735128403165485 0.2795115115585781 1.825812760133664 0 0 0.0536509791344255 0.5198206907820405 0.1068305393457628 0.5170144627317678 0.7646333205039324 0.745043740976465 0 0.5317441564858142 0.1262680626286621 0 0 0.522975462689677 0 0 0.0442254133947926 0.05535784209181607 0.6913504037415708 0 0 0 1:3.069618 2:-1.783237 3:2.239885 4:1.00626 5:1.270915 6:0.517448 7:-1.330097 8:-0.350517 9:3.101349 10:0.644968 11:0.87715 12:0.588879 13:0.598547 14:0.16577 15:0.840952 16:-1.007644 17:1.344747 18:1.340275 19:-0.35787 20:1.506022 21:0.815053 22:0.576442 23:0.027595 24:0.735732 25:0.175503 26:-0.854132 27:-0.022518 28:-0.861132 29:0.411198 30:0.278512 31:0.199693 32:-0.359187 33:-0.058446 34:1.885049 35:0.427291 36:0.235719 37:-0.865225 38:0.374041 39:-0.28878 40:1.090448 41:1.013489 
0 0 0 0 0 0 0 0 0 0 0 0 0 0 0 0 0 0 0.3550895336750428 0 0 0 0 0 0 0 0 0 0 0 0 0 0 0 0.03089215269251171 0 0 0 0 0 0 1:3.595375 2:-1.863906 3:2.181191 4:1.139111 5:0.648423 6:0.742159 7:-0.899317 8:0.871009 9:3.223619 10:-0.172455 11:0.3408 12:-0.704823 13:-1.053946 14:0.512785 15:-0.919474 16:0.959622 17:1.695248 18:1.330571 19:-0.130592 20:0.901377 21:0.961221 22:1.518501 23:0.287307 24:2.279647 25:0.973887 26:0.749094 27:1.332009 28:-0.226266 29:-0.957172 30:2.2087 31:-0.486315 32:0.448614 33:-0.51763 34:-0.070897 35:0.870029 36:1.818635 37:-0.904978 38:1.20218 39:-0.28543 40:-0.463708 41:-0.252985 
0.2911692828570857 0.828478493165399 0 0 0 0 0 0 0 0 0 0 0 0 0 0 0 0 0 0 0 0 0 0 0 0 0 0.1558858002367955 0 0.9776635562769157 0 0 0 0 0 0 0 0 0 0 0 1:4.419314 2:-0.478172 3:1.117485 4:2.661887 5:-1.179093 6:-0.083664 7:1.682477 8:-0.643158 9:2.810139 10:0.390784 11:1.3567 12:-0.576179 13:-1.538386 14:0.092221 15:0.156939 16:0.494369 17:1.621541 18:0.280716 19:-1.678128 20:0.899942 21:1.025829 22:1.499917 23:1.309259 24:1.100795 25:-0.57491 26:1.571627 27:0.237925 28:-0.668144 29:0.235527 30:-0.799095 31:1.470471 32:0.294604 33:-1.411702 34:0.841213 35:0.881428 36:0.450134 37:-0.938434 38:-0.77784 39:1.149492 40:0.38082 41:0.896238 
0 0 0 0 0 0 0 0 0 0 0 0 0 0 0 0 0 0 0 0 0 0 0 0 0 0.5991319576048781 0 0 0 0 0 0 0 0 0 0 0 0 0 0 0 1:3.399137 2:-1.980544 3:3.213409 4:0.890628 5:0.079251 6:0.455658 7:-0.245909 8:0.738564 9:2.112891 10:0.61765 11:0.929084 12:0.096387 13:-1.204242 14:0.346517 15:-0.371476 16:1.048187 17:0.77259 18:1.17801 19:-1.274316 20:0.966077 21:0.029054 22:0.010652 23:0.028093 24:1.873362 25:0.64107 26:0.481304 27:0.137906 28:-0.030549 29:-0.02631 30:1.118757 31:1.238406 32:-0.009667 33:-0.291765 34:1.641336 35:1.533396 36:0.668867 37:-0.022395 38:0.642202 39:-0.299855 40:1.196228 41:-0.452327 
0 0 0.01201060442343713 0 0.480558496720759 0.3388159642125488 1.07066715011187 0 0.09153460371777764 0.1683543827762006 0.05941574129267681 0 0.3456664905948003 0.05317858259655484 0 0 1.035729754183806 0.155867178902307 0.3384451127335426 1.272157309239835 2.424073818373367 1.838500317374578 0.3545701452543911 0 0.1058697808077845 0.6139003489116343 0.6404191840888508 3.325901127223962 0.5469542911882015 0.3552967411187024 0.4636889717884833 0.1058949972636985 0 0 0 0.8220608238961518 0.0854997600075941 0.2812135870456142 0 0 0.2327883126341574 1:2.568539 2:-3.036497 3:2.08121 4:-0.411024 5:0.019531 6:0.059162 7:-0.018759 8:0.916756 9:0.691523 10:0.087724 11:0.64572 12:0.056095 13:-1.997011 14:-0.129814 15:-0.533139 16:-0.042727 17:1.551287 18:0.592678 19:-1.197585 20:0.148673 21:0.379591 22:-0.157013 23:0.460742 24:1.217199 25:1.446301 26:-0.090075 27:0.984207 28:0.364096 29:-0.935469 30:0.222144 31:0.596115 32:-0.381122 33:-0.523183 34:0.316097 35:0.10023 36:1.093906 37:0.157491 38:0.1758 39:1.129972 40:1.191328 41:0.570229 
0 0 0 0 0 0 0 0 0 0.0495406402617942 0 0 0 0 0 0 0 0 0 0 0 0 0 0 0 0 0 0 0 0 0 0 0 0 0 0 0 0 0 0 0 1:2.633434 2:-1.889234 3:2.641798 4:0.34184 5:1.488752 6:1.020702 7:0.432172 8:-0.35121 9:1.454595 10:-0.792527 11:0.277693 12:0.301914 13:-1.698249 14:-0.202666 15:0.953888 16:-0.286938 17:2.370668 18:1.496059 19:-1.296972 20:0.319822 21:1.418212 22:0.79971 23:1.274885 24:2.822295 25:0.448628 26:-0.383271 27:0.327494 28:-0.95777 29:0.213671 30:0.742432 31:0.773916 32:-0.210466 33:-1.405157 34:0.933748 35:-0.071873 36:0.614327 37:-2.114185 38:0.429706 39:0.1878 40:-0.063341 41:0.42945 
0 0 0.1418408465768951 0 0.0261999469155343 0.1282192956065778 0 0 0.107277521765915 0 0 0 0.2862382779992859 0.1164137669340223 0 0 0 0 0 0 0 0 0 0 0 0 0 0 0 0 0 0 0 0 0 0.3539809837369089 0 0.8194016712937461 0 0 0 1:2.998465 2:-2.281615 3:1.141135 4:1.422464 5:-0.526341 6:0.359997 7:0.673206 8:-0.508801 9:3.192722 10:0.097427 11:2.457505 12:-1.093435 13:-2.481143 14:0.25235 15:-0.132795 16:0.563996 17:0.709218 18:0.549641 19:-1.051448 20:0.112697 21:1.783233 22:-1.026686 23:1.158074 24:3.33016 25:1.208341 26:-0.273437 27:0.420859 28:0.238572 29:0.018715 30:1.303174 31:1.640404 32:0.062116 33:-1.41977 34:0.912411 35:1.460314 36:-0.130551 37:1.250545 38:0.351081 39:-0.696526 40:-0.653122 41:-0.571692 
0 0 0 0 0 0 0 0 0 0 0 0 0 0 0 0 0 0 0 0 0 0 0 0 0 0 0 0 0 0 0 0 0 0 0.1754684864485158 0 0 0 0 0 0 1:3.56531 2:-2.093355 3:2.145531 4:1.38357 5:-0.036772 6:1.698483 7:0.515661 8:1.306398 9:2.610624 10:-0.191486 11:-0.00343 12:0.362656 13:-1.949343 14:-0.154039 15:-0.102553 16:-0.083794 17:1.812309 18:1.367172 19:-1.598896 20:-0.469065 21:2.795929 22:0.333967 23:0.776381 24:3.07836 25:0.827475 26:2.712534 27:0.665715 28:-0.772519 29:-0.407102 30:0.855746 31:1.90384 32:-0.389453 33:-1.365676 34:1.899538 35:0.817079 36:-0.741052 37:-0.529954 38:-0.838212 39:-0.311093 40:0.629607 41:0.670474 
0 0 0 0 0 0 0 0 0 0 0 0 0 0 0 0 0 0 0 0 0 0 0 0 0 0 0.4513523849828621 0 0 0 0 0 0.09207745365204921 0 0.3743114678504039 0 0 0 0 0 0 1:4.356633 2:-2.1246 3:3.28587 4:1.038052 5:0.487974 6:0.033748 7:0.345412 8:0.837689 9:3.191467 10:0.267928 11:0.811894 12:0.678134 13:-1.38456 14:-0.862027 15:-0.408786 16:0.590278 17:1.378465 18:0.647037 19:-1.371693 20:0.079844 21:0.369644 22:1.140964 23:0.97833 24:1.088888 25:0.757673 26:0.437234 27:1.056364 28:-0.163383 29:0.014285 30:0.58937 31:0.88452 32:0.17591 33:-2.184359 34:1.664074 35:0.526866 36:-0.518981 37:-1.058776 38:-0.029944 39:0.928512 40:1.205247 41:0.727298 
-0.2484533342903111 5.692322410295836 0.1183312329110615 0.1251381955250608 0.1145278828580983 0.1194700286246228 0.170760404946789 0.1189403562540661 0.1213012268411428 0.09186822606177515 0.09266436447810836 0.1199635423832098 0.1347144839933497 0.1261639677630213 0.1199333223031313 0.1018588994637379 0.0988755774614701 0.09699620653607544 0.1698040105907254 0.1243356618265168 0.1604433141177152 0.1143064531346315 0.147245551354146 0.04209934488750675 0.07302700154121758 0.1042180660453477 0.1950041571565502 0.2044727971606456 0.1060995403695739 0.1500995322256236 0.08382981014430499 0.1349052971047192 0.1572414509439134 0.09376951608989581 0.3829184136466511 0.1091853378669003 0.1156768318930483 0.09449534225969174 0.1044117930863749 0.1114424750313301 0.1057817591611482 1:9.172686 2:5.794659 3:0.194965 4:4.825375 5:0.20123 6:-1.33273 7:3.609567 8:-2.150884 9:1.655349 10:1.128939 11:1.616638 12:-0.845236 13:-1.226495 14:-1.529125 15:0.481183 16:-0.214357 17:-1.255359 18:-0.042438 19:-0.583384 20:0.265004 21:0.496669 22:0.691778 23:1.729748 24:-0.821487 25:-0.062144 26:0.552073 27:-0.479813 28:0.07404 29:0.341178 30:0.274648 31:-0.080164 32:0.293165 33:0.213533 34:0.296296 35:-0.095376 36:-1.083351 37:-0.363482 38:-0.478148 39:1.238223 40:0.295721 41:0.725656 
-0 1.789994521309936 0.01227861238801044 0.06941310384787557 0.03951743451685029 0.04762073017950342 0.009127814623855047 0.07281015470076782 0.03994153298417105 0.05221900274251937 0.04926360864493156 0.0632732627140408 0.009577980751121958 0.04448474934213256 0.0659687394942586 0.0622955897692212 0 0.05969384937680142 0.0205497181305036 0.02198385114309035 0.01398364522621125 0.03555116771614034 0.003394521580919806 0 0 0.04235209766341538 0 0.2304524367494102 0 0.202724894748779 0.01936728368840637 0.03959391041755545 0 0 0.2009447377731296 0 0.05369064926627821 0.002847646534511816 0.05802930504110627 0.05901774493565486 0.01623113384950318 1:9.147559 2:6.097716 3:0.561439 4:5.235714 5:0.501518 6:0.011137 7:3.833138 8:-3.293286 9:-0.00765 10:0.872543 11:1.030791 12:-0.309004 13:-1.980525 14:-0.151271 15:-0.07029 16:-0.405672 17:-0.380104 18:-0.173449 19:0.069894 20:0.000535 21:1.023836 22:-0.040027 23:0.938542 24:-0.178788 25:-0.832046 26:0.728675 27:0.662725 28:1.375514 29:1.072336 30:-1.241394 31:-0.964548 32:-0.868812 33:1.210988 34:-1.202662 35:-0.612863 36:-0.023712 37:0.465994 38:0.310106 39:-0.973889 40:0.25084 41:0.444216 
-0.03240607382166998 0 0.08224609573829826 0.113458697796353 0.09686818276191013 0.1008759051052337 0.07378037201109398 0.1089457521961969 0.1029841442754722 0.0725287734636469 0.08393720804223589 0.1061751261203447 0.06320854796750189 0.1031192079011935 0.1080298132399997 0.09484724546212879 0.08177301772281616 0.09078493316641607 0.08758188071617909 0.0966477240131499 0.09331135122795661 0.08794744191321328 0.0876730602891405 0.1126241031505855 0.01989596617413165 0.05504900162915667 0.06131921787336764 0 0.06681815967918014 0 0.08809055159505631 0.1043242682583411 0.06929099065157553 0.09634293450352177 0.04092242354818789 0.08293031161763549 0.09664341386345472 0.06826395927792178 0.09411660217137935 0.09921848214554549 0.0766665806769673 1:10.836938 2:9.020106 3:-1.218508 4:4.994105 5:-0.32643 6:-0.083574 7:4.045844 8:-6.586993 9:-2.426948 10:3.65609 11:0.291953 12:0.051173 13:-0.875818 14:-0.268012 15:2.49813 16:-2.141876 17:-2.277173 18:-0.888383 19:0.834659 20:-1.825304 21:-1.809194 22:-0.433573 23:-0.705255 24:0.159771 25:1.404147 26:1.012138 27:1.108553 28:-2.381759 29:-2.348053 30:1.191665 31:0.406932 32:-0.04499 33:-1.243409 34:1.182502 35:0.964248 36:-0.93835 37:0.688176 38:1.408673 39:0.796644 40:-0.405605 41:0.216103 
-0 2.868599051302029 0 0 0 0 0 0 0 0 0 0 0 0 0 0 0 0 0 0 0 0 0 0 0 0 0 0 0 0 0 0 0 0 0 0 0 0 0 0 0 1:8.100299 2:8.646908 3:-0.834845 4:4.302168 5:0.805904 6:-0.891606 7:3.733014 8:-2.578785 9:1.164899 10:0.650687 11:2.210902 12:-0.785039 13:-1.046849 14:-0.966086 15:0.04564 16:-0.670564 17:-1.711025 18:-0.16567 19:0.731175 20:-0.085273 21:-0.58049 22:0.067389 23:0.361786 24:-1.555698 25:-0.816315 26:0.623081 27:0.077217 28:-0.326962 29:-0.825639 30:-0.186281 31:-0.887906 32:0.076198 33:0.069621 34:-1.308766 35:0.256845 36:-0.371822 37:-0.740767 38:-0.240785 39:0.908348 40:-0.786504 41:0.175042 
-0 0 0 0 0 0 0 0 0 0 0 0 0 0.001145187731373125 0 0 0 0 0.02168361929401231 0.006039732617200313 0.02468775494760193 0.002142261906447783 0.007438070882495578 0.1915448370519717 0.09442945892220524 0.007550166752413232 0.006587052811845799 0.1424717223380415 0 0.191733646165983 0.02945568697499467 0.001829327815161999 0 0 0.008109397818456553 0.03157342401709522 0 0 0 0 0.03806982271149968 1:8.743733 2:5.523088 3:0.033222 4:5.376626 5:-0.143561 6:-0.049804 7:3.597588 8:-2.743408 9:-1.866146 10:1.393752 11:0.212091 12:-1.595433 13:-1.44531 14:-0.294679 15:0.205312 16:-0.534537 17:-2.227332 18:-0.576892 19:0.688201 20:-0.920069 21:0.61731 22:0.305202 23:-0.725131 24:-0.799514 25:0.111001 26:1.158513 27:-1.695217 28:1.317476 29:-0.784237 30:-1.05734 31:0.007024 32:0.815293 33:0.154408 34:-1.639028 35:-1.09512 36:-0.139194 37:-1.059374 38:-0.533414 39:1.194699 40:-0.323665 41:-1.322134 
-0.6288790253161555 0 0.602852082816233 0.7506405780191399 0.6744139696891013 0.69669042804212 0.7651684912593599 0.7236907727674982 0.710685157519812 0.5038810774516234 0.6151602070505046 0.710894428377443 0.5145889176222131 0.6995998193833616 0.7205484320245339 0.6214263577764352 0.678599138045899 0.6292293686381573 0.672335681653649 0.7248750971702911 0.7990730260083549 0.6792479225674323 0.6553247668572569 0.6552479925309181 0.6506552622662684 0.7056029704783392 0.5672169949115737 0.8535267319722294 0.6968509481031366 0.7200571209113883 0.8362840566011389 0.7258337199729568 0.6206484170456944 0.6508380518521046 0.7026614633326591 0.6831505536995479 0.6538416162458296 0.5811282508837203 0.625489031522017 0.6645847159487307 0.5953346681214755 1:8.635929 2:2.80663 3:1.574432 4:3.797757 5:-1.033122 6:0.158295 7:4.00998 8:-2.63466 9:0.463139 10:2.208029 11:2.712504 12:-0.548213 13:-1.654733 14:-0.324399 15:-0.337352 16:-1.814503 17:-1.158918 18:-0.190358 19:0.748203 20:0.154717 21:0.67027 22:-0.607668 23:-0.303477 24:-0.345957 25:-0.638614 26:0.425632 27:-0.257608 28:-0.610079 29:-1.927563 30:-2.287638 31:-2.348824 32:-1.308443 33:0.153045 34:-1.321855 35:0.682642 36:-0.457246 37:-1.790775 38:-0.449743 39:0.859626 40:-0.958793 41:1.467384 
-0.2611573132569737 2.396676252856855 0.3493054113287395 0.3998558205053591 0.3701873175714991 0.3776630963590711 0.3911136333914367 0.3800762113819997 0.3899141005136083 0.2722557423206173 0.3184591834871737 0.3836254705187995 0.3141629792670972 0.3794485107032085 0.3859628020356933 0.3256103610367958 0.3499288714301925 0.3241095886012172 0.3793101036348314 0.3863283074701308 0.3956950821602246 0.3506462979045606 0.3871368954831322 0.4377770562777423 0.2823775850425672 0.3172416647662174 0.295302694231884 0.2437844317095023 0.3434986043608187 0.2372778737713586 0.3689842799352983 0.3917643767843256 0.2689564727810196 0.5699178552930907 0.303080887474946 0.3671562341113642 0.347904144798756 0.303676293789282 0.3357556187195938 0.3568547496405677 0.3402023874694948 1:8.077291 2:9.277638 3:-0.893697 4:4.60507 5:0.57417 6:0.89939 7:3.1635 8:-3.081293 9:-1.148659 10:0.752217 11:-0.101165 12:0.294861 13:-0.939595 14:-0.689182 15:-0.297847 16:-0.211539 17:-0.728772 18:-0.614301 19:-0.119045 20:-0.650698 21:-0.352196 22:-0.327796 23:0.123037 24:-0.377437 25:-0.21645 26:1.411517 27:-0.376509 28:1.498587 29:1.311024 30:0.073627 31:0.290221 32:-0.579313 33:0.725305 34:-1.007674 35:-0.231983 36:-0.536249 37:1.063787 38:0.447608 39:-1.445184 40:0.140626 41:0.06793 
-0 0.8698910323738724 0 0 0 0 0 0 0 0 0 0 0 0 0 0 0 0 0 0 0 0 0 0.05636828323814647 0.1407031054202267 0 0 0.2368423484836402 0 0.0979467275962103 0 0 0 0 0 0 0 0 0 0 0 1:8.074292 2:5.636842 3:0.400436 4:4.663461 5:-0.678212 6:0.157611 7:3.619984 8:-3.496525 9:-0.742037 10:2.0177 11:0.418223 12:0.110707 13:-2.399627 14:-0.177339 15:0.195589 16:-1.440528 17:-0.400768 18:-0.449658 19:-0.659764 20:-0.114165 21:0.61364 22:-0.280057 23:-0.162634 24:-0.004097 25:-0.427646 26:0.728792 27:1.144376 28:0.351152 29:-0.069585 30:-1.247602 31:-0.483349 32:-0.77684 33:0.58892 34:0.113391 35:-1.308551 36:-0.362581 37:1.217512 38:-0.268667 39:-0.40263 40:0.242235 41:-0.11411 
-0.4690684237209693 0.3431849072220316 0.6032995165448949 0.7548355555655384 0.6696512016440319 0.6870223813932027 0.6219250927611912 0.7272053391591442 0.7129926160663812 0.5162537517885827 0.5819532676801259 0.7186675151014307 0.5223914567916225 0.6977682957125969 0.7253046494180706 0.6237908624103237 0.6018713672099172 0.6109068554959316 0.6240971534374813 0.6783039092142573 0.7050551835623654 0.6236874499308559 0.6476190897739534 0.7097479614884094 0.4981155655816419 0.5307174395155475 0.506423275419665 0.5506673690802812 0.5822334914626249 0.4856058397262069 0.6433694636427006 0.7140867662658126 0.4861902673439497 0.6342724322031771 0.5368702622234021 0.6235060471162757 0.6522906491983673 0.5223865394498022 0.6305717497925657 0.6662925638295562 0.572159346511983 1:10.13325 2:5.410175 3:-0.065286 4:5.341377 5:-0.564474 6:-0.46048 7:4.429347 8:-6.777142 9:-3.411292 10:3.086919 11:-0.814263 12:-0.513999 13:-0.248136 14:0.266159 15:2.130284 16:-3.959471 17:-2.153589 18:-0.898427 19:1.952851 20:-1.878854 21:-0.882844 22:-3.605765 23:-1.297082 24:2.428439 25:2.633989 26:-0.993491 27:-0.045388 28:-1.322891 29:-1.717681 30:1.672527 31:1.619326 32:-0.112701 33:-2.024467 34:1.884566 35:1.507623 36:-0.907081 37:-0.740518 38:-0.609574 39:2.27335 40:0.765342 41:-1.053136 
-0.1265687469621536 0 0.1904850435325483 0.2423499135765231 0.2119466030691265 0.2164790126932696 0.1771221000516689 0.2343824007875783 0.2257860855284503 0.1607725894373787 0.1859534585745228 0.2302640404095123 0.1449596174897597 0.2210219099566298 0.2333322492386256 0.2014731886424228 0.1857250695305178 0.1969600784468508 0.1919197318969619 0.210799429370992 0.2146881607481945 0.1958838865749327 0.1987016528663112 0.189058724035569 0.1364924935952909 0.1399031818670113 0.1428314562127155 0.1293003499142193 0.1701696261138966 0.09434997814830985 0.1972391019126152 0.2222972735229807 0.1410377055356229 0.4290009982130259 0.1407813346483766 0.1880395818488608 0.2077643817883848 0.1443469820851181 0.2030559808860613 0.2133632161174103 0.1807130609675191 1:8.590574 2:11.407913 3:-1.207305 4:4.106881 5:-0.310562 6:-1.393115 7:3.910208 8:-4.996995 9:-0.147066 10:0.770494 11:1.489603 12:-0.205392 13:-0.838359 14:-1.24341 15:0.878723 16:-3.57447 17:-2.31237 18:-0.363765 19:0.208181 20:-1.188162 21:-0.968245 22:-2.002338 23:0.145273 24:-0.847615 25:1.024213 26:-0.466986 27:-0.45824 28:-0.220247 29:-2.412155 30:2.613932 31:0.261746 32:-0.139928 33:-0.266201 34:-0.611244 35:0.911908 36:-0.491595 37:0.402405 38:-0.823825 39:0.570323 40:0.628044 41:0.750453 
-0.1484792561708244 0.3835830374780726 0.2544758503008761 0.3438821581857284 0.2966181210861106 0.3068769840786922 0.2266211032471474 0.3320515655924835 0.3146456233926262 0.2256506628262761 0.2597828781587723 0.3257095783031588 0.2207246171669213 0.3089801570691326 0.3290630831697008 0.2845039770628455 0.2599937656710681 0.2724811063431784 0.2518211535658952 0.2937432524309508 0.2982900443566052 0.2731232146628562 0.275478489073672 0.2169659466229636 0.1734445686843432 0.2028151279160972 0.1958292160573376 0.1604166648268309 0.2423307431017105 0.1011853692160857 0.280474471197638 0.3184529250179296 0.202211428975301 0.2812371394148852 0.1748980506389858 0.2662508598768585 0.2923648435076957 0.2050736581494837 0.2863553506195038 0.3020923377508676 0.2367395350816123 1:8.5632 2:9.756845 3:-1.592088 4:5.637849 5:0.997561 6:-1.097799 7:4.45046 8:-3.625097 9:-0.618501 10:0.091241 11:0.588048 12:-0.547354 13:-0.206775 14:-1.731027 15:1.244195 16:-1.827314 17:-2.614552 18:-0.612301 19:-0.159487 20:-0.855581 21:-1.924115 22:0.06779 23:-0.349551 24:-1.903464 25:1.204062 26:-0.268389 27:-1.118963 28:0.525393 29:1.362734 30:1.216392 31:0.960516 32:1.460601 33:-0.383477 34:-0.286549 35:-0.311007 36:0.199175 37:0.10775 38:-0.059998 39:0.237105 40:-0.84881 41:-1.41327 
-0 0 0 0 0 0 0 0 0 0 0 0 0 0 0 0 0 0 0 0 0 0 0 0 0 0 0 0 0 0 0 0 0 0.033920943593943 0 0 0 0 0 0 0 1:9.710688 2:10.279986 3:-1.039346 4:4.054252 5:0.518568 6:-0.252901 7:3.418497 8:-4.390942 9:-1.57154 10:1.576009 11:0.199674 12:-0.419863 13:0.852022 14:-0.073489 15:1.822836 16:-2.028956 17:-1.594087 18:-1.476464 19:0.757193 20:-1.484259 21:-1.792105 22:-1.367427 23:-1.837265 24:-0.65262 25:1.241488 26:-0.036133 27:-0.985214 28:-0.961711 29:-0.606683 30:0.898363 31:1.294451 32:1.076809 33:-0.383629 34:0.744818 35:0.564351 36:-0.149864 37:-0.344309 38:-0.277867 39:0.787428 40:-0.194592 41:-0.801354 
-0.1349913523549618 2.085992028386678 0.1110591584005746 0.1095526834039193 0.1191593307701719 0.117704957436326 0.1590568798227759 0.1035580656575974 0.1287691472222465 0.1092991711767102 0.09345793518478529 0.1060536804236204 0.1762896534328709 0.1226737927928457 0.1052650647350203 0.08735247710905908 0.1357172561912595 0.08678833505768922 0.1221359179153724 0.1465672171335938 0.1575352611272926 0.1063292593729033 0.1413098521630231 0.08113449560700466 0.2069969825999204 0.1812250730285997 0.1683415394523166 0.1586719994984691 0.1694573385122861 0.5597846952075206 0.121441377580203 0.1305154698598218 0.1446191258131903 0.03172327162736802 0.1093082652974192 0.1642425039741583 0.1140243934863586 0.2380299202422405 0.09079207034179915 0.1014984712984693 0.1059354283602863 1:8.051757 2:5.075891 3:0.219945 4:4.865684 5:-0.136168 6:-2.040746 7:3.999705 8:-2.568324 9:0.771631 10:0.148542 11:1.377404 12:-0.498045 13:-1.654085 14:-0.668983 15:0.429691 16:-1.088323 17:-1.609651 18:0.558237 19:-0.207858 20:-0.912501 21:0.284253 22:-0.301947 23:-0.064122 24:-0.808373 25:0.610846 26:-0.464754 27:-1.04157 28:-0.127462 29:-1.515459 30:0.436172 31:-1.62862 32:-0.364292 33:-1.071061 34:-1.674385 35:-0.662104 36:0.246241 37:0.045399 38:-1.102679 39:-1.279037 40:0.367514 41:-0.841512 
-0.3603038067243776 4.375199057360791 0.1597588299360077 0.1561054563560543 0.1810959831901384 0.1632618746463424 0.2150612987690354 0.1456457671580417 0.1866368375412641 0.1294684644009636 0.1330738530955618 0.1549028056003975 0.158913078643537 0.15371260576529 0.1487406688457194 0.1222898753434971 0.1975818919787826 0.1374452512038764 0.165433559841059 0.1838239377582458 0.1830869573480844 0.1475086958551858 0.180082694879446 0.2729364186776074 0.3491360158082851 0.09368398324161108 0.1857697057273699 0.2712016696153752 0.2400525597380491 0.1952099656637767 0.1582947954597443 0.1664597743426038 0.0501261029192249 0.121119981892123 0.1169880438817366 0.1690907428157205 0.1418427171637952 0.1145061543322362 0.1327864589965601 0.1384673540294996 0.1713293437680365 1:7.531657 2:4.181474 3:0.757659 4:4.693016 5:-0.427676 6:-0.239892 7:3.744755 8:-3.269749 9:-0.911661 10:1.321048 11:1.914076 12:-0.535677 13:-2.307658 14:-1.012239 15:0.961377 16:-1.075125 17:-0.753683 18:0.469468 19:-0.165047 20:-0.070767 21:1.011626 22:0.713052 23:-0.304725 24:0.253172 25:-1.845751 26:1.319188 27:-0.526096 28:-0.891221 29:-1.348667 30:-1.54733 31:-1.723852 32:-0.052115 33:-0.586699 34:-0.411781 35:0.847161 36:0.632836 37:-1.513434 38:-1.219121 39:-0.730794 40:-0.397368 41:0.805356 
-0.03326371011511293 0 0.1205118328063483 0.1638063950279285 0.1342613521161695 0.14351442917034 0.1005743778074729 0.1593826203902494 0.1490218801409509 0.1016065987782749 0.1181475431963287 0.1560636970750653 0.0978857486660781 0.1472890774514284 0.1567128465538432 0.1364110828988121 0.1092327885214589 0.1260702255876562 0.09365284909378221 0.1272965743982177 0.1298989315708412 0.1234114069861941 0.1139716025880369 0.06957567723654631 0.01631454232468119 0.08319199815514668 0.06296356150745325 0 0.09479159161294733 0 0.112320004742934 0.1484501437380167 0.08255031990008896 0.04964540614987665 0 0.1128651825353253 0.1370422855526144 0.1057450231548719 0.1365403693931601 0.1423450881744255 0.1043378470341809 1:7.885145 2:10.07197 3:-0.281089 4:4.708182 5:-0.714091 6:0.513489 7:3.991589 8:-5.411631 9:-0.947871 10:0.560124 11:1.069213 12:0.338219 13:-1.647111 14:-1.255036 15:0.814922 16:-2.295059 17:-1.577591 18:-0.816652 19:0.74143 20:-0.598153 21:0.033687 22:-2.988435 23:0.84684 24:0.02751 25:-0.12518 26:1.411813 27:0.991396 28:1.012455 29:-0.374131 30:1.064467 31:-0.248228 32:-0.685699 33:-0.01428 34:0.203889 35:1.409585 36:-0.799988 37:1.158192 38:-0.746725 39:-1.120194 40:0.814952 41:1.418444 
-0 0 0 0 0 0 0 0 0 0 0 0 0 0 0 0 0 0 0 0 0 0 0 0.0007637649507270225 0 0 0 0 0 0 0 0 0 0 0 0 0 0 0 0 0 1:9.518154 2:5.638623 3:-0.201277 4:5.67104 5:-0.157796 6:-0.659858 7:4.203369 8:-6.350427 9:-2.604548 10:2.249918 11:-1.333648 12:-0.072648 13:-0.567991 14:-0.443895 15:1.806453 16:-2.255328 17:-0.414015 18:-1.230966 19:0.354987 20:-1.529959 21:-1.675653 22:-0.837272 23:-0.588419 24:-0.302892 25:1.723556 26:0.314437 27:0.568342 28:-0.575748 29:-1.144317 30:0.792243 31:0.855598 32:1.040677 33:-0.203175 34:1.398363 35:1.313916 36:0.202202 37:-0.122179 38:-0.7774 39:1.699673 40:-1.669316 41:-0.559821 
-0 0 0 0 0 0 0 0 0 0 0 0 0 0 0 0 0 0 0 0 0 0 0 0 0 0 0 0 0 0 0 0 0 0.02855004620165176 0 0 0 0 0 0 0 1:10.131118 2:8.472602 3:-1.152288 4:4.308311 5:0.697218 6:-1.14651 7:3.54068 8:-3.508924 9:0.018491 10:0.388072 11:1.029857 12:-0.450817 13:-0.467641 14:-0.391724 15:0.677781 16:-2.186332 17:-1.084549 18:-0.748849 19:-0.475525 20:-1.279307 21:-0.651082 22:0.818095 23:0.461648 24:-1.533758 25:-0.853444 26:1.421191 27:-0.102688 28:-0.169373 29:0.087499 30:-0.417332 31:0.749434 32:-0.35613 33:-0.847254 34:-1.377569 35:-1.147657 36:-0.767917 37:0.743013 38:1.116378 39:0.000719 40:-0.254838 41:0.238122 
-0 0 0.001717618575834311 0.0207781902955301 0.01177567408251863 0.01613038200499922 0 0.02162840020930328 0.01133424792214501 0.008812377915376502 0.01011076991056379 0.0197778168261804 0 0.0122032046464872 0.01959704186361435 0.01802254640467141 0.0009463800144906322 0.01002215777788875 0.001100677192857401 0.009581152146040006 0 0.009613469274994894 0.002971603413120132 0 0 0 0 0 0 0 0 0.01581090130565012 0 0 0 0 0.01649708332896215 0 0.01874788334844129 0.01859800914353426 0 1:10.611153 2:7.626001 3:-0.747246 4:5.723525 5:-0.552085 6:-2.01606 7:5.097139 8:-5.622087 9:-2.48641 10:2.41846 11:-0.172777 12:-0.771258 13:0.186209 14:0.425724 15:1.582041 16:-3.536157 17:-2.594287 18:-0.89046 19:0.131201 20:-2.147149 21:-0.547188 22:-1.956178 23:-1.753628 24:-1.00337 25:2.886923 26:-0.244039 27:-1.998496 28:-0.160161 29:-2.366705 30:0.588455 31:-0.404002 32:0.455495 33:0.148134 34:-0.119996 35:-0.573151 36:-0.43414 37:0.126997 38:-0.546558 39:1.906741 40:0.303429 41:-0.437611 
-0.09986685339636162 0 0.1699268306162997 0.2209074285554015 0.1944427784784111 0.2005852434188797 0.1624936337892029 0.2147146161152356 0.2061783867944382 0.1505845338143783 0.1709663597253005 0.2110534411297496 0.1451639932181314 0.2030770330150355 0.2139676650880913 0.1848319836219929 0.1671518822190164 0.1768404713318021 0.1730906081038307 0.1933135140878489 0.190188346800268 0.1795278796648863 0.1801688838543183 0.1668507888289812 0.1092191737219599 0.1421003345601616 0.1374558854968117 0.08494885974137506 0.1606303008708318 0.05890242646404702 0.176067329952124 0.2068534861310415 0.1355874737019158 0.1550359033048643 0.1081169625253313 0.1720291949168662 0.1918876856894576 0.1450665229405312 0.1860939383231338 0.1957130300857822 0.1584111035604654 1:10.10686 2:7.929421 3:-0.763809 4:6.8913 5:0.231688 6:-0.635332 7:5.235821 8:-6.378591 9:-1.530993 10:2.797636 11:0.073108 12:0.154325 13:-1.328823 14:-1.257687 15:0.656107 16:-3.069959 17:-2.641233 18:-1.443399 19:1.169713 20:-1.20016 21:-2.607532 22:-0.601605 23:-1.318052 24:-2.18989 25:0.760225 26:1.113823 27:0.104434 28:0.277053 29:-2.061224 30:1.693634 31:1.282466 32:2.300704 33:-0.561503 34:1.344596 35:1.258806 36:-0.863582 37:-1.898334 38:-0.594282 39:2.482906 40:-0.954221 41:-0.738651 
-0 0.871485707207188 0 0 0 0 0 0 0 0 0 0 0 0 0 0 0 0 0 0 0 0 0 0 0 0 0 0 0 0 0 0 0 0 0 0 0 0 0 0 0 1:8.12232 2:6.920578 3:-0.717899 4:5.764021 5:-0.338952 6:-2.158489 7:3.303233 8:-3.932996 9:-0.347422 10:0.978244 11:0.999759 12:-0.839298 13:-2.629463 14:-0.179112 15:0.584466 16:-0.923331 17:-2.828645 18:-0.053554 19:0.393504 20:-0.330214 21:-0.871742 22:0.818512 23:-0.1866 24:-0.336621 25:0.714694 26:-0.338334 27:-0.542754 28:0.433986 29:-2.047588 30:0.886979 31:-0.257041 32:-0.329079 33:-0.8972 34:-0.349303 35:0.030476 36:-0.265717 37:-0.792865 38:1.261281 39:-0.991705 40:1.322221 41:-0.290435 
-0 0.09592699851385132 0.04111044167817349 0.01647588381866425 0.0107850242084533 0.004809984076461498 0 0.01395232173355172 0.02165468592561541 0.007673495891570743 0.004799569541311147 0.01289798323275128 0 0.02133464605338014 0.01627547627911065 0.01383801643120154 0.004723822666444116 0.02333229894007086 0.001871306777205955 0 0 0 0.01806718535368272 0.01399737417896574 0 0 0 0 0 0 0 0.009001459092462109 0 0 0 0 0.004954741674551783 0 0.01186838109149207 0.01359002798042283 0 1:8.769077 2:5.205101 3:-0.37666 4:5.462353 5:0.370452 6:-2.286398 7:4.357585 8:-4.091448 9:-0.362051 10:-0.0618 11:1.379522 12:-1.074743 13:-1.181316 14:-0.265649 15:2.011667 16:-2.901067 17:-2.021189 18:-0.105944 19:-0.637975 20:-0.942412 21:-0.596592 22:-0.247351 23:-0.415256 24:-0.91876 25:0.526065 26:-0.218487 27:-0.930509 28:0.261241 29:0.536725 30:-0.344303 31:-1.605312 32:0.196386 33:0.529966 34:-0.240284 35:-1.384842 36:0.101348 37:-0.736408 38:-0.308999 39:0.320032 40:0.595718 41:-1.413467 
-0.08175177691281631 0 0.06721319549520187 0.0776043736566933 0.070435842659507 0.07105571076008101 0.07229829295926297 0.07524738186988601 0.07542152969352575 0.0569326657654765 0.06016963983618091 0.07466447314811651 0.06428760077812766 0.07391708154308746 0.07491029806098795 0.06390947961359414 0.06589471059729704 0.06331361150709347 0.06952166394870858 0.07391048583767429 0.08264010234621137 0.06498483512899246 0.07204523464479554 0.05201084240094678 0.09639843184498684 0.07419320933056042 0.07018861241415111 0.1312052692742841 0.07489036227997925 0.1447201344508584 0.07288109398715913 0.0767006854772736 0.06194441380930065 0.0583194338737849 0.09884608135396938 0.0744624501738501 0.06696777836736005 0.06911032199231434 0.06555166562983759 0.06972057552073394 0.06331014282803223 1:10.425572 2:10.03927 3:-1.235718 4:5.29339 5:0.11036 6:0.34709 7:3.977392 8:-5.906378 9:-1.702077 10:3.219496 11:0.68276 12:0.235624 13:-0.331732 14:-1.237239 15:1.613825 16:-2.441852 17:-2.165006 18:-1.290954 19:1.241645 20:-1.382803 21:-1.72038 22:-2.430565 23:-0.922745 24:-0.349198 25:0.688855 26:0.92924 27:0.406058 28:-1.481658 29:-2.550791 30:2.472702 31:1.896439 32:0.607464 33:-0.358225 34:1.463251 35:2.686166 36:-0.80914 37:-1.823799 38:0.159208 39:1.871548 40:-0.433954 41:0.313131 
-0.1415882164420313 0 0.2001117908749504 0.254036894501553 0.2214121471021321 0.2287035190347336 0.1887622189582961 0.2428211126745684 0.2368649224817401 0.1690265951305993 0.1915619673059695 0.2403269169899608 0.1715789878442113 0.2321585097708596 0.2421161345484224 0.2082598008451555 0.1964623731164547 0.2017407494562958 0.201757425435102 0.2242327078744066 0.2356125126705002 0.2047295967944949 0.2158704940594228 0.1590269500416647 0.1423838604500778 0.1590729037154789 0.1561318341021011 0.1557185444145711 0.1846937133144103 0.1529111340110134 0.2036333816041175 0.236911503504681 0.154990172066585 0.1699409905586782 0.1615574231235032 0.2063098028968725 0.2176194071829234 0.1638245979329917 0.2110016805470876 0.2220710237694613 0.192238641201238 1:10.960079 2:7.435589 3:-1.386506 4:6.829146 5:-0.200681 6:-1.543511 7:5.124199 8:-7.432572 9:-2.357866 10:3.380584 11:0.339515 12:0.412911 13:-0.99478 14:-1.207786 15:1.204934 16:-4.021672 17:-2.665662 18:-1.245498 19:0.811601 20:-1.700101 21:-1.489598 22:-1.515991 23:-0.283087 24:-1.647763 25:1.94388 26:1.877178 27:0.022821 28:-1.116951 29:-2.916969 30:2.317512 31:0.634101 32:0.20949 33:-0.771624 34:0.702683 35:1.602498 36:-1.830086 37:-1.786392 38:-0.521329 39:1.241655 40:-0.470752 41:-0.369256 
-0 -0 0 0 0.01768293820520287 0 0 0 0 0.01166855553682612 0.01596292888468794 0 0.03788486615014831 0 0 0 0.08751268248392349 0 0 0.02746730122920117 0 0.002338543938838608 0.03489032233324765 0 0 0 0 0 0.02632694871910779 0 0 0 0 0 0 0 0.05016636799631718 0 0 0 0 1:5.185983 2:5.152808 3:1.834976 4:3.350633 5:0.821533 6:-1.208473 7:1.299276 8:-1.975021 9:0.357222 10:0.969177 11:0.228178 12:0.788988 13:-2.879251 14:-1.283391 15:0.385546 16:-0.144414 17:0.254079 18:1.094323 19:0.505568 20:1.928851 21:-0.326352 22:2.95108 23:0.380768 24:-0.632504 25:-0.424299 26:0.012945 27:0.09718 28:-1.081027 29:0.39165 30:-2.027103 31:-2.131659 32:-0.880389 33:-0.599497 34:-0.630513 35:0.288635 36:0.275754 37:-0.597744 38:0.70213 39:-1.400867 40:0.677781 41:0.283018 
-0 -0.1020322981105413 0.3882272895034791 0.5587412764391878 0.4662268026204272 0.4945051613524806 0.2000451417632376 0.5400879458595618 0.5058232712362076 0.3694571690869979 0.4048264054261004 0.5268580439504649 0.2518225641277101 0.4968183301084499 0.5352450143167043 0.462227096378102 0.3556690998156843 0.4352925213275377 0.3887625571360423 0.4687039679582153 0.4495744749239003 0.4233624395271729 0.4232972205445549 0.26578665499267 0 0.3069631041256028 0.2161439026437166 0 0.2938077093694877 0 0.4185622106391371 0.5124472697518532 0.3367331961105756 0.4630402711602523 0.2834724331066116 0.3904246763717896 0.4662605294050564 0.2605897678947081 0.4634687846676223 0.4887121283006702 0.3766865450478591 1:9.453004 2:6.941784 3:-0.992456 4:5.409874 5:1.571507 6:-1.323527 7:3.203021 8:-3.434192 9:-0.281555 10:1.073784 11:0.502079 12:0.071548 13:-1.60961 14:-0.973243 15:1.138133 16:-0.917696 17:-1.053802 18:0.819285 19:-0.10856 20:0.149672 21:-1.087832 22:3.361783 23:0.890995 24:-2.642107 25:-0.980548 26:0.870978 27:-0.563554 28:-0.260798 29:0.101757 30:-0.315171 31:-1.606282 32:1.704012 33:0.736966 34:-1.068366 35:-0.057388 36:0.487748 37:0.263818 38:-0.325196 39:-1.969005 40:-0.362058 41:-0.915956 
-0 -0 0.02683952485473364 0 0 0 0.1848057139046793 0 0 0 0 0 0.1235139712954588 0 0 0 0.02305573201373391 0 0.1278694550838622 0 0 0 0.05125772391182756 0.2915694848532259 0.5593451813143708 0.04151023104653765 0.2183629725234132 0.02236670246926995 0.07442189967274834 0.03186196624951999 0 0 0 0 0 0.0517382515570315 0 0.07429653588207343 0 0 0.006107161951783434 1:6.645123 2:4.525648 3:-0.046744 4:4.846742 5:-0.603076 6:-1.121103 7:2.547675 8:-3.663911 9:0.585405 10:0.078023 11:0.70015 12:0.138713 13:-0.108738 14:-0.345296 15:-0.32717 16:-1.279295 17:-0.573307 18:0.775047 19:-0.933783 20:0.800039 21:-0.916224 22:2.307496 23:-0.331656 24:-2.323141 25:-0.440344 26:1.06245 27:0.134672 28:-0.579225 29:-0.371365 30:-1.597165 31:-1.053438 32:0.711268 33:1.303965 34:0.300003 35:-0.933004 36:0.957078 37:0.682086 38:-0.718548 39:-0.455524 40:0.442401 41:-0.33116 
-0 -2.86093910593389 0 0 0 0 0 0 0 0 0 0 0 0 0 0 0 0 0 0 0 0 0 0 0 0 0 0 0 0 0 0 0 0 0 0 0 0 0 0 0 1:7.444741 2:7.322102 3:-0.596761 4:4.691628 5:1.33779 6:-1.548525 7:3.678159 8:-1.929276 9:1.520803 10:0.202091 11:1.760799 12:-0.145185 13:-2.209238 14:-2.103926 15:0.175511 16:-0.271921 17:-0.828789 18:-0.155351 19:-0.921472 20:0.460856 21:-0.118408 22:1.415807 23:1.268653 24:-1.563569 25:-0.759547 26:0.873658 27:-0.152216 28:-0.003069 29:0.80612 30:0.03947 31:-0.672034 32:-0.058688 33:0.252631 34:-0.572727 35:-0.054506 36:-0.549513 37:0.248824 38:0.125394 39:-0.743838 40:-0.687636 41:0.001161 
-0.2859517893552833 -5.173558800932294 0.2695002790089048 0.3112505065284651 0.2649158582847898 0.2719458078828169 0.2618582185101219 0.2957508127463537 0.3120800199825116 0.1721315845998724 0.2275026316149163 0.2897493154979998 0.2375813005381768 0.3032847352721674 0.2966005831672307 0.2524728880055165 0.2600837800586213 0.2363617692035938 0.0419204243900209 0.3098261846648871 0.2895956795227743 0.2292359029554474 0.2644029423500024 0.09650666196759793 0.08147816983114033 0.1476797642489067 0.1171525548068817 0.2568582550410067 0.2899229614792851 0.5557634579395727 0.2892156641742157 0.2912535525752202 0.1330789402830594 0.2636623892772733 0 0.2733928290345086 0.2383768330923762 0.2852777373321995 0.2559539221150199 0.2720172761863112 0.213655389297816 1:7.50685 2:3.994009 3:0.077966 4:5.243146 5:-0.56869 6:-1.647554 7:3.465329 8:-3.4199 9:1.204873 10:0.202349 11:1.932592 12:0.082048 13:-1.699449 14:-1.261545 15:0.274857 16:-1.5322 17:-0.779555 18:0.764564 19:-0.525871 20:0.94555 21:0.539449 22:1.659828 23:0.112348 24:-1.071111 25:-0.125258 26:0.37992 27:-0.921638 28:-0.332069 29:-1.419682 30:-0.287919 31:-1.187632 32:-0.337754 33:-0.30004 34:0.380702 35:-0.26426 36:0.609342 37:0.153024 38:-1.138625 39:0.518023 40:0.043017 41:0.619116 
-0 -2.27742163160455 0 0 0 0 0 0 0 0 0 0 0 0 0 0 0 0 0 0 0 0 0 0.09293048523374045 0 0 0 0 0 0 0 0 0 0 0 0 0 0 0 0 0 1:8.150037 2:3.648345 3:1.484816 4:3.620518 5:-0.0125 6:0.131914 7:3.277121 8:-1.747199 9:0.144928 10:1.747863 11:0.499706 12:0.251045 13:-0.781848 14:-0.185913 15:0.719554 16:-0.436241 17:0.36927 18:0.826723 19:-1.359974 20:0.409627 21:0.819171 22:2.228119 23:-0.837375 24:0.444166 25:-0.006978 26:0.041645 27:-1.189407 28:-0.105814 29:-0.036424 30:-1.053594 31:-1.928888 32:-0.01129 33:-0.181043 34:0.590481 35:-0.096207 36:-0.065603 37:-1.693887 38:-0.405034 39:-0.902958 40:0.627301 41:-0.509116 
-0.02884407376754349 -0 0.1698492296726982 0.2515237523297964 0.1998257366804098 0.1924042613968241 0 0.245167515053985 0.2109074036916449 0.1142414777507695 0.1938428935673936 0.2372421071667439 0 0.2040122188164773 0.2418735123212278 0.2104598332746491 0.14704437103664 0.1954035814106338 0.08315909494518975 0.1718258634238517 0.07985858266572229 0.1415982742512319 0.1668670673598999 0.03235537314115552 0 0.01871744654425288 0 0 0.02146371452555987 0 0.08960734958659346 0.2067984920362243 0.06258260092606256 0.185803885466449 0 0.1210960583258246 0.1689511996088867 0.02392559802232825 0.2129908324233284 0.2144588904955266 0.08295986298696512 1:7.102886 2:3.869788 3:0.920625 4:4.61084 5:-0.573571 6:0.760372 7:1.81172 8:-2.619214 9:1.065999 10:0.998189 11:1.914107 12:0.262614 13:-1.116002 14:-0.65334 15:0.872869 16:0.356961 17:0.663155 18:1.316896 19:-0.111059 20:2.590192 21:-0.407592 22:3.200152 23:0.511777 24:-0.540179 25:-2.967306 26:1.242201 27:-0.21747 28:-1.308189 29:0.982097 30:-2.080189 31:-0.7209 32:0.289846 33:2.139525 34:0.528591 35:0.543597 36:1.786507 37:-0.379672 38:-1.214025 39:-1.802278 40:0.723735 41:1.077226 
-0 -1.080029075569826 0 0 0 0 0 0 0 0 0 0 0 0 0 0 0 0 0 0 0 0 0 0 0 0 0 0 0 0 0 0 0 0 0 0 0 0 0 0 0 1:7.57834 2:5.75318 3:-0.055453 4:5.274215 5:0.035507 6:-2.210765 7:2.652697 8:-3.167701 9:1.168285 10:0.629152 11:1.75864 12:-0.373859 13:-1.040744 14:-1.174694 15:-0.093902 16:-0.737366 17:-1.297757 18:0.106039 19:0.011797 20:0.454876 21:0.112043 22:1.156974 23:1.314949 24:-0.463209 25:-0.93388 26:-0.030591 27:0.600325 28:-0.146389 29:-0.983835 30:-1.072435 31:-0.21411 32:-0.696701 33:1.218515 34:-0.570593 35:-0.260963 36:-0.096561 37:0.750265 38:0.260519 39:-1.593713 40:0.448689 41:0.603506 
-0 -4.894195450988414 0 0 0 0 0 0 0 0 0 0 0 0 0 0 0 0 0 0 0 0 0 0 0 0 0 0 0 0 0 0 0 0 0 0 0 0 0 0 0 1:7.446237 2:7.573301 3:-0.538103 4:4.938712 5:0.523921 6:-0.826248 7:2.857796 8:-2.346209 9:1.22056 10:0.56356 11:1.976079 12:-0.908464 13:-1.354896 14:-1.687243 15:0.888257 16:-0.64491 17:-1.666599 18:0.098841 19:-0.427804 20:0.177038 21:-1.203118 22:0.842602 23:0.789582 24:-0.824478 25:-0.856241 26:1.015032 27:0.170495 28:-0.127747 29:0.097054 30:0.03502 31:-0.507582 32:0.315646 33:0.685914 34:-0.884311 35:0.703842 36:0.285711 37:-0.39398 38:0.437627 39:-1.082281 40:0.395066 41:-0.589136 
-0.564973219956348 -0 0 0 0 0 0 0 0 0 0 0 0 0 0 0 0 0 0 0 0 0 0 0 0.1806790117035376 0.03416041036031785 0 0.6742532022120831 0 0.468977630719064 0 0 0.03967532170383822 0 0.3222419478301181 0 0 0.01381948249321622 0 0 0 1:7.004144 2:2.296836 3:1.160391 4:4.066243 5:0.558112 6:-0.334242 7:1.961667 8:-1.372987 9:1.643499 10:0.70213 11:1.851376 12:-0.613225 13:-0.331948 14:-0.081225 15:0.161697 16:-0.971112 17:0.628834 18:0.587374 19:-0.804853 20:0.624177 21:1.136071 22:2.006677 23:-0.125874 24:-0.017307 25:-1.149418 26:-0.353521 27:-0.097122 28:0.454104 29:-0.422448 30:-1.099209 31:-1.130407 32:-0.531675 33:0.26235 34:0.086445 35:0.920171 36:-0.394736 37:1.304809 38:0.280194 39:-1.421575 40:0.566034 41:-0.234483 
-0.2409373962783037 -0 0.3260439717900562 0.4173048360733743 0.3594071181186724 0.3753807657383252 0.3038690216334199 0.3871950186528049 0.394253342780402 0.2815644813710966 0.3007381689032086 0.4112020438766452 0.3668123325252557 0.3789381678473319 0.3958451099305896 0.3230994697372418 0.2918749209760903 0.3173513999996041 0.3234922663589974 0.3722463064784882 0.3656949793889269 0.324312151970202 0.3535408472884041 0.277169315418816 0.2103179271102716 0.2323468860815547 0.2880235363883819 0.2104659932111941 0.3086100038197653 0.3059922732944475 0.3276399811264051 0.3920064350837349 0.2152444267586231 0.4299211866060852 0.3186317855666967 0.3370258325754695 0.3539928001246319 0.2680233309271858 0.3496880178004094 0.3619494644106938 0.2946836375936001 1:4.903323 2:11.635711 3:0.024331 4:1.650989 5:2.334153 6:-0.017277 7:0.873669 8:0.470242 9:1.354888 10:-1.053032 11:-0.297161 12:0.499039 13:-1.780844 14:-1.894544 15:-0.054998 16:1.167741 17:-0.720102 18:0.017468 19:0.115172 20:0.605194 21:-0.629106 22:1.241031 23:1.489913 24:-0.296843 25:-1.154983 26:0.029027 27:0.642239 28:-0.576553 29:1.468272 30:-0.028602 31:-0.192342 32:0.081369 33:-0.374609 34:-0.35861 35:0.051864 36:-0.263673 37:-0.450593 38:0.722659 39:-0.551336 40:-0.246224 41:0.874674 
-0.2031147141717121 -0 0.3018247623325117 0.3888877402941288 0.3381717328139719 0.3522158979066033 0.3013625771933136 0.3792304882202206 0.3631158247169318 0.2539901812742787 0.2965686058758747 0.367536843841952 0.2249592954850555 0.3545256923865037 0.3723174715444049 0.3218110290850389 0.3062806206710406 0.314344680200179 0.3547682935188319 0.3453532381387571 0.3651626143970714 0.3228696242644243 0.3173061650891612 0.2807877356695833 0.2290286040309672 0.2777186465499711 0.2599698355668321 0.2567651815142163 0.2931628445962426 0.1964020386586784 0.331636802975868 0.3639996958820965 0.2616093201377704 0.5041107112334493 0.2713454970453679 0.3086214944235231 0.3372394282336512 0.2570633078528501 0.3234819584913963 0.3415327393314683 0.2877923873514943 1:6.108699 2:11.902428 3:0.686978 4:1.870833 5:1.126126 6:2.408334 7:-0.007353 8:-0.237558 9:0.413801 10:0.89978 11:-0.580788 12:0.463565 13:-1.003343 14:-0.321868 15:-0.415442 16:2.309866 17:1.087879 18:-0.545652 19:1.506027 20:1.222304 21:-0.935969 22:-0.755571 23:0.770132 24:-0.150008 25:-1.926011 26:0.338167 27:1.796601 28:-1.06439 29:1.689742 30:-0.893031 31:0.397108 32:-0.198527 33:0.729009 34:-0.137211 35:-1.240818 36:1.159824 37:0.513607 38:0.849126 39:0.290083 40:1.247237 41:0.882827 
-0.869589134573985 -0.8308982843495067 0.510872163849553 0.6644732373087059 0.6390957877305239 0.6501426514427237 0.7538249707025343 0.6410506021602105 0.6458429740336734 0.5659885140933519 0.5621309772710955 0.629416578935179 0.4105132433309187 0.6176972752504546 0.6382858570784967 0.5471650158498431 0.6587583330080792 0.6103134099664681 0.7475911883449559 0.7182727310787027 0.8818442863192788 0.6286791945516513 0.5827953654508056 0.704816401009299 0.6572364434640394 0.6627488325685106 0.6072631540608402 2.249691350950854 0.6079161476540064 1.297346395585391 0.7515907677660151 0.6821775932769861 0.4968241387462774 0.5535091672407422 1.423960101264929 0.7080826867593272 0.5813561144336206 0.4915208963936195 0.5537126240742005 0.5918481269051125 0.5643178243078798 1:7.63956 2:1.688634 3:2.313109 4:2.412047 5:0.860045 6:-0.03694 7:2.506076 8:-0.442347 9:0.895166 10:0.773539 11:-0.320429 12:0.074982 13:-1.214079 14:1.189826 15:-0.521009 16:1.889938 17:1.244948 18:0.302746 19:-0.374762 20:0.363049 21:2.46425 22:0.919244 23:0.696546 24:1.021315 25:-0.517224 26:0.964647 27:-0.92788 28:0.38915 29:-0.429403 30:-2.242482 31:-1.134393 32:-0.953303 33:-0.921202 34:-0.142072 35:-1.451343 36:-2.14963 37:0.2434 38:0.966532 39:0.200494 40:-0.163885 41:0.828413 
-0 -0.8426857022599852 0 0 0 0 0 0 0 0 0 0 0 0 0 0 0 0 0 0 0 0 0 0 0 0 0 0 0 0 0 0 0 0 0 0 0 0 0 0 0 1:7.786703 2:6.252429 3:0.773447 4:3.88511 5:0.855348 6:1.376831 7:2.117092 8:-1.734904 9:-0.096607 10:0.608389 11:0.519733 12:-0.080764 13:-1.811997 14:-0.667846 15:0.212579 16:1.941387 17:0.646521 18:0.418838 19:0.776586 20:0.524858 21:0.205247 22:-0.297843 23:1.165463 24:-1.041091 25:-3.050577 26:0.60946 27:1.115307 28:-0.495402 29:0.054634 30:-1.30176 31:0.254316 32:-0.234246 33:1.131493 34:-1.020586 35:-1.125515 36:0.156863 37:-0.789623 38:0.27949 39:-0.336873 40:1.182271 41:1.290195 
-0 -0 0 0 0 0 0 0 0 0.03945642865615966 0 0 0.08966058177399885 0 0 0 0 0 0.07105196830413285 0 0 0 0 0.02902885239534949 0.03785232357435335 0 0 0.6182652946191978 0 0 0 0 0 0 0.3403523596966878 0 0 0 0 0 0 1:5.873149 2:3.764049 3:2.02417 4:4.309866 5:0.327677 6:1.390339 7:1.649692 8:-1.12421 9:0.474231 10:0.110883 11:0.478725 12:-1.218908 13:-1.546518 14:0.561278 15:-0.154172 16:1.757094 17:0.867083 18:0.894057 19:0.549786 20:1.147169 21:0.251744 22:1.818935 23:1.454789 24:-0.45699 25:-3.033052 26:0.201357 27:0.373417 28:-0.109896 29:1.137095 30:-2.348886 31:-0.538846 32:-0.130221 33:0.716723 34:0.378448 35:-1.832407 36:0.948171 37:-0.651507 38:0.181159 39:-1.616785 40:1.904175 41:-0.380156 
-0 -0 0.06898775347287849 0.1183538583089705 0.07592601531733538 0.08157854414661117 0.05800522622470904 0.1121116839102369 0.08603470642787124 0.05535706624634317 0.0563529369077811 0.109035819750448 0.03462488543446784 0.0937290245275153 0.1131533120839055 0.09669407378035294 0.008739845732491858 0.08525690769595166 0.01208746723015506 0.06023505044963368 0.04133712730180343 0.06496330662956254 0.07019894469977732 0.2485673093438672 0 0.01337400132487155 0 0.1953031753329034 0 0 0.05972418949049474 0.1084019482293556 0 0.07058964194295905 0 0.006684473279858409 0.08349392975375242 0.02076510987915059 0.09789808585986857 0.1022747378019125 0.05517492889626562 1:7.676863 2:6.277106 3:0.049541 4:5.234618 5:0.10659 6:0.63365 7:2.410023 8:-2.969006 9:-1.263191 10:1.097083 11:-0.277556 12:-0.586445 13:-0.94111 14:0.623451 15:0.235826 16:1.458563 17:0.295718 18:-0.923241 19:0.167001 20:1.498211 21:-1.199777 22:0.582368 23:0.849106 24:-0.702789 25:-1.229157 26:0.386602 27:0.544049 28:0.19196 29:1.25215 30:-1.650027 31:0.490667 32:-0.214068 33:2.407558 34:-0.002266 35:-0.513216 36:0.458434 37:2.00808 38:0.593537 39:-0.270664 40:1.239508 41:-1.221148 
-0 -1.684081674601955 0 0 0 0 0 0 0 0 0 0 0 0 0 0 0 0 0 0 0 0 0 0 0 0 0 0 0 0 0 0 0 0 0 0 0 0 0 0 0 1:8.315267 2:7.753281 3:-0.415813 4:4.613838 5:0.395725 6:1.094789 7:2.421931 8:-3.453735 9:-1.180382 10:0.919883 11:0.441479 12:-0.197314 13:-0.373775 14:0.681585 15:0.233583 16:0.53501 17:0.084473 18:-1.376758 19:0.54786 20:0.984016 21:-1.759394 22:0.735433 23:1.61174 24:-0.550104 25:-2.231144 26:0.773119 27:0.677318 28:-0.446157 29:0.728949 30:-1.057745 31:0.29352 32:0.42823 33:1.624667 34:-0.175476 35:-0.984655 36:0.524828 37:0.958554 38:0.40019 39:-0.352863 40:0.484395 41:0.353598 
-0.4795417130568163 -0 0.09590184539885901 0.1306794157779376 0.105442793499104 0.1519786672426816 0.2297749487242892 0.1291628109114565 0.1211489609393861 0.02265831116305624 0.1028065708696185 0.121569824092513 0.135539677129101 0.1408074003361659 0.1272498375943583 0.1098708412193526 0.1070638852231646 0.1093665916705961 0.01946625126166365 0.2195761636341969 0.2842904407054833 0.1659314085280202 0.07226366443283022 0.2549041346142398 0.2721815530641468 0.1714343804649148 0.1147552039665439 0.8556037153450983 0.2992161868938366 0.6749211522675908 0.5052482451039542 0.1319772324052658 0.1822130565558671 0.1046764608674077 0.4576125298360156 0.2111432149081215 0.09776724434331997 0.1442464254939329 0.1117291311589528 0.1174832288459231 0.2811907457567009 1:7.112502 2:1.87071 3:1.396252 4:4.190325 5:-0.374954 6:1.120892 7:2.077328 8:-0.341118 9:0.823773 10:0.889633 11:1.719874 12:-1.021715 13:-1.895536 14:0.180918 15:-0.567398 16:2.147392 17:0.916576 18:0.093459 19:-0.638503 20:0.344906 21:0.729366 22:1.882663 23:0.971633 24:-0.777549 25:-2.39293 26:0.60033 27:0.900496 28:0.144524 29:1.267087 30:-1.907407 31:-0.601909 32:-0.248801 33:0.85573 34:0.070252 35:-0.954985 36:0.693646 37:-0.652156 38:0.583081 39:-1.97118 40:0.702073 41:1.445299 
-0.2263090529527342 -0 0.1072175948494356 0.06664547581719146 0.1173491267957884 0.09690099091577151 0.3182897560160217 0.06189905430412165 0.09511254747682212 0.0848085068972842 0.08746661831319985 0.0721430924635981 0.1621380165232646 0.08382116419795477 0.06546833360061761 0.04968441660575864 0.1106125702555792 0.06905914878168612 0.1734111127898982 0.08309318971879101 0.1548318247187878 0.1402358906502617 0.08148843154829595 0.1554741055792177 0.6115303812416424 0.08046656851468315 0.07032719450885738 0.461924709767718 0.1767561528293136 0 0.0760959393086844 0.08386971666528492 0.00689252642242053 0.03377528046355334 0 0.1575624702232148 0.1110373310252587 0.1118510888742151 0.05270118035397776 0.06222387106636018 0.1581759163568481 1:6.900516 2:4.171514 3:0.705128 4:4.08008 5:-1.219224 6:-0.087471 7:2.236109 8:-3.462306 9:0.174067 10:0.593215 11:0.486627 12:0.352669 13:-2.77937 14:-0.130585 15:-0.895554 16:0.724722 17:0.498673 18:0.076804 19:0.096467 20:2.195839 21:-0.024376 22:1.2658 23:0.914935 24:-1.724402 25:-2.299856 26:1.583024 27:0.608404 28:-1.354569 29:-0.341098 30:-2.063404 31:-0.368168 32:1.186034 33:1.378872 34:-0.31859 35:-1.159298 36:1.422621 37:-0.018317 38:-1.307624 39:0.429727 40:0.052838 41:0.808177 
-0 -0 0 0 0 0 0 0 0 0 0 0 0 0 0 0 0 0 0 0 0 0 0 0 0 0 0 0 0 0.3089236161407048 0 0 0 0 0 0 0 0 0 0 0 1:7.308829 2:3.589615 3:0.460109 4:5.206082 5:-0.221656 6:0.617245 7:2.313302 8:-3.455203 9:0.615925 10:0.33622 11:0.712013 12:-0.669666 13:-1.485555 14:0.500217 15:-1.057372 16:1.185454 17:0.047141 18:0.018047 19:0.275447 20:1.996601 21:0.406224 22:1.961808 23:0.846829 24:-0.687699 25:-2.12659 26:1.200141 27:0.423316 28:0.766645 29:0.142905 30:-1.449951 31:0.09587 32:1.117907 33:0.408382 34:-0.865226 35:-0.953872 36:1.443641 37:-0.255264 38:1.487844 39:-0.900235 40:0.217008 41:0.165775 
-0 -0.304678088610988 0 0 0 0 0 0 0 0 0 0 0 0 0 0 0 0 0 0 0 0 0 0 0 0 0 0 0 0 0 0 0 0 0 0 0 0 0 0 0 1:8.127555 2:5.712442 3:-0.085618 4:5.009117 5:0.095715 6:1.442737 7:3.16653 8:-3.46409 9:-1.082805 10:0.81021 11:0.183272 12:-0.919181 13:-1.353097 14:0.517987 15:-0.75559 16:0.852869 17:0.813315 18:-0.480237 19:0.564957 20:1.04742 21:-0.651888 22:1.379524 23:0.893235 24:-1.099662 25:-2.430763 26:1.417756 27:0.460576 28:0.766956 29:0.608216 30:-1.840658 31:0.570824 32:0.82869 33:1.773463 34:-0.150095 35:-0.918938 36:0.90756 37:-0.24469 38:0.287743 39:-0.629783 40:1.11989 41:0.303849 
-0 -0 0.06598644360922935 0.04953078248577161 0.059347904478026 0.06387191437657259 0.135496443352907 0.04723242456417096 0.06512729142019151 0.03397431991897187 0.05633753214885952 0.04927301636926728 0.08066204879330879 0.05970621871555007 0.04745609235436372 0.03857145544472264 0.07921679990460602 0.04643501222005726 0.1164621812805054 0.06949366619062494 0.09098307914125821 0.0652659778781598 0.0814096600071339 0.1655434619576164 0.0810969181766345 0.07964648336985462 0.04769010285585997 0 0.08510912454033701 0.006011577308422579 0.07751361321382114 0.05440068690237684 0.05855724490966289 0.0180579352603924 0.1249191471366508 0.09779296839943254 0.04759602092532931 0.0920275672444425 0.04089695255483018 0.0462480322166392 0.07496188199800786 1:7.6742 2:8.487444 3:-0.771893 4:4.540969 5:0.202808 6:1.7621 7:1.489573 8:-2.983295 9:-0.773375 10:1.315404 11:0.271412 12:-0.391195 13:-0.019297 14:-0.098997 15:0.792717 16:1.188572 17:-0.030926 18:-0.427971 19:0.72883 20:0.553599 21:-1.863937 22:0.707227 23:1.08509 24:0.102099 25:-1.60776 26:-0.096218 27:0.108657 28:-1.050402 29:1.510075 30:-0.248648 31:1.642873 32:1.195903 33:0.955897 34:-0.134516 35:0.160497 36:0.59197 37:1.117982 38:-0.025913 39:-2.47789 40:0.586729 41:-0.567613 
-0.3308813572194916 -0.3113809583294098 0.4844198725851155 0.6277883237231792 0.5464246488804776 0.5632374140230473 0.474866765740861 0.6009022280785491 0.5830154030383424 0.4097244580733093 0.4669512672194587 0.5947162404370894 0.4122284814848555 0.5744862029477029 0.5992733031513156 0.5128022580819429 0.477436150676103 0.4939025176363199 0.5156913079313729 0.5560300662529105 0.5702611532465298 0.5009215222981218 0.5347312293086168 0.4734517096495433 0.3559945482345395 0.4061199804616812 0.4049662945832662 0.2624742038412977 0.4660770968091444 0.2938882969680324 0.5214783203041811 0.5892585531791474 0.4085347453582195 0.6252341756025441 0.4402638204976746 0.5002158393795352 0.5410454791457964 0.4102817825845326 0.5182572782103615 0.5486134734431207 0.4562463084649682 1:9.368842 2:11.855033 3:0.207371 4:0.269781 5:0.189356 6:3.801639 7:1.67192 8:-0.35388 9:1.067794 10:1.163924 11:2.448917 12:0.407798 13:0.621856 14:-0.046687 15:-0.376454 16:1.65261 17:1.704866 18:0.772582 19:0.623687 20:0.543581 21:0.566611 22:-0.423964 23:1.319914 24:0.657307 25:-3.077023 26:0.739098 27:0.686469 28:0.110168 29:0.554375 30:-0.973655 31:-0.242402 32:-0.44693 33:0.620543 34:-0.693963 35:0.613992 36:-0.322973 37:0.661515 38:0.024371 39:-1.604768 40:1.47719 41:1.300472 
-0 -0 0 0 0 0 0 0 0 0 0 0 0 0 0 0 0 0 0 0 0 0 0 0 0 0 0 0.07751880295847666 0 0.4148724059958428 0 0 0 0 0 0 0 0 0 0 0 1:7.194171 2:3.605607 3:0.726181 4:4.84359 5:-0.7683 6:-0.971084 7:2.18617 8:-2.333152 9:0.674345 10:0.499777 11:1.045865 12:-0.607434 13:-1.625109 14:-0.031987 15:-0.964502 16:0.41916 17:-0.163142 18:-0.132908 19:-1.058528 20:1.830009 21:1.103759 22:0.567178 23:1.504987 24:-1.211118 25:-1.951153 26:1.215084 27:1.300172 28:0.111459 29:-0.996024 30:-1.822061 31:-0.977399 32:-0.783619 33:1.361977 34:-0.842594 35:-1.256696 36:0.510941 37:-0.38748 38:0.352336 39:-0.249317 40:0.009072 41:1.340545 
-0.02276875175649654 -0.846619774300251 0.04230857882164178 0.061988446153806 0.05634858093805742 0.05345937611251028 0 0.06202086272562184 0.06029204668946361 0.04100223517060683 0.05355219880266961 0.0627433765140612 0.03387672621066037 0.04956793325758922 0.06274179656120643 0.05231023969419109 0.02864577015241784 0.04785913778123418 0 0.03473558331097359 0.01391840637160176 0.04548171351713964 0.03023961328590587 0 0 0.0412656666981087 0.00524321777907606 0 0.010777076907662 0 0.002447924630693177 0.05476291611784044 0 0 0.02920893916470983 0.02781484531545668 0.04595866993964125 0.02518434092374857 0.05451862971797039 0.0548980358577619 0.01958918408245865 1:7.463887 2:9.649828 3:0.204797 4:2.605887 5:1.468643 6:3.081964 7:2.727984 8:-1.424513 9:1.218462 10:0.126232 11:1.542314 12:1.158156 13:-2.022054 14:-1.037164 15:0.021037 16:2.053956 17:0.556704 18:0.635813 19:0.690377 20:1.170261 21:0.785079 22:-1.460759 23:1.651396 24:1.185924 25:-2.523897 26:1.270892 27:1.294275 28:1.538548 29:1.430847 30:0.60334 31:0.573367 32:0.152799 33:-0.675465 34:-0.165989 35:-0.059095 36:0.063727 37:0.9099 38:0.487074 39:-0.993073 40:1.08954 41:1.783661 
-1.032146939599082 -0 0.3608565565868098 0.2641946318634637 0.3565985312931098 0.2994348174549179 0.8329334014774842 0.2359458735800438 0.3393504937120674 0.3261108816526967 0.2506036518771314 0.2669857034394091 0.4756399098040269 0.3093795940285773 0.247094432036666 0.1932314566967843 0.4550471044921644 0.2544669268656431 1.046072816473511 0.2944173707317836 0.5947160448350335 0.3378714306826835 0.5663807714857029 0.4281717986543374 0.7640186671311103 0.8114833654368995 1.445200424422935 0.9888282754306289 0.6269666806835522 0.9794089423042309 0.2229923918609099 0.346014299269492 0.7474240676967041 0.1553896882301689 1.433638756505904 0.3436700206998558 0.3246100256407847 0.540535256099025 0.206753506719363 0.2404653054722398 0.2990933443959408 1:6.300933 2:2.137632 3:1.926354 4:3.665284 5:0.940006 6:-1.740532 7:0.837774 8:-0.4435 9:2.22695 10:0.667871 11:0.568536 12:-0.262563 13:0.761833 14:-1.019725 15:0.165733 16:1.324671 17:0.86896 18:0.551261 19:-1.033018 20:1.343179 21:0.483967 22:2.184594 23:0.762225 24:0.47227 25:-1.319949 26:-0.213303 27:0.190459 28:0.195515 29:0.171496 30:-0.757568 31:-1.439682 32:-0.23739 33:0.288154 34:0.349379 35:0.282416 36:0.449787 37:0.321532 38:1.528877 39:-0.939137 40:-0.669965 41:0.2804 
-0 -0.4844488828541991 0 0 0 0 0 0 0 0 0 0 0 0 0 0 0 0 0 0 0 0 0 0 0 0 0 0 0 0 0 0 0 0 0 0 0 0 0 0 0 1:8.364729 2:4.706799 3:0.176643 4:5.236941 5:0.010404 6:-1.286559 7:3.175092 8:-3.871306 9:0.600553 10:1.093107 11:1.051328 12:-0.258071 13:-0.787157 14:-0.517238 15:0.319459 16:-2.055253 17:-1.068691 18:0.481757 19:-0.545227 20:1.002157 21:-0.392013 22:1.550821 23:-0.248378 24:-1.243815 25:-1.074632 26:0.634781 27:0.247765 28:0.243996 29:-0.379299 30:-1.031082 31:-0.323437 32:1.090604 33:1.011428 34:0.67006 35:-0.163785 36:0.736883 37:0.017202 38:0.461559 39:0.46917 40:0.667275 41:-0.812731 
-0.005655677890596942 -0.07988527586133376 0.1040498012429897 0.1342063289464665 0.1153510050333984 0.118328837520794 0.07567280825233885 0.1352196107829975 0.1253103758624875 0.07439059539763269 0.09966635527798094 0.1173590657118525 0.03761740925724595 0.1298060497526915 0.1304483614756612 0.1185921097536496 0.1013375239683861 0.1117478260072862 0.07349711248465088 0.1161240011595798 0.1208212369356704 0.1047510713722091 0.1052704226171672 0.08598194283251132 0.02184513447981799 0.06490121837949808 0.01918999421638351 0 0.08663548312127781 0.02427612067452906 0.1161569173807017 0.1281316845717901 0.06176174828856017 0.4436002594543196 0 0.1016401873252351 0.1048036081228929 0.08807816205622539 0.1073255222146711 0.1189801101734656 0.1021517195459338 1:7.190294 2:11.834341 3:-0.46299 4:1.116813 5:1.394766 6:-0.191501 7:2.082347 8:-0.756544 9:1.327716 10:-1.75248 11:2.018573 12:0.716425 13:-0.11752 14:-1.492474 15:-0.033379 16:-0.052099 17:-0.253898 18:0.636386 19:-0.866425 20:0.399594 21:0.652637 22:0.652204 23:2.036795 24:0.556969 25:-2.100622 26:0.647496 27:0.56885 28:0.621464 29:0.89366 30:0.012588 31:-1.027673 32:-0.198826 33:-0.208915 34:-0.568787 35:0.848612 36:-0.906269 37:0.673699 38:0.095665 39:-1.009577 40:0.23324 41:0.784276 
-0 -0 -0 0 0 0 0 0 0.2673244612731241 0 0 0 0 0 0 0 0 0 0 0 0 0 0 0 0 0 0 0 0 0 0 0 0 0 0 0 0 0 0 0 0 1:-1.608305 2:-1.38731 3:-3.63606 4:-0.963618 5:-1.791838 6:-1.190801 7:-2.941926 8:-3.840623 9:2.213975 10:-0.378356 11:1.197213 12:0.056603 13:0.306291 14:-1.109211 15:1.871255 16:-1.200908 17:-0.806126 18:0.605716 19:-1.377084 20:0.784371 21:0.345812 22:0.136758 23:-0.78506 24:0.230673 25:-0.950498 26:-0.149089 27:-0.275334 28:-0.540163 29:0.969708 30:-1.09768 31:2.644857 32:0.418453 33:1.451889 34:1.775986 35:-0.209349 36:-0.761354 37:-0.177252 38:1.536484 39:-1.545335 40:0.29951 41:1.022945 
-0 -0 -0 0 0 0 0 0 0.1029693566270989 0 0 0 0 0.5263630591827309 0 0 0 0 0 0 0 0 0 0 0 0 0 0 0.1799890426479054 0.10849368262237 0.06664868427210485 0 0 0 0 0.0591662394865875 0 0.0400941395055875 0 0 0 1:0.332494 2:-2.81606 3:-4.261477 4:-0.477984 5:-2.77792 6:-4.152289 7:-2.119706 8:-0.956802 9:1.66492 10:-2.619128 11:1.097559 12:-0.436312 13:0.096892 14:-0.787155 15:0.880931 16:-0.872584 17:0.215109 18:0.342782 19:-0.352224 20:1.024469 21:-0.854227 22:-2.134068 23:-1.10262 24:-2.003054 25:-1.227872 26:-1.748977 27:-0.540122 28:-0.487691 29:0.348892 30:1.440707 31:0.494642 32:2.089246 33:1.16791 34:0.35561 35:1.076404 36:0.947156 37:-1.003463 38:1.565852 39:-0.182085 40:-1.116609 41:-0.141256 
-0.1990534786348958 -0.183165207712315 -0.1737109598724427 0.1655515762417247 0.1867888408481269 0.1724757781305909 0.07714624477869246 0.2133160725937168 0.4614425732889971 0.12326241455039 0.2457011124174346 0.1940639961130919 0 0.7342092806051619 0.1673945296648713 0.2001339959312507 0 0.2247604615821896 0.2409997279538675 0.1500179940290876 0.4197099300850216 0.01668741567178956 0.04691709590150869 0.1895993814511636 0.03061915983373163 0.3637770295202966 0.1199813750086727 0.1260806800014311 0.4201646392769454 0.09069129979947858 0.1344862540391327 0.2670415569666068 0.1534605038827584 0.2011658212910017 0.2089821768099212 0.1090054047804253 0.1985509553613946 0.1073508153880969 0.1405065541152253 0.0392125652675275 0 1:0.220909 2:-1.831771 3:-3.528472 4:-1.376572 5:-2.694516 6:-2.5525 7:-2.440897 8:-2.829633 9:2.449283 10:-0.079205 11:1.354746 12:0.247793 13:0.764013 14:-1.871717 15:1.756804 16:-1.919914 17:-1.804274 18:-0.795403 19:-0.368082 20:0.73897 21:0.904862 22:-1.353899 23:-0.64539 24:2.067782 25:0.342145 26:0.559372 27:-0.796959 28:0.676162 29:1.210348 30:2.441252 31:2.011059 32:-0.052391 33:0.710787 34:-0.121428 35:-0.168021 36:-1.519619 37:-0.966272 38:-0.627362 39:-1.572591 40:-0.292364 41:-0.727547 
-0.3841662797951672 -0 -0.0563006675850744 0 0.2234508528884017 0.04579197045556233 0.152914484517421 0 0 0.05386720889499394 0.1762975917885347 0.06013145526483409 0.8532570531306048 0 0 0 0.7336935932558678 0.08374838621493837 0.3885693043346822 0.2495711409641778 0.2953057484858468 0.07589658271022127 0 0.1142711819633495 0.7428098318818704 0.1189016212652958 0.5091770833151059 0.4167568568714178 1.402914870397909 0.5738734552258572 0.2602886577375689 0.09389190457854538 0.1056714031412955 0 0.170207374668476 0.6305648621832306 0.03006459304289963 1.111410818105144 0 0 0.4378348938511128 1:-0.253511 2:-1.425336 3:-2.351161 4:1.465477 5:-1.006556 6:-1.139708 7:-2.113608 8:-0.035917 9:0.560347 10:-2.735344 11:1.022945 12:1.105212 13:-0.369529 14:-0.468341 15:0.99455 16:-0.417044 17:0.471397 18:1.175004 19:0.307386 20:0.921036 21:-0.784139 22:-0.645558 23:-2.623543 24:-1.567582 25:-0.817359 26:-0.067874 27:-0.745036 28:-2.10759 29:0.461577 30:2.396196 31:-0.05916 32:0.005604 33:1.533424 34:1.520687 35:-1.043146 36:-0.526992 37:0.070089 38:0.935593 39:-0.635303 40:-0.538915 41:-0.677954 
-0 -0.1861519247641334 -0.1657695535426665 0.2854081580518585 0 0.09947368470761793 0 0.2751974104323223 0 0.1852835233209148 0.06208074204468852 0.2646439841880797 0.01912253009867051 0.5618059687018658 0.28211092937184 0.2328022056389282 0 0.1557135058564897 0 0.08272183748908572 0 0.07692013930457479 0 0.1413000127695375 0 0 0 0 0 0.1075713241518089 0.0774951356928348 0.2787894537159366 0.09472717990331909 0.2340289833767422 0.059850338753705 0 0.2154885086663711 0 0.2467514146690727 0.1853178122687317 0.2239212276900344 1:-0.911673 2:-1.87214 3:-4.335516 4:0.570647 5:-1.823172 6:-3.072821 7:-2.367654 8:-0.420088 9:0.201724 10:-3.505612 11:-0.41909 12:-0.192966 13:-0.200965 14:-0.362963 15:0.895109 16:-0.719639 17:1.192435 18:1.711168 19:-0.35786 20:1.277484 21:-0.084447 22:-1.719138 23:-0.581826 24:-2.07677 25:-0.102922 26:-0.404392 27:-1.161813 28:-0.294786 29:0.274302 30:3.615904 31:0.341772 32:0.104475 33:2.719551 34:2.222463 35:-0.015321 36:-0.16948 37:-0.920719 38:0.979916 39:-0.862227 40:-2.347106 41:-1.450809 
-0 -0 -0 0 0 0 0.04028831128460766 0 0 0 0 0 0 0 0 0 0 0 0 0 0 0.1876212739575953 0 0 0 0 0 0 0 0 0 0 0 0 0 0 0 0 0 0 0 1:-0.828466 2:-2.008145 3:-3.405178 4:-1.110394 5:-2.499224 6:-1.977147 7:-1.762988 8:-2.580759 9:1.541949 10:-1.154063 11:0.894173 12:0.539474 13:1.111557 14:-1.464786 15:-0.015679 16:-2.325533 17:0.777516 18:0.663334 19:0.238235 20:1.357017 21:-0.435183 22:-3.473936 23:1.051501 24:-0.114846 25:-1.217099 26:0.910002 27:-0.910056 28:0.565807 29:-0.331739 30:0.557624 31:0.939263 32:1.423523 33:1.43597 34:-0.319583 35:1.587505 36:0.148901 37:0.079452 38:0.227504 39:-0.150214 40:-2.021477 41:0.078021 
-0 -0 -0 0 0 0 0 0 0.5945439917534971 0 0 0 0 0.08282797045012472 0 0 0 0 0 0 0 0 0 0 0 0 0 0 0 0 0 0.01093117390359975 0 0 0 0 0.0565496515747507 0 0 0.2840071923357089 0 1:-2.251129 2:-0.861148 3:-4.723992 4:-0.937818 5:-0.757328 6:-2.665007 7:-0.659346 8:-1.300113 9:2.297769 10:0.687944 11:0.038819 12:-0.606007 13:1.186605 14:-0.441898 15:2.719212 16:-1.617604 17:1.051672 18:-1.217813 19:1.156079 20:0.547989 21:-1.376125 22:-0.894026 23:-1.325678 24:-0.213306 25:0.610948 26:0.987939 27:-1.388901 28:-0.299638 29:1.330296 30:-1.382609 31:2.204348 32:1.273479 33:1.223358 34:-0.313463 35:-1.233355 36:1.794899 37:0.730409 38:0.573812 39:-0.536177 40:0.529433 41:-1.99057 
-0 -0 -0 0 0.1989645966937762 0.1464113773973708 0 0 0.0145820142176508 0 0.03464646036532994 0 0.1123115750881206 0.7878841107828157 0 0 0 0 0 0.1199540746174796 0 0.2255993263648517 0.1849631478272924 0 0 0 0 0 0 0.06144843703427244 0.07346917156764615 0 0 0 0 0.3234486663360664 0.0008451039245270108 0 0 0 0.1064162733429608 1:-0.490799 2:-1.221102 3:-4.338484 4:-1.375737 5:-2.483516 6:-0.842693 7:-1.556025 8:-0.954258 9:1.384953 10:0.301106 11:-0.148249 12:0.788089 13:-0.149788 14:-0.825274 15:0.610309 16:-1.316584 17:-0.59154 18:-0.073519 19:0.262784 20:0.497809 21:-1.395364 22:-0.376035 23:-0.453941 24:-0.402943 25:-1.265901 26:0.172119 27:-0.372108 28:0.15334 29:3.5901 30:-0.791356 31:2.591717 32:1.15793 33:0.365121 34:0.142906 35:-0.644263 36:0.155026 37:0.987075 38:-0.434159 39:-1.646592 40:0.260864 41:-1.366598 
-0 -0 -0 0 0 0 0 0 0 0 0 0 0.268550166790988 1.330925985993137 0 0 0 0 0 0 0 0 0 0 0 0 0 0 0 0.05414264103068733 0 0 0 0 0 0 0 0.0339517460726157 0 0 0 1:-0.84889 2:-1.468324 3:-5.097968 4:-0.376254 5:-1.788056 6:-0.792191 7:-1.735976 8:-2.034867 9:1.445804 10:-1.49399 11:-0.062315 12:-2.274759 13:0.584727 14:-0.073056 15:1.804494 16:-0.750381 17:-0.868189 18:0.8129 19:0.167025 20:0.144927 21:0.22178 22:-1.367316 23:-0.418447 24:-0.342527 25:0.044736 26:0.632733 27:-2.598374 28:-0.332952 29:1.481965 30:0.019073 31:1.987221 32:0.622318 33:0.507252 34:2.010189 35:0.952646 36:-0.254294 37:-0.582958 38:1.361764 39:-0.91283 40:-0.122132 41:-0.362985 
-0 -0 -0 0 0 0 0 0 0 0 0 0 0 0.1003866853396104 0 0 0 0 0 0 0 0 0 0 0 0 0 0 0 0 0 0 0 0 0 0 0 0 0 0 0 1:-2.215474 2:-1.309015 3:-3.583339 4:-0.566271 5:-2.465164 6:-2.245081 7:-1.752764 8:-1.126226 9:2.400348 10:-2.955514 11:0.810464 12:-0.044439 13:-0.136684 14:-0.831032 15:0.975846 16:-1.363304 17:0.32425 18:2.64512 19:-0.676769 20:-0.100692 21:-0.164256 22:-2.377648 23:-0.502574 24:-2.016315 25:-0.25737 26:1.279796 27:-0.693695 28:-2.033857 29:0.960898 30:0.344464 31:0.406104 32:1.481782 33:1.951488 34:0.167424 35:1.068683 36:0.726971 37:1.627854 38:1.616502 39:0.33546 40:-0.421417 41:-0.609137 
-0 -0 -0 0 0 0 0 0 0.7494741745509578 0 0 0 0 0.2973226868708448 0 0 0.1214771967022212 0 0 0 0 0 0 0 0.08658462280891169 0 0 0 0.2311547609507006 0 0 0.001295681850171052 0 0 0 0 0 0.5502943920552379 0 0 0 1:-0.99678 2:-2.135235 3:-4.111529 4:-0.07579 5:-2.42833 6:-3.268478 7:-2.267959 8:-1.053219 9:1.406504 10:-2.917848 11:0.539578 12:-0.038185 13:1.405836 14:0.331716 15:1.323767 16:-1.350134 17:-0.0461 18:1.981 19:-0.531688 20:0.913142 21:1.064638 22:-1.293033 23:-1.581839 24:-0.012724 25:-0.341439 26:0.815306 27:-0.349105 28:-0.680948 29:0.201807 30:2.713097 31:-0.897953 32:0.063374 33:0.09741 34:1.926351 35:-0.053358 36:1.120047 37:-1.387027 38:-1.73426 39:0.820146 40:-0.511592 41:-1.583444 
-0 -0 -0 0 0 0 0 0 0 0 0 0 0 0 0 0 0 0 0 0 0 0 0 0 0 0 0 0 0 0 0 0 0 0 0 0 0 0.3009699444909567 0 0 0 1:-0.857469 2:-2.155886 3:-2.96742 4:-1.192991 5:-2.642176 6:-3.19121 7:-3.099682 8:-2.340394 9:1.73462 10:-0.545513 11:1.335894 12:1.296584 13:-0.091421 14:0.323927 15:0.775089 16:-0.876923 17:0.628704 18:0.707677 19:-0.514987 20:0.571812 21:1.496072 22:-2.254775 23:-1.099525 24:0.938463 25:-0.692656 26:-0.299954 27:-1.925004 28:0.498058 29:0.718908 30:0.169722 31:1.658651 32:0.054208 33:0.429442 34:-0.077871 35:-1.003458 36:-0.284164 37:0.243469 38:0.871693 39:-1.176368 40:-0.773904 41:-0.724458 
-0 -0 -0 0 0 0 0 0 0.1963220025082001 0 0 0 0 0.4978687542087928 0 0 0 0 0 0 0 0 0 0 0 0 0 0 0 0 0 0 0 0 0 0 0 0 0 0 0 1:-1.548297 2:-1.703319 3:-4.303329 4:-1.441168 5:-1.548086 6:-1.392137 7:-1.953129 8:-0.913981 9:0.351845 10:-1.031432 11:0.032967 12:0.166151 13:0.991558 14:-0.740436 15:1.039565 16:-0.964756 17:0.386206 18:-0.86227 19:0.110945 20:0.588805 21:0.6721 22:-1.512802 23:-0.549174 24:-0.30696 25:0.222761 26:0.9574 27:-0.115469 28:-0.597718 29:2.983489 30:0.057832 31:1.059555 32:-0.227501 33:2.808254 34:-0.652256 35:-0.15343 36:0.055208 37:0.025254 38:0.892878 39:1.389872 40:-1.122009 41:1.287036 
-0.07293964094310043 -0.1384935551932837 -0.1408787302424595 0.242061877502588 0.4347593411857566 0.1651334305304796 0.1065572939360325 0.2121421293920399 0.1239923715330639 0.1603672622711474 0.1939924674218929 0.2080431600705795 0 0 0.229770384764251 0.1692347129014123 0.5015961886699161 0.2494125869594375 0.1319038631331114 0.2651896095773997 0.1928136239985868 0.1906905597235861 0.09924313926691415 0.1178207351855806 0 0.1709999962866854 0.08070190948846047 0.1137301596842592 0 0.02474630315121262 0.1486558731878663 0.1879752424350987 0.1034039608540885 0.1684434809196538 0.1181541749483751 0.1810215842146274 0.216433692435836 0 0.1552027590259896 0.2119175884498408 0 1:-1.882075 2:-1.564914 3:-3.884584 4:-0.876161 5:0.954645 6:-2.737344 7:-0.59281 8:-1.922682 9:0.830165 10:-0.616348 11:0.370664 12:2.721874 13:-0.44014 14:-0.549764 15:1.684319 16:-3.296202 17:2.303891 18:-0.051009 19:-0.482508 20:0.558964 21:-0.889512 22:-2.019052 23:-2.520847 24:0.379688 25:-0.438682 26:1.250164 27:-1.132545 28:-0.47653 29:3.214333 30:0.115105 31:1.837047 32:-3.347446 33:0.654365 34:1.322397 35:-2.691453 36:0.929014 37:2.276693 38:1.085683 39:0.253787 40:-0.921513 41:1.485263 
