svm_type c_svc
kernel_type rbf
gamma 0.0078125
nr_class 42
total_sv 1464
rho 0.140885 0.183221 0.224639 0.42524 0.348709 0.347357 0.296633 0.362061 0.422404 0.029885 0.113747 0.370622 0.104169 0.37837 0.399672 0.196395 0.277305 0.213193 0.333144 0.443624 0.417541 0.395648 0.254236 0.151882 0.36948 0.270275 0.108429 0.506781 0.465132 0.256548 0.291041 0.41695 0.0576511 0.266037 0.333655 0.237662 0.322978 -0.051896 0.213061 0.261302 0.211899 0.404505 0.0507455 0.299633 0.156392 0.17734 0.0395455 0.245104 0.230296 -0.0635401 0.0218859 0.228971 -0.0534712 0.201155 0.264714 0.086449 0.0487971 0.0738523 0.0888833 0.163623 0.227104 0.0811669 0.116321 0.0505162 -0.139102 -0.0677344 -0.0852657 -0.0212204 0.0203223 -0.0875079 0.0876036 0.2298 -0.105599 0.177708 -0.0322495 0.0771933 0.128808 -0.0650533 0.0936453 0.138971 0.0143188 0.0312648 0.280921 0.141373 0.157345 0.0158832 0.222754 0.217253 -0.106259 -0.00916984 0.213168 -0.0667896 0.181832 0.244517 0.0597122 0.00472912 0.0486698 0.158346 0.146861 0.200838 0.0573998 0.125434 0.00278394 -0.181622 -0.0673123 -0.0770652 -0.215697 0.0108898 -0.107658 0.0657761 0.217947 -0.132492 0.144967 -0.0324754 0.028514 0.11968 -0.095649 0.0676488 0.113084 -0.0255808 0.327392 0.00140509 0.198565 0.148571 0.222965 0.136641 -0.12597 -0.059329 0.270545 -0.127806 0.140374 0.275472 0.040314 -0.0620482 0.020811 -0.0394404 0.0797726 0.0633255 0.0233002 -0.151879 -0.0276202 -0.214662 -0.13846 -0.198502 -0.0650467 -0.150659 -0.20178 0.0717114 0.144699 -0.166639 0.112756 -0.118055 0.0609441 0.0481423 -0.0855637 0.0368738 0.0143205 -0.0307776 -0.188403 -0.196044 -0.264775 -0.068286 -0.10362 -0.365677 -0.296815 0.0844164 -0.47458 -0.128992 -0.0612042 -0.226663 -0.283502 -0.246419 -0.246586 -0.165109 -0.110135 -0.251893 -0.229701 -0.235247 -0.415847 -0.368518 -0.400698 -0.340832 -0.328117 -0.389551 -0.213552 -0.079511 -0.390453 -0.143022 -0.358367 -0.244017 -0.236386 -0.401745 -0.236488 -0.199995 -0.303301 0.163667 -0.0303461 0.115233 0.118728 -0.254967 -0.0415089 0.0959914 -0.313803 0.044315 0.15745 -0.0613243 0.0405823 -0.0604974 -0.191955 0.0683609 0.122047 -0.128483 0.0760608 -0.10667 -0.263256 -0.22064 -0.222393 -0.201829 -0.0578424 -0.236494 -0.0674697 0.212321 -0.28243 0.0133327 -0.222954 0.270239 -0.0704078 -0.32913 -0.0658198 -0.0750298 -0.154781 -0.0501944 0.112536 0.235174 -0.25881 -0.163455 0.116152 -0.240112 0.0291617 0.153067 -0.083045 -0.064009 -0.148485 -0.145004 0.0695935 0.0686107 -0.0471155 -0.00626146 -0.129025 -0.235978 -0.237641 -0.239441 -0.139943 -0.0127048 -0.27253 -0.0784515 0.101731 -0.289181 -0.0102036 -0.228558 0.116133 -0.0837835 -0.305323 -0.0592831 -0.0674418 -0.120195 0.201834 0.159512 -0.164388 -0.246098 0.170601 -0.475139 0.189097 0.237378 0.0297461 0.126711 -0.0341785 -0.156578 0.139643 -0.0325273 0.128118 -0.22313 -0.25462 -0.455389 -0.0458555 -0.216641 0.107267 -0.140886 -0.341203 0.0794999 0.231021 -0.164325 0.102258 -0.0255375 0.0569854 0.0765456 -0.600421 0.0294839 0.0625225 0.0589307 -0.0292039 -0.305853 -0.232885 0.0224725 -0.359928 -0.061522 -0.0285017 -0.178165 -0.220343 -0.183991 -0.183257 -0.111886 -0.0485545 -0.186936 -0.153454 -0.17569 -0.343587 -0.308641 -0.329791 -0.278999 -0.24798 -0.327631 -0.157056 -0.0299833 -0.334781 -0.0888519 -0.299639 -0.186874 -0.152956 -0.322968 -0.198386 -0.118989 -0.241708 -0.304903 -0.231584 0.0345495 -0.312669 -0.0181232 0.0874708 -0.130252 -0.168565 -0.157901 -0.202231 -0.126246 -0.0528087 -0.214437 -0.248882 -0.218827 -0.432333 -0.329736 -0.374517 -0.338855 -0.344218 -0.396653 -0.195395 0.0318555 -0.347143 -0.0557363 -0.320411 -0.195625 -0.128403 -0.378281 -0.164319 -0.251205 -0.286716 0.114509 0.298832 0.0193967 0.273896 0.330686 0.145385 0.125297 0.10865 0.20869 0.255991 0.334991 0.167144 0.207637 0.15486 -0.0107511 0.0689512 0.00667088 0.117395 0.0740905 -0.0130505 0.190691 0.280711 -0.00441376 0.214804 0.129264 0.192145 0.223993 0.012608 0.156327 0.201744 0.0890621 0.230126 -0.0512618 0.213967 0.263051 0.0678241 0.0513681 0.108338 0.000635335 0.164021 0.29642 0.0661625 0.154653 0.0530122 -0.117364 -0.138466 -0.0724886 0.020401 0.0599112 -0.0450223 0.0712008 0.241967 -0.154376 0.13905 -0.0644143 0.122091 0.11983 -0.124254 0.0778878 0.11425 0.0131697 -0.374114 -0.0731712 -0.0309811 -0.140831 -0.20457 -0.178245 -0.179226 -0.0974607 -0.0398351 -0.183841 -0.141675 -0.16698 -0.340846 -0.292483 -0.328272 -0.274731 -0.262712 -0.325798 -0.14512 -0.00929613 -0.326217 -0.0676831 -0.297208 -0.177962 -0.194705 -0.320007 -0.337632 -0.140382 -0.239403 0.35251 0.453596 0.140138 0.0831978 0.144691 0.0605176 0.248524 0.272494 0.185099 0.218032 0.0822115 0.0826401 -0.0163475 -0.0377771 0.151207 0.118567 0.11865 0.173953 0.332139 -0.0706025 0.208429 0.0151218 0.144604 0.119528 -0.0339247 0.182484 0.141342 0.127803 0.107211 -0.109601 -0.218227 -0.139876 -0.172841 -0.0852124 -0.0357218 -0.161382 -0.106652 -0.18265 -0.370262 -0.295622 -0.325117 -0.278963 -0.146662 -0.434764 -0.091668 0.0119834 -0.323618 -0.0369306 -0.283006 -0.102303 -0.0863304 -0.279943 -0.122709 -0.118632 -0.250797 -0.185599 -0.258382 -0.211239 -0.214739 -0.141486 -0.0739983 -0.222849 -0.195055 -0.200341 -0.385452 -0.337993 -0.369703 -0.309108 -0.294715 -0.362967 -0.182411 -0.0467438 -0.35757 -0.106762 -0.324511 -0.221551 -0.169759 -0.372389 -0.184609 -0.0831903 -0.273703 -0.0460647 -0.0173742 -0.0138601 0.0555497 0.115056 -0.0145785 0.0146019 -0.00942384 -0.172685 -0.142905 -0.15957 -0.109868 -0.0702936 -0.158372 0.00889101 0.1334 -0.179543 0.071652 -0.136652 -0.0144601 0.0423504 -0.143067 -0.00392048 0.0512984 -0.0708455 0.0355495 -0.0300163 0.143209 0.0364152 -0.064499 -0.18653 -0.0426305 -0.227983 -0.308317 -0.234545 0.00400214 -0.163223 -0.239281 0.152912 0.223534 -0.209704 0.118266 -0.0662198 0.295806 0.0918651 -0.153038 0.0526116 0.0632048 -0.0903506 0.0469015 0.0723214 0.276879 -0.026486 0.0227389 -0.00337251 -0.179978 -0.128998 -0.134442 -0.0709118 -0.0315717 -0.157655 -0.0128742 0.17696 -0.209367 0.089321 -0.113849 0.0461167 0.0642392 -0.152399 0.0255807 0.0631694 -0.0657814 0.121063 -0.0409977 0.0722899 0.00910363 -0.053689 0.0576779 -0.376314 -0.541219 -0.214103 0.0990265 -0.168826 -0.00623931 0.222268 -0.415441 0.0865832 -0.32573 0.214802 0.0713309 -0.275283 0.0203963 0.050075 -0.0969077 -0.0209067 -0.180591 0.0139036 -0.0833346 -0.228432 -0.34107 -0.369115 -0.316044 -0.184954 -0.304341 0.0457412 0.157021 -0.291416 0.0170964 -0.238746 0.015357 -0.0223724 -0.227505 -0.0586512 -0.0174951 -0.240078 -0.160136 -0.110005 -0.195756 -0.0981933 -0.144528 -0.26558 -0.0896557 0.162168 -0.144646 -0.165632 0.0277992 -0.398588 -0.043011 -0.211453 0.098218 -0.074969 -0.36647 -0.11554 -0.0862521 -0.111467 0.0161307 -0.0789368 -0.257189 -0.139285 -0.0780742 -0.061846 0.0408537 -0.244749 -0.00615244 0.134531 -0.27194 0.0869642 -0.216331 0.261721 0.065358 -0.192957 0.0225384 0.0518033 -0.0442833 -0.0589265 -0.121918 -0.295134 -0.312556 -0.0310586 0.0600506 -0.228252 0.0235153 0.209191 -0.277388 0.0579582 -0.233488 -0.0569238 0.00899898 -0.0665964 -0.0203445 -0.000872169 0.0726472 0.365545 -0.0245639 -0.100172 0.106753 0.105277 0.080189 0.00735767 0.183209 -0.191578 0.0821735 -0.0776291 0.0664164 0.0740287 -0.0532839 0.0167944 0.0652327 -0.0200872 -0.0840865 -0.0522297 0.0896603 0.242722 -0.283078 0.0845753 0.368752 -0.0927897 0.244217 -0.21142 0.164081 0.249154 -0.168925 0.194311 0.234686 0.0167656 -0.13482 0.162013 0.162033 -0.207588 0.179859 0.336889 0.176573 0.21358 0.226414 0.249713 0.235063 -0.13667 0.152741 0.194772 0.121609 0.159696 0.216629 0.0761494 0.217385 0.394632 -0.135057 0.230377 0.0759005 0.267368 0.23975 0.0611808 0.174352 0.218348 0.0853472 0.19294 -0.0477056 -0.182597 0.296205 -0.129532 0.182449 -0.314931 0.30417 0.207894 -0.216777 0.122245 0.156363 0.0117342 -0.495869 0.118933 0.240748 -0.161475 0.141958 -0.0870465 0.0728257 0.119738 -0.256719 0.0755895 0.0959116 -0.0449859 0.223817 0.375199 -0.0474743 0.230429 0.0159512 0.0683086 0.239446 -0.263664 0.170622 0.213255 0.203532 0.111718 -0.168517 0.0632245 -0.103746 0.115705 0.0415839 -0.207925 -0.00347526 0.0343754 -0.0212867 -0.361478 -0.0587872 -0.316242 -0.251504 -0.119312 -0.323717 -0.143063 -0.18578 -0.2403 0.249887 0.0410769 0.246456 0.247745 0.0577777 0.190287 0.238874 0.160243 -0.209719 -0.0870586 -0.0365635 -0.213181 -0.0662558 -0.0218198 -0.142551 0.181506 0.209429 -0.0688879 0.14672 0.193523 0.107692 0.0645097 -0.209062 0.0176975 0.00346859 -0.0776907 -0.237187 -0.0179769 0.0126152 -0.143125 0.161044 0.17918 0.0762914 0.0157632 -0.0840138 -0.123177
label 1 2 3 4 5 6 7 8 9 10 11 12 13 14 15 16 17 18 19 20 21 22 23 24 25 26 27 28 29 30 31 32 33 34 35 36 37 38 39 40 41 42
nr_sv 35 25 31 36 30 38 37 47 25 43 27 34 33 32 31 19 21 41 31 41 40 45 39 40 26 37 40 42 46 47 39 38 31 34 11 41 44 34 39 29 29 36
SV
0 0 0 0 0 0 0 0 0 0 0 0 0 0 0 0 0 0 0 0 0 0 0 0 0 0 0 0 0 0 1.137143139799472 0 0 0 0 0 0 0 0 0 0 1:3.998806 2:-2.203595 3:1.442066 4:0.843791 5:0.526298 6:1.228642 7:0.708181 8:0.812596 9:1.429693 10:-0.401295 11:1.105787 12:-0.188444 13:-2.122989 14:0.399324 15:-0.717555 16:0.840559 17:2.328522 18:1.114069 19:-0.1879 20:-0.064779 21:1.308327 22:0.270236 23:-0.209398 24:2.190281 25:0.248821 26:0.385697 27:0.974172 28:0.098233 29:-0.432876 30:-0.145482 31:0.297857 32:-1.06953 33:-1.641448 34:-0.187821 35:2.321855 36:2.363818 37:0.836277 38:1.021614 39:0.309887 40:-0.67731 41:-0.390736 
0 0 0 0 0 0 0 0 0 0 0 0 0 0 0 0 0 0 0 0 0 0 0 0 0 0 0 0 0 0 0 0 0.08296067935921789 0 0.09829331868735723 0 0 0 0 0 0 1:3.816265 2:-1.516622 3:3.30529 4:1.404957 5:0.761958 6:1.037141 7:0.44948 8:1.104361 9:2.8478 10:0.701998 11:1.01491 12:-0.449045 13:-1.073959 14:-0.432327 15:-0.169301 16:-0.005754 17:0.787263 18:1.208448 19:-1.063567 20:1.664596 21:0.038112 22:0.941223 23:-0.439825 24:1.353225 25:-1.032007 26:0.75683 27:0.342877 28:0.385915 29:0.366207 30:1.30531 31:0.863374 32:0.448106 33:-2.2705 34:0.632499 35:2.789806 36:1.482721 37:-1.679826 38:0.555941 39:0.188307 40:-0.586302 41:0.323368 
0 0 0 0 0 0 0.4712471018141433 0 0 0 0 0.0781258173184822 0.07616756476293401 0.02152599420424286 0.0172346040764596 0 0 0 0 0 1.226235492570322 0.01518617858717877 0 0.2704503104364634 2 2 0.2100812553213784 2 0.7858667409473203 1.192103725888736 0.9063541668025354 0 0.6812902580802854 0 0.7766130573768694 1.007942735155349 0.1610306550866232 0.4905727942018641 0 0.01367896752626008 0.5327053879425608 1:3.071176 2:-1.376368 3:1.980454 4:1.983734 5:-1.029522 6:0.15143 7:0.523374 8:0.8791 9:2.277577 10:0.221455 11:0.65033 12:-0.519165 13:-1.298647 14:0.121025 15:-1.319209 16:-0.223251 17:1.130831 18:0.091902 19:-0.035076 20:-0.227996 21:0.361158 22:-0.077587 23:-0.322669 24:0.342406 25:0.810486 26:0.285737 27:0.523904 28:0.689575 29:-1.146762 30:0.645991 31:-0.423728 32:0.5683 33:-0.687515 34:-0.095918 35:1.469678 36:1.984905 37:-1.183137 38:-0.984642 39:0.112629 40:0.17345 41:-0.781182 
0 0 0 0 0 0 0 0 0 0 0 0 0 0 0 0 0 0 0.1250633263076079 0 0 0.0498722997132624 0 0 0 0 0 0 0 0.2377202923428513 0.01058642280056632 0 0 0 0 0 0 0 0 0 0 1:3.842067 2:-2.013709 3:1.482559 4:1.367576 5:0.173316 6:1.475841 7:-0.064589 8:1.070968 9:1.937835 10:-0.416061 11:0.667979 12:0.170665 13:-1.362108 14:0.291298 15:-0.356447 16:0.207478 17:1.55444 18:0.77199 19:-1.119114 20:1.627553 21:0.634405 22:1.31448 23:0.555989 24:1.040674 25:0.377806 26:0.425019 27:0.261181 28:0.055523 29:-0.40136 30:-1.034353 31:-0.014747 32:1.736445 33:-0.314134 34:0.58365 35:1.056257 36:0.274477 37:0.759621 38:0.735918 39:0.026278 40:-0.828966 41:-0.484759 
0.9494148129988492 1.918169221091456 0.3311675448419387 0.2845825467308198 0.4166326597537157 0.1928855207743071 1.802267294880308 0.238955744869383 0.1925651794582365 0.08115006837067086 0.3842344268877499 0.1987369506173474 0.8996332936281589 0.2828641386594006 0.2827607468796585 0.2274413728315033 0.3923501889073915 0 0.4159295747448181 0 0.4564859772838601 0.2837223354244791 0.4646295019347941 0.9316339952487712 2 0.1308866860020057 0 2 1.182424489620578 2 0.467678584612552 0.4269554653907492 0 0.2561905325343185 0 1.165659714601959 0.2341271374086563 1.306399049477073 0.2540845531743235 0.2086986389684494 0.1998500828721624 1:4.0991 2:-1.124692 3:1.180287 4:2.576616 5:-0.968165 6:-0.203543 7:1.331294 8:-1.181295 9:1.669791 10:-0.112592 11:1.660554 12:-0.269289 13:-1.644674 14:-0.365666 15:-1.545777 16:0.733527 17:0.120904 18:1.483595 19:-0.139009 20:1.399062 21:1.71476 22:0.148925 23:0.366218 24:1.143758 25:0.461878 26:0.708721 27:0.314674 28:0.699864 29:0.021725 30:-1.136083 31:-0.720997 32:-1.474245 33:0.096214 34:-0.17429 35:1.110661 36:0.315124 37:-0.523438 38:-0.178368 39:-0.999212 40:-0.102825 41:-0.841446 
0 0 0.327095393104912 0.1398682029656445 0.1054221480999697 0.3002646044210357 0.8044888071536636 0.1173303955409142 0.5149132792722775 0.1693965108710519 0 0.2684943657678378 0.445940136145272 0.161561723254425 0.1978995919757809 0.04222199539680251 0 0.05256676551848043 1.101078092660891 0 1.383472385391653 0 0 0 0 0.7642395398449652 0.8666308151879252 0.6499142201513849 1.586467178543959 0.1982016476187703 0 0.2900509591959877 0 0.02417432114391235 0.3150056950188834 0 0.2941295985277643 0 0.04433753713208843 0.2285239109759691 0 1:3.10726 2:-1.684966 3:2.077997 4:1.790378 5:0.288236 6:-0.156202 7:0.722932 8:-0.264613 9:3.02748 10:-0.187103 11:1.71393 12:0.239801 13:-1.191053 14:-1.079932 15:-0.63298 16:0.308686 17:0.354779 18:-0.300181 19:-0.038139 20:1.207411 21:1.09558 22:-0.440128 23:0.246172 24:0.85685 25:-0.474693 26:1.857496 27:1.920891 28:0.124228 29:0.411609 30:-0.05802 31:-0.762804 32:0.30358 33:-0.664352 34:0.726171 35:0.060373 36:-0.596409 37:-1.277276 38:0.194633 39:0.074172 40:-0.247087 41:0.380304 
0 0 0 0 0 0 0 0 0 0.05380052343578202 0 0 0 0 0 0 0 0 0 0 0 0 0 0 0 0 0.3971571006130446 0 0 0 0 0 0 0 0 0 0 0 0 0 0 1:3.076602 2:-1.638433 3:1.918144 4:2.475305 5:-0.077883 6:0.13007 7:1.259792 8:0.292143 9:2.651445 10:0.448927 11:0.304622 12:0.772158 13:-1.933535 14:-0.914979 15:-1.075875 16:0.414621 17:1.442012 18:0.3887 19:-1.42003 20:-0.029469 21:0.65481 22:-0.36396 23:-0.114095 24:1.270812 25:0.332923 26:2.563869 27:0.266763 28:0.189879 29:-0.368261 30:-0.014633 31:0.733209 32:0.751346 33:-0.341879 34:1.831926 35:0.860598 36:-0.726223 37:0.297815 38:-1.113167 39:-0.468286 40:1.036409 41:0.113702 
0 0 0 0 0 0 0 0 0 0 0 0.03268288816399198 0 0 0 0 0 0 0 0 0 0 0 0 0 0 0 0 0 0 0 0 0 0 0 0 0 0 0 0 0 1:3.553071 2:-1.328735 3:1.405613 4:1.762613 5:0.57003 6:0.041142 7:0.123661 8:-1.442502 9:3.354876 10:0.663212 11:1.018164 12:-0.38511 13:-1.402317 14:-0.431514 15:-0.462689 16:1.112917 17:1.119109 18:-0.213015 19:-2.65376 20:1.386955 21:1.88809 22:0.474833 23:1.365872 24:3.572458 25:1.259342 26:2.803778 27:-0.251448 28:-1.277612 29:0.21674 30:0.922358 31:1.931082 32:0.302311 33:-1.229018 34:1.554867 35:2.979636 36:1.915874 37:-0.517011 38:0.564024 39:1.255852 40:-0.555678 41:1.328101 
0 0 0 0 0 0 0 0 0 0.216245352102505 0 0 0 0 0 0 0 0 0 0 0 0 0 0 0 0 0 0 0 0 0 0 0 0 0 0 0 0 0 0 0 1:3.634278 2:-1.437134 3:3.106721 4:1.322978 5:1.596399 6:-0.265277 7:-0.132305 8:-1.036634 9:2.540379 10:-1.709528 11:1.127866 12:-0.545578 13:-1.804486 14:0.803414 15:0.012019 16:-0.10194 17:2.557378 18:1.634265 19:-1.888017 20:1.353466 21:1.732188 22:0.359575 23:0.029253 24:3.302336 25:0.119569 26:1.044573 27:-0.054342 28:-1.234332 29:-0.686329 30:-0.380254 31:1.223671 32:1.625284 33:-2.396027 34:1.669527 35:2.038055 36:1.380585 37:-0.581048 38:-0.549807 39:1.311758 40:-1.642824 41:1.934938 
0 0.1067063191622186 0 0 0 0 0 0 0 0 0 0 0 0 0 0 0 0 0 0 0 0 0 0 0 0.1851582915618928 0 0.393161287410869 0 1.038853107541997 0 0 0 0 1.361810446304226 0 0 0 0 0 0 1:4.714228 2:-1.247343 3:1.729862 4:1.816093 5:0.157317 6:-0.251182 7:-0.003043 8:-0.79485 9:2.855619 10:0.138518 11:1.729024 12:-1.112093 13:-0.834961 14:0.313232 15:-0.548036 16:-0.7495 17:1.640372 18:1.141715 19:0.520281 20:1.444975 21:2.1586 22:-0.753943 23:1.590198 24:2.270785 25:0.92937 26:-0.429818 27:0.295006 28:-0.516721 29:0.535427 30:-0.182712 31:-0.173329 32:-0.859279 33:0.850023 34:1.133774 35:0.925015 36:1.432853 37:0.520915 38:0.245059 39:-0.002297 40:-0.876446 41:0.594303 
0.1244800734561448 0 0 0.0961243183433181 0 0.214757006717322 0 0.1019978717839779 0.04607253032561314 0 0 0.14595477263103 0 0.05433967406141774 0.03799745923794971 0.06061555601940131 0 0.2320057552851454 0 0 0 0 0 0.1222122668603608 0 0 0 0 0 0.01698028545294669 0.127215556947723 0.2109708365994169 0 0.06783801837983142 0 0.3645619903203016 0 0.4863003752667763 0.03629048220399269 0.1567656361280631 0 1:2.84846 2:-1.712644 3:1.505377 4:0.250927 5:0.241273 6:0.6894 7:0.339794 8:-1.150515 9:1.326682 10:-0.550084 11:1.632675 12:-1.857491 13:-2.039948 14:-0.257949 15:-1.056599 16:0.112213 17:1.449798 18:-0.478627 19:-0.789633 20:0.458845 21:1.279634 22:0.132982 23:-1.305716 24:2.864728 25:1.838908 26:0.085941 27:-0.608707 28:-1.789933 29:0.219915 30:0.65044 31:-0.88167 32:-0.150869 33:-1.341438 34:1.170986 35:2.398309 36:1.550476 37:-1.022609 38:1.093932 39:-1.717129 40:-0.664624 41:1.508597 
0.1799149040992571 0.4308387214573654 0 0.08570134787968302 0 0.125145089314621 1.638948008750892 0.1014087210324064 0 0.3340324233075997 0 0.01085165915437362 0 0 0 0.1045735218077729 1.184712070434924 0 0.3324827078850449 0 0.5201930005546858 0.6560117901719226 0.2047579799302857 0.5714350565888137 1.004037806581332 0.8711132012254372 0.6468375161181724 2 0 1.199984120704275 0.3186746774747254 0.2027870009488986 1.206991105726366 0.1247689202586988 2 0 0 0 0.1169887433552909 0 0.9186664709856103 1:4.497551 2:-1.984274 3:2.426651 4:1.741582 5:-0.191195 6:0.346128 7:0.312982 8:0.452068 9:1.58696 10:1.038433 11:0.734291 12:-0.120418 13:-0.769215 14:-1.426353 15:0.361687 16:0.537893 17:0.359347 18:2.254266 19:-1.727273 20:1.294946 21:0.66875 22:-0.263734 23:0.169135 24:0.369263 25:-0.738246 26:0.364652 27:0.511077 28:0.418633 29:-0.062239 30:0.171597 31:0.372135 32:0.670141 33:-0.642743 34:0.367437 35:0.854261 36:-0.835521 37:-1.06377 38:0.338122 39:1.51929 40:-0.562891 41:0.346395 
0 0 0 0 0 0 0 0 0 0 0 0 0 0 0.01191601457702861 0.01484986112425059 0 0 0 0 0 0 0 0 0 0 0 0 0 0 0 0 0 0.01597479587423402 0 0 0 0 0 0 0 1:3.296111 2:-1.7368 3:1.612763 4:1.325558 5:0.312275 6:0.805964 7:-0.091043 8:-0.250362 9:3.205784 10:-0.107842 11:1.862033 12:-0.394258 13:-1.215358 14:0.599989 15:-1.759776 16:0.807945 17:1.921012 18:0.491093 19:-2.035347 20:1.922448 21:2.800823 22:1.528137 23:0.632638 24:5.217219 25:1.889877 26:1.969375 27:-0.275306 28:-1.613811 29:-0.162136 30:2.081166 31:1.164631 32:0.175161 33:-1.867109 34:0.682039 35:2.711092 36:2.454137 37:-0.037145 38:0.564351 39:-0.312883 40:-0.171653 41:0.656686 
0.03620492807081797 0.4461485077589076 0 0.1591590330670299 0 0 0 0.1867113218396514 0 0 0 0.1450103310895131 0 0 0.1735841363838427 0.1723204806278033 0 0.0724463329517589 0 0 0 0.06639413099978207 0 0.2153933639338296 0 0 0 0.2814374484532238 0 0 0.00842533149337105 0.1016523157603435 0.9993893660126115 0.186775394860219 0.6278742437688886 0 0 0 0.160106562541805 0.1365563890745257 0 1:4.487085 2:-2.069829 3:2.078686 4:1.632168 5:0.57122 6:1.610768 7:0.193872 8:1.347705 9:2.481615 10:0.926122 11:1.349723 12:-1.247328 13:-0.574482 14:1.175815 15:1.210929 16:0.308091 17:1.412708 18:1.254637 19:-1.316571 20:1.943882 21:0.186763 22:1.216919 23:1.671935 24:3.038996 25:0.082002 26:-1.032296 27:-0.00878 28:-0.727766 29:-0.639719 30:0.559836 31:1.285985 32:0.542359 33:-1.717972 34:-0.307757 35:1.077219 36:2.048355 37:0.293799 38:1.484153 39:-1.401758 40:1.442739 41:-0.306628 
0.2511025808489484 0 0.2169777800260106 0.6002416805317888 0.2578131597569754 0.264997053151289 0 0.580216003150679 0.4027256634357904 0.10953343726161 0.5052481124153665 0.576960828533628 0.06660030695438345 0.3491639210254855 0.5930249449055832 0.5199879310576094 0 0.3256252763910551 0 0.009049110003144192 0 0.1260706499610011 0.1467843691392487 0.02113467112860411 0 0 0 0 0 0 0 0.3742862885145511 0 0.5481666046601066 0 0 0.4544708529016796 0 0.5237156953166417 0.4842602544560054 0 1:3.243955 2:-1.819617 3:1.724716 4:2.42445 5:0.806562 6:1.416509 7:-0.69754 8:-1.468232 9:3.759512 10:-0.786974 11:2.034333 12:-0.913107 13:-1.923499 14:0.079764 15:-1.875032 16:-0.007895 17:1.397594 18:2.055209 19:-1.050554 20:1.995531 21:2.856179 22:1.095652 23:1.11855 24:4.500137 25:1.210537 26:1.995216 27:-0.369447 28:-1.339034 29:-0.245171 30:1.189788 31:2.736975 32:2.488678 33:-2.910322 34:0.997068 35:2.991693 36:1.310802 37:-0.743856 38:1.054872 39:0.273468 40:-1.092294 41:0.258813 
0 0 0 0 0 0 0 0 0 0 0 0 0 0 0 0 0 0 0 0 0.3371458896236539 0 0 0 0 0 0.6328876464680218 1.604021943365987 0 0 0.2448988663701288 0 0 0 0 0 0 0 0 0 0 1:3.316625 2:-1.811336 3:1.836002 4:1.509144 5:-0.741265 6:0.79313 7:0.366895 8:0.324064 9:2.07575 10:-0.408246 11:1.48946 12:0.29324 13:-1.376006 14:0.078732 15:-0.889325 16:0.564088 17:0.64671 18:0.485415 19:-0.58526 20:0.141014 21:0.808298 22:-0.545922 23:-0.976595 24:1.268841 25:0.488231 26:1.605032 27:0.624822 28:-0.999913 29:-0.392198 30:1.304257 31:-0.448223 32:0.5002 33:-1.211558 34:1.472201 35:0.197231 36:1.089667 37:-0.337027 38:-0.103157 39:0.715207 40:-1.508599 41:0.858263 
0 0 0 0 0 0 0 0 0 0 0 0 0 0.336377282885213 0 0 0 0 0 0 0.1091329382746866 0 0 0 0 0 0 0.7446504288080045 0 1.323628586054525 0 0 0 0 0 0.9866912552950091 0 0 0 0 0 1:3.405848 2:-2.687216 3:0.759217 4:1.555057 5:-0.426751 6:1.024784 7:0.734271 8:0.015461 9:2.690706 10:-1.141843 11:0.418641 12:-0.983834 13:-1.547077 14:0.934474 15:-0.054837 16:-0.092255 17:1.137979 18:1.11634 19:0.017177 20:-0.498032 21:1.634464 22:0.339698 23:0.78881 24:1.96128 25:0.544176 26:1.939944 27:-0.451308 28:0.065641 29:0.338568 30:0.303117 31:0.42397 32:-0.246148 33:-0.824629 34:-0.292031 35:1.859616 36:0.127489 37:-0.696188 38:0.242663 39:0.697838 40:0.336612 41:1.336219 
0.243213040809123 0 0.9454105230093371 0.5892250871863671 1.640257585374462 1.119482382732667 0.6684411164635633 0.4613062681219466 0.8690759908257449 0.5896149103811905 0.8712040729565488 0.5845418757340536 0.6726912505644256 0.8189179994997285 0.5696693844249572 0.3926046384622585 1.62127746138481 1.083660838313875 2 1.402885556674238 1.589058272319716 1.460095470583229 1.08612554320827 0.670832860896698 0.9150954839088108 0.5570335454490913 1.15587536718488 0.8493193330112837 0.5635110819686371 0 0.206899664105238 0.6737710876740478 0 0.4142020713738169 0 2 0.7657099427678044 0.4243405921872341 0.5327081514209854 0.5293726414863767 1.116458463017887 1:2.765259 2:-2.106948 3:1.27654 4:-0.643494 5:0.641155 6:0.224056 7:-0.945869 8:0.360893 9:0.298197 10:-0.603879 11:-0.580368 12:0.661093 13:-2.475972 14:0.605257 15:-0.060763 16:-0.525112 17:0.751801 18:0.638185 19:-1.807422 20:0.881532 21:-0.357159 22:1.169912 23:-1.284453 24:0.521726 25:1.78573 26:1.247475 27:0.46286 28:-0.292943 29:-0.651695 30:0.504734 31:-0.206029 32:2.527968 33:-0.678757 34:0.754225 35:1.408496 36:1.857759 37:-0.366679 38:-0.319908 39:-0.213078 40:0.842943 41:0.520996 
0 0.3980779561362701 0 0 0 0 0.04322052257123116 0 0 0 0 0 0.1957681984003818 0 0 0 0 0 0 0.5909511835067323 0 0 0.5624094243822273 0 0 0 0.05584244371058239 0 0.6723807640401746 1.002081109958425 0 0.06742468487329595 0 0 0 0 0 0 0 0 0 1:3.603723 2:-1.400065 3:1.559727 4:1.591824 5:-0.630625 6:-0.307693 7:0.960674 8:-0.011682 9:1.827048 10:0.363747 11:1.422149 12:0.454737 13:-1.216392 14:-0.757725 15:-0.162541 16:0.777052 17:2.656619 18:-0.228188 19:-1.11459 20:0.82123 21:1.207457 22:1.731512 23:1.524608 24:0.610145 25:0.017741 26:-0.831832 27:-0.400648 28:-0.550592 29:0.009978 30:1.289806 31:-0.25868 32:0.537033 33:0.280954 34:1.132077 35:1.515737 36:0.151374 37:-1.139428 38:0.547079 39:-0.250838 40:-0.616375 41:0.263695 
0 0 0 0 0 0 0 0 0 0 0.1266862949626935 0 0 0 0 0 0 0 0 0 0 0.1555606069259604 0 0 0 0 0 0 0 0 0 0 0 0 0 0 0 0 0 0 0 1:4.024524 2:-2.579541 3:1.253818 4:0.575135 5:-0.47252 6:1.810152 7:-0.102932 8:0.021349 9:2.388486 10:-0.409751 11:1.098667 12:-0.396244 13:-1.946614 14:0.378377 15:-1.256154 16:-1.23724 17:2.20818 18:1.876278 19:-0.496629 20:-0.521804 21:0.228894 22:0.744723 23:1.099273 24:2.412815 25:1.598542 26:-0.748886 27:1.495679 28:-0.283205 29:0.113033 30:1.354806 31:0.13132 32:-0.322825 33:-0.381239 34:0.035569 35:1.086056 36:1.364589 37:0.016225 38:0.241181 39:-0.93783 40:0.313393 41:-0.545938 
0 0 0 0 0 0 0 0 0 0 0 0.038427336701172 0 0 0 0 0 0 0.1918510923962669 0 0 0 0 0 0 0 0.6499419090023684 0 0 0 0 0.01179166633624413 0 0 0 0 0.1006361499579078 0 0 0 0 1:3.338915 2:-2.02608 3:2.615918 4:0.641937 5:1.033059 6:-0.246612 7:-0.661476 8:-0.306747 9:3.75031 10:-0.525374 11:0.866668 12:0.051764 13:-0.190109 14:0.260239 15:1.066531 16:1.339717 17:2.602358 18:0.476068 19:-1.671479 20:1.520035 21:1.022521 22:0.489078 23:1.00051 24:3.218662 25:-0.066386 26:0.225739 27:0.187926 28:-1.3414 29:-0.973506 30:0.603128 31:0.525869 32:1.846254 33:-2.123223 34:2.003514 35:0.476007 36:-0.117992 37:-0.070986 38:0.050077 39:-1.235154 40:-0.169014 41:-0.360271 
0 0 0 0 0 0 0 0 0 0 0 0 0 0 0 0 0 0 0 0 0 0 0 0 0.1221849966386873 0 0 0.9655902044700012 0 0.6609161027447648 0 0 0 0 1.459448120344392 0 0 0 0 0 0 1:4.32687 2:-1.284462 3:1.87013 4:1.518234 5:-0.107747 6:0.671777 7:0.577891 8:1.066025 9:1.824608 10:0.734258 11:1.138817 12:-1.468809 13:-0.856923 14:0.679915 15:-0.206774 16:0.085551 17:1.745911 18:1.45577 19:-1.429808 20:1.373679 21:0.789748 22:1.314666 23:0.926631 24:1.158941 25:-0.452473 26:0.852122 27:-1.519348 28:0.164626 29:-0.742294 30:0.603703 31:0.100064 32:1.253109 33:0.146853 34:-0.02932 35:1.596281 36:0.777482 37:-0.83936 38:0.06549 39:-0.020924 40:0.292075 41:-1.424191 
0 0 0 0 0 0 0 0 0 0 0 0 0 0 0 0 0 0 0 0 0.6733595534546145 0 0 0 0 0 0 0 0 0.8500590438414176 0 0 0 0 0.05993802585126132 0 0 0 0 0 0 1:3.118352 2:-2.000619 3:2.383882 4:1.512054 5:0.766718 6:0.463333 7:0.393653 8:-0.305412 9:1.949223 10:-0.279403 11:1.0604 12:0.026715 13:-1.717801 14:-0.378123 15:0.152709 16:0.948729 17:1.224442 18:-0.276426 19:-0.686985 20:1.002208 21:1.818251 22:0.157904 23:0.891061 24:1.898272 25:0.596934 26:1.745546 27:0.759627 28:-0.085929 29:0.208107 30:0.896699 31:0.490351 32:0.149691 33:-1.998482 34:-0.229203 35:-0.34169 36:0.216999 37:-1.585107 38:0.853969 39:-1.780886 40:0.386415 41:-0.967235 
0 0 0.2534545102075216 0.1102412896362595 0.324201859182137 0.2838754124806387 0 0.1577714857637263 0 0 0.2509164294544158 0.1812566977858699 0 0.1585563185491815 0.1883983054228673 0.09921267593948085 0.09410347740905685 0.7500806414150147 0 0.7084875819891358 0.06329654536360568 0.3887498188435184 0 0.1556253020595302 0 0 0 1.331954719270126 0.2387426480417278 0 1.768161129726919 0.08223426275896976 0 0.09224592480654469 1.066406194433295 0.9208639723006328 0 0 0.145460992881962 0.17222060008816 0.8496330880734496 1:2.428737 2:-2.332603 3:1.957024 4:0.232931 5:0.397533 6:2.227423 7:0.570355 8:0.413345 9:1.246624 10:-1.128595 11:1.165005 12:-0.342759 13:-2.464066 14:1.542092 15:-0.350048 16:0.072867 17:3.33348 18:0.075742 19:-0.837432 20:-0.546324 21:1.067963 22:-0.269594 23:-0.561487 24:1.932708 25:-0.698793 26:1.159228 27:-0.817498 28:-0.668666 29:0.773046 30:-0.120443 31:1.771952 32:-0.68919 33:-0.651796 34:0.96675 35:1.275966 36:-0.140427 37:-0.681371 38:-0.376106 39:-0.663333 40:1.515643 41:0.310441 
0.2300120402492863 0.4089731222976314 0.3420553034358136 0.4298694911706044 0.311717444739726 0.5028757904033296 0.4840309420646961 0.3683935106470763 0.5542524934848599 0.5401241689117655 0.2131209468044794 0.3670905186978308 0.2712094738362325 0.3064208115536468 0.4218178258688907 0.3184343258509734 0.9724649458421507 0.152505457365034 1.261556773448262 0.770230454966064 1.150192799204184 0.2808598848310485 0.3779413862487241 0.386200460041761 0.2070041741986548 0.2943818631237116 0 0.9547492982553217 0 0 0.1480777458677762 0.4271206629781975 0.5200236808150784 0.3429345997252187 2 0.400258914627654 0.3598309266424826 0 0.3452515000215553 0.4078328209779736 0 1:3.514904 2:-1.765061 3:2.190628 4:1.553135 5:1.097012 6:0.632605 7:0.773108 8:0.254915 9:1.979676 10:0.306182 11:1.161167 12:0.350786 13:-0.38323 14:0.568883 15:0.483721 16:-0.693452 17:1.845374 18:1.151124 19:0.252601 20:0.072422 21:1.367446 22:1.018589 23:1.35818 24:1.36432 25:0.139401 26:0.015412 27:-0.970175 28:-2.337585 29:0.987767 30:-0.981619 31:1.306731 32:-1.158975 33:1.423847 34:1.237986 35:0.621473 36:-0.631166 37:-0.345469 38:-1.315427 39:-0.906059 40:1.409565 41:0.575966 
0 0 0.3174988335018725 0 0.5851755855771039 0 1.242394972542423 0 0.00859703253933961 0 0 0 0.5001198071676416 0.401292306578526 0 0 0.3148682900498484 0 0 0.8580078659182635 0.8599522605150397 0.205050790652467 0.6024095865596946 0.2484630510041815 2 0 0 0 0.6882297033289831 1.898526207021721 0.389920108815851 0 0 0 0 1.118183632835252 0 0.6045512265746812 0 0 0.731282981516304 1:3.886694 2:-1.603031 3:0.072006 4:0.610669 5:-0.872929 6:0.77858 7:0.044721 8:-0.374644 9:0.94079 10:-1.264432 11:0.974516 12:0.202397 13:-1.231437 14:-0.363227 15:-0.21436 16:0.704545 17:1.42899 18:1.657818 19:-0.659816 20:1.419935 21:0.862898 22:2.382767 23:0.065594 24:1.542147 25:0.037954 26:0.333461 27:0.59039 28:-0.646148 29:-0.744383 30:-0.837014 31:0.024462 32:0.500688 33:0.246075 34:0.794958 35:1.186155 36:2.347443 37:-0.301695 38:0.487616 39:-0.249474 40:-0.365292 41:-0.026576 
0 0.02974783312635867 0.6452898676019391 0.03408166941528093 0.2902251864270257 0.05662965709342737 2 0 0.2304621411662384 0 1.058363915984683 0 0.1450178190512527 0 0 0 0.8751576111989483 0.5483774310747673 2 0 0 0.1608017235578617 0.8942507446434114 0.197056719912512 0.8125921308303388 1.244982965642589 1.056566349918728 0 0.7655834116882447 0 0 0 0.9201193432001633 0 0.1312946560662821 0 0.2217886463122842 1.062540133780679 0.006568786878895109 0 0 1:3.069618 2:-1.783237 3:2.239885 4:1.00626 5:1.270915 6:0.517448 7:-1.330097 8:-0.350517 9:3.101349 10:0.644968 11:0.87715 12:0.588879 13:0.598547 14:0.16577 15:0.840952 16:-1.007644 17:1.344747 18:1.340275 19:-0.35787 20:1.506022 21:0.815053 22:0.576442 23:0.027595 24:0.735732 25:0.175503 26:-0.854132 27:-0.022518 28:-0.861132 29:0.411198 30:0.278512 31:0.199693 32:-0.359187 33:-0.058446 34:1.885049 35:0.427291 36:0.235719 37:-0.865225 38:0.374041 39:-0.28878 40:1.090448 41:1.013489 
0 0 0 0 0 0 0 0 0 0 0 0 0 0 0 0 0 0 0.8110621903695081 0 0 0 0 0 0 0 0 0 0 0 0 0 0 0 0 0 0 0 0 0 0 1:3.595375 2:-1.863906 3:2.181191 4:1.139111 5:0.648423 6:0.742159 7:-0.899317 8:0.871009 9:3.223619 10:-0.172455 11:0.3408 12:-0.704823 13:-1.053946 14:0.512785 15:-0.919474 16:0.959622 17:1.695248 18:1.330571 19:-0.130592 20:0.901377 21:0.961221 22:1.518501 23:0.287307 24:2.279647 25:0.973887 26:0.749094 27:1.332009 28:-0.226266 29:-0.957172 30:2.2087 31:-0.486315 32:0.448614 33:-0.51763 34:-0.070897 35:0.870029 36:1.818635 37:-0.904978 38:1.20218 39:-0.28543 40:-0.463708 41:-0.252985 
0.6747070017495016 1.382038821835597 0 0 0 0 0 0 0 0 0 0 0 0 0 0 0 0 0 0 0 0 0 0 0 0 0 0 0 1.715279490568035 0 0 0 0 0 0 0 0 0 0 0 1:4.419314 2:-0.478172 3:1.117485 4:2.661887 5:-1.179093 6:-0.083664 7:1.682477 8:-0.643158 9:2.810139 10:0.390784 11:1.3567 12:-0.576179 13:-1.538386 14:0.092221 15:0.156939 16:0.494369 17:1.621541 18:0.280716 19:-1.678128 20:0.899942 21:1.025829 22:1.499917 23:1.309259 24:1.100795 25:-0.57491 26:1.571627 27:0.237925 28:-0.668144 29:0.235527 30:-0.799095 31:1.470471 32:0.294604 33:-1.411702 34:0.841213 35:0.881428 36:0.450134 37:-0.938434 38:-0.77784 39:1.149492 40:0.38082 41:0.896238 
0 0 0 0 0 0 0 0 0 0 0 0 0 0 0 0 0 0 0 0 0 0 0 0 0 1.231139643364578 0 0 0 0 0 0 0 0 0.3100309186445617 0 0 0 0 0 0 1:3.399137 2:-1.980544 3:3.213409 4:0.890628 5:0.079251 6:0.455658 7:-0.245909 8:0.738564 9:2.112891 10:0.61765 11:0.929084 12:0.096387 13:-1.204242 14:0.346517 15:-0.371476 16:1.048187 17:0.77259 18:1.17801 19:-1.274316 20:0.966077 21:0.029054 22:0.010652 23:0.028093 24:1.873362 25:0.64107 26:0.481304 27:0.137906 28:-0.030549 29:-0.02631 30:1.118757 31:1.238406 32:-0.009667 33:-0.291765 34:1.641336 35:1.533396 36:0.668867 37:-0.022395 38:0.642202 39:-0.299855 40:1.196228 41:-0.452327 
0 0 0 0.009654605104926746 0.8402251266546512 0.6661622622497154 1.659431312910832 0 0.2715383361473296 0.3055286946899137 0.08728116979107733 0 0.5750180421649271 0.1312083942647012 0 0 1.715122975243959 0.2080378689834028 0.7014233237826794 2 2 2 0.5486288711927053 0 0.1551068165962232 0.8366486232465967 0.9091059518248666 2 0.9237122850103644 0 0.8442738657110734 0.3354974636923744 0 0 0 1.228910342104246 0.3006728307617262 0.3764160248386078 0 0.1037994120092584 0.346952387248104 1:2.568539 2:-3.036497 3:2.08121 4:-0.411024 5:0.019531 6:0.059162 7:-0.018759 8:0.916756 9:0.691523 10:0.087724 11:0.64572 12:0.056095 13:-1.997011 14:-0.129814 15:-0.533139 16:-0.042727 17:1.551287 18:0.592678 19:-1.197585 20:0.148673 21:0.379591 22:-0.157013 23:0.460742 24:1.217199 25:1.446301 26:-0.090075 27:0.984207 28:0.364096 29:-0.935469 30:0.222144 31:0.596115 32:-0.381122 33:-0.523183 34:0.316097 35:0.10023 36:1.093906 37:0.157491 38:0.1758 39:1.129972 40:1.191328 41:0.570229 
0 0 0 0 0 0 0 0 0 0.3321920230009844 0 0 0 0 0 0 0 0.2142715442010439 0 0 0 0 0 0 0 0 0 0 0 0 0 0 0 0 0 0 0 0 0 0 0 1:2.633434 2:-1.889234 3:2.641798 4:0.34184 5:1.488752 6:1.020702 7:0.432172 8:-0.35121 9:1.454595 10:-0.792527 11:0.277693 12:0.301914 13:-1.698249 14:-0.202666 15:0.953888 16:-0.286938 17:2.370668 18:1.496059 19:-1.296972 20:0.319822 21:1.418212 22:0.79971 23:1.274885 24:2.822295 25:0.448628 26:-0.383271 27:0.327494 28:-0.95777 29:0.213671 30:0.742432 31:0.773916 32:-0.210466 33:-1.405157 34:0.933748 35:-0.071873 36:0.614327 37:-2.114185 38:0.429706 39:0.1878 40:-0.063341 41:0.42945 
0 0 0.2259874043498103 0 0.0353484960391041 0.2549848141479608 0 0 0.3159130648894522 0 0 0 0.5151589283688839 0.2890255438311091 0 0 0 0 0 0 0 0 0 0 0 0 0 0 0 0 0 0.01367323168615601 0 0 0 0.4250318435139537 0 1.237786612212852 0 0 0 1:2.998465 2:-2.281615 3:1.141135 4:1.422464 5:-0.526341 6:0.359997 7:0.673206 8:-0.508801 9:3.192722 10:0.097427 11:2.457505 12:-1.093435 13:-2.481143 14:0.25235 15:-0.132795 16:0.563996 17:0.709218 18:0.549641 19:-1.051448 20:0.112697 21:1.783233 22:-1.026686 23:1.158074 24:3.33016 25:1.208341 26:-0.273437 27:0.420859 28:0.238572 29:0.018715 30:1.303174 31:1.640404 32:0.062116 33:-1.41977 34:0.912411 35:1.460314 36:-0.130551 37:1.250545 38:0.351081 39:-0.696526 40:-0.653122 41:-0.571692 
0 0 0 0 0 0 0 0 0 0 0 0 0 0 0 0 0 0 0 0 0 0 0 0 0 0 0 0 0 0 0 0 0 0 0.07962829958157674 0 0 0 0 0 0 1:3.56531 2:-2.093355 3:2.145531 4:1.38357 5:-0.036772 6:1.698483 7:0.515661 8:1.306398 9:2.610624 10:-0.191486 11:-0.00343 12:0.362656 13:-1.949343 14:-0.154039 15:-0.102553 16:-0.083794 17:1.812309 18:1.367172 19:-1.598896 20:-0.469065 21:2.795929 22:0.333967 23:0.776381 24:3.07836 25:0.827475 26:2.712534 27:0.665715 28:-0.772519 29:-0.407102 30:0.855746 31:1.90384 32:-0.389453 33:-1.365676 34:1.899538 35:0.817079 36:-0.741052 37:-0.529954 38:-0.838212 39:-0.311093 40:0.629607 41:0.670474 
0 0 0 0 0 0 0 0 0 0 0 0 0 0 0 0 0 0 0 0 0 0 0 0 0 0 0.8544510714037581 0 0 0 0 0 0.1182071244474879 0 1.072744768300319 0 0 0 0 0 0 1:4.356633 2:-2.1246 3:3.28587 4:1.038052 5:0.487974 6:0.033748 7:0.345412 8:0.837689 9:3.191467 10:0.267928 11:0.811894 12:0.678134 13:-1.38456 14:-0.862027 15:-0.408786 16:0.590278 17:1.378465 18:0.647037 19:-1.371693 20:0.079844 21:0.369644 22:1.140964 23:0.97833 24:1.088888 25:0.757673 26:0.437234 27:1.056364 28:-0.163383 29:0.014285 30:0.58937 31:0.88452 32:0.17591 33:-2.184359 34:1.664074 35:0.526866 36:-0.518981 37:-1.058776 38:-0.029944 39:0.928512 40:1.205247 41:0.727298 
-0 0.9013161601281968 0 0 0 0 0 0 0 0 0 0 0 0 0 0 0 0 0 0 0 0 0 0 0 0 0 0 0 0 0 0 0 0 0 0 0 0 0 0 0 1:9.648266 2:6.7535 3:-0.647121 4:5.482952 5:0.064075 6:-1.641255 7:4.06645 8:-3.220859 9:-0.045364 10:1.201874 11:1.290097 12:-0.266719 13:-1.509942 14:-0.392087 15:1.15498 16:-1.296904 17:-1.49051 18:0.424654 19:-0.574287 20:-0.453033 21:0.668008 22:1.495487 23:-0.050644 24:-1.567462 25:0.570809 26:0.302937 27:-0.80345 28:-0.41142 29:-0.819665 30:-0.146999 31:-0.954753 32:1.026449 33:-0.698884 34:-0.854983 35:-0.329632 36:-0.13799 37:0.173479 38:-1.160761 39:0.096206 40:-1.199351 41:-0.98773 
-0.4623493013289848 2 0.06239435543518702 0.02232041448381282 0.02253661522224687 0.03006928949575468 0.1681388276776055 0.01811119432502628 0.01710115931503235 0.05809777282924933 0.006948237047248774 0.02122900775143434 0.1275344218197728 0.05991738595394436 0.0176304071626348 0.0132094278724277 0 0.02197354141596099 0.1891238054949 0.02904217515438032 0.1288945885302406 0.04436285654310526 0.1030595511272799 0 0 0.07176627563985198 0.2811929044825715 0.3157460006838035 0.01302864608903909 0.1340790983822553 0 0.06202871110863644 0.2099918752702373 0 0.6722243362762591 0.01968994874245231 0.04504061526416883 0.02280402030161642 0.01337216567429397 0.02292663268998144 0.03374724517307171 1:9.172686 2:5.794659 3:0.194965 4:4.825375 5:0.20123 6:-1.33273 7:3.609567 8:-2.150884 9:1.655349 10:1.128939 11:1.616638 12:-0.845236 13:-1.226495 14:-1.529125 15:0.481183 16:-0.214357 17:-1.255359 18:-0.042438 19:-0.583384 20:0.265004 21:0.496669 22:0.691778 23:1.729748 24:-0.821487 25:-0.062144 26:0.552073 27:-0.479813 28:0.07404 29:0.341178 30:0.274648 31:-0.080164 32:0.293165 33:0.213533 34:0.296296 35:-0.095376 36:-1.083351 37:-0.363482 38:-0.478148 39:1.238223 40:0.295721 41:0.725656 
-0 1.200207083409958 0 0 0 0 0 0 0 0 0 0 0 0 0 0 0 0 0 0 0 0 0 0 0 0 0 0 0 0 0 0 0 0 0 0 0 0 0 0 0 1:9.46172 2:7.642572 3:-0.179179 4:5.003806 5:0.191696 6:1.319813 7:4.170495 8:-4.263368 9:-2.422955 10:1.427643 11:0.682652 12:0.187615 13:-1.253266 14:-0.523894 15:1.395385 16:-0.773068 17:-0.358402 18:-0.109914 19:-0.282217 20:-0.371138 21:-0.386061 22:-0.589637 23:0.831707 24:-0.164746 25:-1.209487 26:0.744368 27:0.199231 28:0.258311 29:0.81515 30:-0.510148 31:0.822783 32:0.955444 33:1.396897 34:1.122559 35:0.429806 36:-0.273666 37:0.646409 38:-0.42432 39:-0.332481 40:0.382142 41:-0.216644 
-0 2 0 0 0 0 0 0 0 0 0 0 0 0 0 0.01641477989893134 0 0.00847971555065955 0 0 0 0 0 0 0 0 0 0.2561766511845482 0 0.2677942770334757 0 0 0 0 0.2432295201913008 0 0 0 0 0 0 1:9.147559 2:6.097716 3:0.561439 4:5.235714 5:0.501518 6:0.011137 7:3.833138 8:-3.293286 9:-0.00765 10:0.872543 11:1.030791 12:-0.309004 13:-1.980525 14:-0.151271 15:-0.07029 16:-0.405672 17:-0.380104 18:-0.173449 19:0.069894 20:0.000535 21:1.023836 22:-0.040027 23:0.938542 24:-0.178788 25:-0.832046 26:0.728675 27:0.662725 28:1.375514 29:1.072336 30:-1.241394 31:-0.964548 32:-0.868812 33:1.210988 34:-1.202662 35:-0.612863 36:-0.023712 37:0.465994 38:0.310106 39:-0.973889 40:0.25084 41:0.444216 
-0 2 0 0 0 0 0 0 0 0 0 0 0 0 0 0 0 0 0 0 0 0 0 0 0 0 0 0 0 0 0 0 0 0 0 0 0 0 0 0 0 1:8.100299 2:8.646908 3:-0.834845 4:4.302168 5:0.805904 6:-0.891606 7:3.733014 8:-2.578785 9:1.164899 10:0.650687 11:2.210902 12:-0.785039 13:-1.046849 14:-0.966086 15:0.04564 16:-0.670564 17:-1.711025 18:-0.16567 19:0.731175 20:-0.085273 21:-0.58049 22:0.067389 23:0.361786 24:-1.555698 25:-0.816315 26:0.623081 27:0.077217 28:-0.326962 29:-0.825639 30:-0.186281 31:-0.887906 32:0.076198 33:0.069621 34:-1.308766 35:0.256845 36:-0.371822 37:-0.740767 38:-0.240785 39:0.908348 40:-0.786504 41:0.175042 
-0 0 0 0 0 0 0 0 0 0 0 0 0 0 0 0 0 0 0 0 0 0 0 0.26077166570368 0.174346953291668 0 0 0.2172332788977138 0 0.292433422935284 0 0 0 0 0 0 0 0 0 0 0 1:8.743733 2:5.523088 3:0.033222 4:5.376626 5:-0.143561 6:-0.049804 7:3.597588 8:-2.743408 9:-1.866146 10:1.393752 11:0.212091 12:-1.595433 13:-1.44531 14:-0.294679 15:0.205312 16:-0.534537 17:-2.227332 18:-0.576892 19:0.688201 20:-0.920069 21:0.61731 22:0.305202 23:-0.725131 24:-0.799514 25:0.111001 26:1.158513 27:-1.695217 28:1.317476 29:-0.784237 30:-1.05734 31:0.007024 32:0.815293 33:0.154408 34:-1.639028 35:-1.09512 36:-0.139194 37:-1.059374 38:-0.533414 39:1.194699 40:-0.323665 41:-1.322134 
-0.767327815884859 0.8094521843319826 0.567032563950663 0.6757979000008253 0.6402418870277664 0.6692654762170942 0.9459086122275273 0.6490311975225429 0.6541471425314619 0.4647094058169707 0.6738379668802708 0.6304081941023587 0.4905151972277707 0.6495719220732201 0.6571061228787151 0.5712951885626757 0.7651860038854019 0.6588265126616257 0.7224246999849663 0.7565634557310323 0.9125879959897314 0.7559134570777469 0.6278269576914457 0.6528607563972673 0.7677097826143245 0.9505983117899385 0.5955608207000691 1.056065560795692 0.825694151152111 0.9118892204884518 1.11459425083829 0.6956318394724668 0.7630678594524367 0.566822694249159 0.8901644086839441 0.7532793439868919 0.615251163410116 0.6538181582958376 0.5576031749669171 0.6090852146201272 0.6275346871645693 1:8.635929 2:2.80663 3:1.574432 4:3.797757 5:-1.033122 6:0.158295 7:4.00998 8:-2.63466 9:0.463139 10:2.208029 11:2.712504 12:-0.548213 13:-1.654733 14:-0.324399 15:-0.337352 16:-1.814503 17:-1.158918 18:-0.190358 19:0.748203 20:0.154717 21:0.67027 22:-0.607668 23:-0.303477 24:-0.345957 25:-0.638614 26:0.425632 27:-0.257608 28:-0.610079 29:-1.927563 30:-2.287638 31:-2.348824 32:-1.308443 33:0.153045 34:-1.321855 35:0.682642 36:-0.457246 37:-1.790775 38:-0.449743 39:0.859626 40:-0.958793 41:1.467384 
-0.2198113380532877 2 0.3586304304038737 0.420949285744154 0.3847350971752604 0.4099280150303449 0.4381197885102094 0.3948973437763165 0.3877202049652625 0.3094950359213514 0.3650482780746575 0.4154080299938603 0.3536986530290723 0.3832923280166274 0.4205002566214286 0.3231492037015996 0.3425507173641763 0.3530512535165457 0.4337197672653194 0.3909838813170157 0.3982770109049898 0.3918883283366708 0.3920814451561855 0.555237513395897 0.2059530316736434 0.4188308805118546 0.2784969952744401 0.2182503485792383 0.3336411772737142 0.1437160514365421 0.3915337242017867 0.3924227410094929 0.208026569797058 0.7212780353065145 0.3534990266442192 0.3769795423796805 0.3615903910504367 0.3288523111637692 0.3679470643136179 0.3811364218114031 0.4262973049858979 1:8.077291 2:9.277638 3:-0.893697 4:4.60507 5:0.57417 6:0.89939 7:3.1635 8:-3.081293 9:-1.148659 10:0.752217 11:-0.101165 12:0.294861 13:-0.939595 14:-0.689182 15:-0.297847 16:-0.211539 17:-0.728772 18:-0.614301 19:-0.119045 20:-0.650698 21:-0.352196 22:-0.327796 23:0.123037 24:-0.377437 25:-0.21645 26:1.411517 27:-0.376509 28:1.498587 29:1.311024 30:0.073627 31:0.290221 32:-0.579313 33:0.725305 34:-1.007674 35:-0.231983 36:-0.536249 37:1.063787 38:0.447608 39:-1.445184 40:0.140626 41:0.06793 
-0 1.805366519631835 0 0 0 0 0.08174331431771668 0 0 0 0 0 0 0 0 0 0 0 0 0 0 0 0 0.07953901530479428 0.3400438405995554 0 0 0.5254771316957765 0 0.2509288765304724 0 0 0 0 0 0 0 0 0 0 0 1:8.074292 2:5.636842 3:0.400436 4:4.663461 5:-0.678212 6:0.157611 7:3.619984 8:-3.496525 9:-0.742037 10:2.0177 11:0.418223 12:0.110707 13:-2.399627 14:-0.177339 15:0.195589 16:-1.440528 17:-0.400768 18:-0.449658 19:-0.659764 20:-0.114165 21:0.61364 22:-0.280057 23:-0.162634 24:-0.004097 25:-0.427646 26:0.728792 27:1.144376 28:0.351152 29:-0.069585 30:-1.247602 31:-0.483349 32:-0.77684 33:0.58892 34:0.113391 35:-1.308551 36:-0.362581 37:1.217512 38:-0.268667 39:-0.40263 40:0.242235 41:-0.11411 
-0.4513902505418987 0 0.5260670913100691 0.6205466842140548 0.5663662171538876 0.5713792087519213 0.5918283257302748 0.5911389546297876 0.6067748600540144 0.4678652532274287 0.5076745698921673 0.5878623605758041 0.4631262996355602 0.5791951238202505 0.6021331957895317 0.5158384345191077 0.5317121010645406 0.5354860379519107 0.5652883557004681 0.5747418617971974 0.6088428614033354 0.5472681812876509 0.5607387908222359 0.7434245438470151 0.4444974511274518 0.5268489241312732 0.4620980502724624 0.5050491671781374 0.5151956036864255 0.3977124341846308 0.5811786671946791 0.597602863987312 0.4342664768440428 0.497054731517784 0.541016016742583 0.5346053556143804 0.5406516119041184 0.475498779421494 0.5218324003026535 0.5479654179082042 0.505410216929349 1:10.13325 2:5.410175 3:-0.065286 4:5.341377 5:-0.564474 6:-0.46048 7:4.429347 8:-6.777142 9:-3.411292 10:3.086919 11:-0.814263 12:-0.513999 13:-0.248136 14:0.266159 15:2.130284 16:-3.959471 17:-2.153589 18:-0.898427 19:1.952851 20:-1.878854 21:-0.882844 22:-3.605765 23:-1.297082 24:2.428439 25:2.633989 26:-0.993491 27:-0.045388 28:-1.322891 29:-1.717681 30:1.672527 31:1.619326 32:-0.112701 33:-2.024467 34:1.884566 35:1.507623 36:-0.907081 37:-0.740518 38:-0.609574 39:2.27335 40:0.765342 41:-1.053136 
-0 0 0.1299995927994096 0.1933807856322996 0.1382500146307128 0.1505426110662485 0.06138195647226406 0.1776462002777444 0.1608915681654529 0.08316981242330168 0.1332211346824558 0.1835966839693426 0.03754807914102942 0.1553397496433951 0.1794933245878216 0.1591150032972258 0.09156424429355728 0.1423233229828113 0.03958352484034723 0.1108917069712886 0.08774562304458947 0.1244040472393909 0.08200060029883929 0.01492464962521611 0 0 0 0 0.05282536661713386 0 0.05920408542768531 0.1363895834365836 0.02669146102160836 0.5843242396136638 0 0.06277350590942113 0.1490442831627534 0.0676120961833442 0.1581881316215509 0.155931894294909 0.08600507021487948 1:8.590574 2:11.407913 3:-1.207305 4:4.106881 5:-0.310562 6:-1.393115 7:3.910208 8:-4.996995 9:-0.147066 10:0.770494 11:1.489603 12:-0.205392 13:-0.838359 14:-1.24341 15:0.878723 16:-3.57447 17:-2.31237 18:-0.363765 19:0.208181 20:-1.188162 21:-0.968245 22:-2.002338 23:0.145273 24:-0.847615 25:1.024213 26:-0.466986 27:-0.45824 28:-0.220247 29:-2.412155 30:2.613932 31:0.261746 32:-0.139928 33:-0.266201 34:-0.611244 35:0.911908 36:-0.491595 37:0.402405 38:-0.823825 39:0.570323 40:0.628044 41:0.750453 
-0.01616342068989466 0.1467860831107348 0.2224209599167658 0.287444624966181 0.2409958155568785 0.2296347583595248 0.1139565364127364 0.2695003289945664 0.2627581945823833 0.1696096353600015 0.2017990490043449 0.2568853678756938 0.1844906762533063 0.2510731615442738 0.2751892644488927 0.2381150951479591 0.2206703857182127 0.2318813483519019 0.1907955958540379 0.2281202072472819 0.2351807612246863 0.2031059537338153 0.2484236521821491 0.08264029903930491 0.09616605456890581 0.1166717769191833 0.1413358276687107 0 0.1854839480316097 0 0.2276649868472224 0.2694321202939279 0.1824462454952374 0.1099848030758802 0.06894942314363658 0.2245775564297114 0.2182329105021293 0.104626363302252 0.234802119990385 0.2503628378363008 0.158948272043537 1:8.5632 2:9.756845 3:-1.592088 4:5.637849 5:0.997561 6:-1.097799 7:4.45046 8:-3.625097 9:-0.618501 10:0.091241 11:0.588048 12:-0.547354 13:-0.206775 14:-1.731027 15:1.244195 16:-1.827314 17:-2.614552 18:-0.612301 19:-0.159487 20:-0.855581 21:-1.924115 22:0.06779 23:-0.349551 24:-1.903464 25:1.204062 26:-0.268389 27:-1.118963 28:0.525393 29:1.362734 30:1.216392 31:0.960516 32:1.460601 33:-0.383477 34:-0.286549 35:-0.311007 36:0.199175 37:0.10775 38:-0.059998 39:0.237105 40:-0.84881 41:-1.41327 
-0 0 0 0 0 0 0 0 0 0 0 0 0 0 0 0 0 0 0 0 0 0 0 0 0 0 0 0 0 0 0 0 0 0.3876366111775007 0 0 0 0 0 0 0 1:9.710688 2:10.279986 3:-1.039346 4:4.054252 5:0.518568 6:-0.252901 7:3.418497 8:-4.390942 9:-1.57154 10:1.576009 11:0.199674 12:-0.419863 13:0.852022 14:-0.073489 15:1.822836 16:-2.028956 17:-1.594087 18:-1.476464 19:0.757193 20:-1.484259 21:-1.792105 22:-1.367427 23:-1.837265 24:-0.65262 25:1.241488 26:-0.036133 27:-0.985214 28:-0.961711 29:-0.606683 30:0.898363 31:1.294451 32:1.076809 33:-0.383629 34:0.744818 35:0.564351 36:-0.149864 37:-0.344309 38:-0.277867 39:0.787428 40:-0.194592 41:-0.801354 
-0.1469103154639901 2 0.08547783828213389 0 0.05485461229450384 0.04208391732801089 0.1270606702563337 0 0.09059715417965621 0.1246251351062406 0.01486828676742746 0 0.2407181353966824 0.07552020078764524 0.008081254580118479 0 0.1130735473247427 0.003752619005897221 0.08470457107529183 0.1206849644994004 0.1328153074090671 0.02498397233936384 0.1242926324478747 0 0.3042615451973322 0.2506691250870274 0.2402999755701077 0.1608529215554477 0.1856611545542216 0.9731991872431942 0.05752970844963281 0.07050953580910839 0.1675652910634634 0 0.08477173419756406 0.200750736623602 0.06532611692043189 0.4335206185661621 0 0.0177426614635112 0.07858824665810039 1:8.051757 2:5.075891 3:0.219945 4:4.865684 5:-0.136168 6:-2.040746 7:3.999705 8:-2.568324 9:0.771631 10:0.148542 11:1.377404 12:-0.498045 13:-1.654085 14:-0.668983 15:0.429691 16:-1.088323 17:-1.609651 18:0.558237 19:-0.207858 20:-0.912501 21:0.284253 22:-0.301947 23:-0.064122 24:-0.808373 25:0.610846 26:-0.464754 27:-1.04157 28:-0.127462 29:-1.515459 30:0.436172 31:-1.62862 32:-0.364292 33:-1.071061 34:-1.674385 35:-0.662104 36:0.246241 37:0.045399 38:-1.102679 39:-1.279037 40:0.367514 41:-0.841512 
-0.5675682651840556 2 0.1770575115871324 0.1159007145609419 0.208382395227755 0.1451532075555388 0.2100924688943849 0.0877877926152851 0.204602633059668 0.1458091089653067 0.10515457866084 0.1334540511051165 0.1727850481953675 0.1136623504363546 0.1049663593864831 0.04959212060588613 0.2279245077885887 0.1165379306193884 0.1465928387518932 0.1695699715098969 0.1299886021956862 0.1130551881567533 0.1800160741551 0.3468152174126634 0.520681760001625 0 0.2368671102733736 0.3493084510864891 0.3262417634041272 0.1912632921280004 0.1039261322170489 0.1388653976997117 0 0 0.02215266518560864 0.1511640076536097 0.1042481011216946 0.0356730209027046 0.1049727896467829 0.0942443205735039 0.2005358362736616 1:7.531657 2:4.181474 3:0.757659 4:4.693016 5:-0.427676 6:-0.239892 7:3.744755 8:-3.269749 9:-0.911661 10:1.321048 11:1.914076 12:-0.535677 13:-2.307658 14:-1.012239 15:0.961377 16:-1.075125 17:-0.753683 18:0.469468 19:-0.165047 20:-0.070767 21:1.011626 22:0.713052 23:-0.304725 24:0.253172 25:-1.845751 26:1.319188 27:-0.526096 28:-0.891221 29:-1.348667 30:-1.54733 31:-1.723852 32:-0.052115 33:-0.586699 34:-0.411781 35:0.847161 36:0.632836 37:-1.513434 38:-1.219121 39:-0.730794 40:-0.397368 41:0.805356 
-0 0 0 0 0 0 0 0.01741741372526631 0 0 0 0 0 0 0.003025252618814117 0.01456094992422649 0 0 0 0 0 0 0 0 0 0 0 0 0 0 0 0 0 0 0 0 0 0 0.0006809297511874933 0 0 1:7.885145 2:10.07197 3:-0.281089 4:4.708182 5:-0.714091 6:0.513489 7:3.991589 8:-5.411631 9:-0.947871 10:0.560124 11:1.069213 12:0.338219 13:-1.647111 14:-1.255036 15:0.814922 16:-2.295059 17:-1.577591 18:-0.816652 19:0.74143 20:-0.598153 21:0.033687 22:-2.988435 23:0.84684 24:0.02751 25:-0.12518 26:1.411813 27:0.991396 28:1.012455 29:-0.374131 30:1.064467 31:-0.248228 32:-0.685699 33:-0.01428 34:0.203889 35:1.409585 36:-0.799988 37:1.158192 38:-0.746725 39:-1.120194 40:0.814952 41:1.418444 
-0 1.082893331004581 0 0 0 0 0 0 0 0 0 0 0 0 0 0 0 0 0 0 0 0 0 0 0 0 0 0 0 0 0 0 0 0 0 0 0 0 0 0 0 1:8.881462 2:8.753672 3:-1.296355 4:4.904886 5:0.703275 6:-0.027415 7:4.542709 8:-3.976212 9:-0.981262 10:1.164519 11:0.92696 12:0.142332 13:-1.254968 14:-1.26963 15:-0.085769 16:-0.885692 17:-0.961453 18:-1.347546 19:-0.48344 20:0.109394 21:-0.540496 22:0.240032 23:0.290904 24:-1.089313 25:-1.020726 26:1.774782 27:-0.000534 28:1.565814 29:0.894227 30:-0.573151 31:0.507108 32:0.712859 33:1.514726 34:-0.556063 35:0.336938 36:-0.112203 37:-0.794471 38:0.843154 39:0.776371 40:-0.209674 41:0.404734 
-0 0 0 0 0 0 0 0 0 0 0 0 0 0 0 0 0 0 0 0 0 0 0 0.3112774416527755 0.05504520111901052 0 0 0 0 0 0 0 0 0 0 0 0 0 0 0 0 1:9.518154 2:5.638623 3:-0.201277 4:5.67104 5:-0.157796 6:-0.659858 7:4.203369 8:-6.350427 9:-2.604548 10:2.249918 11:-1.333648 12:-0.072648 13:-0.567991 14:-0.443895 15:1.806453 16:-2.255328 17:-0.414015 18:-1.230966 19:0.354987 20:-1.529959 21:-1.675653 22:-0.837272 23:-0.588419 24:-0.302892 25:1.723556 26:0.314437 27:0.568342 28:-0.575748 29:-1.144317 30:0.792243 31:0.855598 32:1.040677 33:-0.203175 34:1.398363 35:1.313916 36:0.202202 37:-0.122179 38:-0.7774 39:1.699673 40:-1.669316 41:-0.559821 
-0 0.2079885061275154 0 0 0 0 0 0 0 0 0 0 0 0 0 0 0 0 0 0 0 0 0 0 0 0 0 0 0 0 0 0 0 0 0 0 0 0 0 0 0 1:8.417445 2:7.527572 3:-0.468891 4:4.155534 5:-0.028402 6:-2.023978 7:3.7864 8:-2.866469 9:-0.152816 10:0.343886 11:1.197966 12:-0.481829 13:-2.189537 14:-0.65424 15:-0.278484 16:-1.755874 17:-1.06745 18:-0.284868 19:-0.67111 20:-0.728044 21:0.490042 22:0.708081 23:0.844768 24:-0.677244 25:-0.155798 26:0.285532 27:-0.254115 28:0.213775 29:0.013839 30:-0.599207 31:-0.719496 32:0.535113 33:0.015006 34:-0.716834 35:-0.33434 36:-0.61845 37:0.495562 38:-0.277354 39:0.640388 40:-1.193286 41:0.111202 
-0 0.4764191869625032 0 0 0 0 0 0 0 0 0 0 0 0 0 0 0 0 0 0 0 0 0 0 0 0 0 0 0 0 0 0 0 0.03151545391634505 0 0 0 0 0 0 0 1:10.131118 2:8.472602 3:-1.152288 4:4.308311 5:0.697218 6:-1.14651 7:3.54068 8:-3.508924 9:0.018491 10:0.388072 11:1.029857 12:-0.450817 13:-0.467641 14:-0.391724 15:0.677781 16:-2.186332 17:-1.084549 18:-0.748849 19:-0.475525 20:-1.279307 21:-0.651082 22:0.818095 23:0.461648 24:-1.533758 25:-0.853444 26:1.421191 27:-0.102688 28:-0.169373 29:0.087499 30:-0.417332 31:0.749434 32:-0.35613 33:-0.847254 34:-1.377569 35:-1.147657 36:-0.767917 37:0.743013 38:1.116378 39:0.000719 40:-0.254838 41:0.238122 
-0 0 0.04284291169856644 0.08164377384110723 0.06849891137455147 0.07003093996905227 0.02125409339492828 0.08420719708261552 0.06550008948824423 0.06393809273891619 0.07241861082387931 0.08362046040374688 0.04070154041884023 0.06460418344095016 0.08313478374703949 0.0778452217516365 0.026458302511532 0.05985309900915182 0.05193065439737035 0.05452331462330322 0.03252592790190727 0.0627490601972388 0.03635004316781269 0 0 0.05801481333784204 0.0596119310133623 0 0.0479946744398859 0 0.0642904584238732 0.06028278808338754 0.01771558473038003 0 0 0.05656425537435412 0.08168673709871023 0.03514914183253075 0.07199009919042354 0.07121189918579535 0.0693354212244527 1:10.10686 2:7.929421 3:-0.763809 4:6.8913 5:0.231688 6:-0.635332 7:5.235821 8:-6.378591 9:-1.530993 10:2.797636 11:0.073108 12:0.154325 13:-1.328823 14:-1.257687 15:0.656107 16:-3.069959 17:-2.641233 18:-1.443399 19:1.169713 20:-1.20016 21:-2.607532 22:-0.601605 23:-1.318052 24:-2.18989 25:0.760225 26:1.113823 27:0.104434 28:0.277053 29:-2.061224 30:1.693634 31:1.282466 32:2.300704 33:-0.561503 34:1.344596 35:1.258806 36:-0.863582 37:-1.898334 38:-0.594282 39:2.482906 40:-0.954221 41:-0.738651 
-0 1.277441383593981 0 0 0 0 0 0 0 0 0 0 0 0 0 0 0 0 0 0 0 0 0 0 0 0 0 0 0 0 0 0 0 0 0 0 0 0 0 0 0 1:8.12232 2:6.920578 3:-0.717899 4:5.764021 5:-0.338952 6:-2.158489 7:3.303233 8:-3.932996 9:-0.347422 10:0.978244 11:0.999759 12:-0.839298 13:-2.629463 14:-0.179112 15:0.584466 16:-0.923331 17:-2.828645 18:-0.053554 19:0.393504 20:-0.330214 21:-0.871742 22:0.818512 23:-0.1866 24:-0.336621 25:0.714694 26:-0.338334 27:-0.542754 28:0.433986 29:-2.047588 30:0.886979 31:-0.257041 32:-0.329079 33:-0.8972 34:-0.349303 35:0.030476 36:-0.265717 37:-0.792865 38:1.261281 39:-0.991705 40:1.322221 41:-0.290435 
-0 0.06123922131562738 0 0 0 0 0 0 0 0 0 0 0 0 0 0 0 0 0 0 0 0 0 0 0 0 0 0 0 0 0 0 0 0 0 0 0 0 0 0 0 1:8.769077 2:5.205101 3:-0.37666 4:5.462353 5:0.370452 6:-2.286398 7:4.357585 8:-4.091448 9:-0.362051 10:-0.0618 11:1.379522 12:-1.074743 13:-1.181316 14:-0.265649 15:2.011667 16:-2.901067 17:-2.021189 18:-0.105944 19:-0.637975 20:-0.942412 21:-0.596592 22:-0.247351 23:-0.415256 24:-0.91876 25:0.526065 26:-0.218487 27:-0.930509 28:0.261241 29:0.536725 30:-0.344303 31:-1.605312 32:0.196386 33:0.529966 34:-0.240284 35:-1.384842 36:0.101348 37:-0.736408 38:-0.308999 39:0.320032 40:0.595718 41:-1.413467 
-0.05752867513495779 0 0.03809402082568819 0.03312380993833392 0.04060434948623035 0.03976744703465077 0.05147338098829419 0.03412879863751754 0.04599842578095478 0.04019075529151718 0.02738994487445694 0.03012899952717062 0.05700386117014036 0.0415829613194677 0.0344273940216562 0.02956093993341612 0.05019952242446999 0.0293925174752892 0.06375733385671865 0.05135735190020135 0.07435116527430689 0.03322951260653803 0.04054685606900944 0 0.03872322799302204 0.06518477615255414 0.07088085898618351 0 0.06620116030154408 0 0.06062490625577917 0.05469447092535221 0.09539637451354026 0 0.04893871682984004 0.05790579757318887 0.03775142869787532 0.07947228858045052 0.02967753572651969 0.03187394057959776 0.03552218674235988 1:10.425572 2:10.03927 3:-1.235718 4:5.29339 5:0.11036 6:0.34709 7:3.977392 8:-5.906378 9:-1.702077 10:3.219496 11:0.68276 12:0.235624 13:-0.331732 14:-1.237239 15:1.613825 16:-2.441852 17:-2.165006 18:-1.290954 19:1.241645 20:-1.382803 21:-1.72038 22:-2.430565 23:-0.922745 24:-0.349198 25:0.688855 26:0.92924 27:0.406058 28:-1.481658 29:-2.550791 30:2.472702 31:1.896439 32:0.607464 33:-0.358225 34:1.463251 35:2.686166 36:-0.80914 37:-1.823799 38:0.159208 39:1.871548 40:-0.433954 41:0.313131 
-0 0 0.1490215620571887 0.2234500911436678 0.1659980123875102 0.1812008906769476 0.07360017072994825 0.2139425338564865 0.177758385811488 0.1263620532084257 0.1415628363303642 0.2018009205608105 0.1014114951474962 0.1885128709828973 0.2156978275395706 0.1878965633159591 0.131592429976721 0.1594061157638394 0.1240245403764305 0.1599267730713495 0.1553511163517496 0.143605539108991 0.1647318652596648 0 0 0.03725497200321293 0.03681361061954137 0 0.07514644096781667 0 0.07276524842152092 0.1848182158135877 0.08069007014155538 0.02020228590624595 0.002050378756616312 0.117435067162624 0.1720134735299474 0.07516000173688486 0.1860341925575033 0.1895259379050176 0.1301616018435102 1:10.960079 2:7.435589 3:-1.386506 4:6.829146 5:-0.200681 6:-1.543511 7:5.124199 8:-7.432572 9:-2.357866 10:3.380584 11:0.339515 12:0.412911 13:-0.99478 14:-1.207786 15:1.204934 16:-4.021672 17:-2.665662 18:-1.245498 19:0.811601 20:-1.700101 21:-1.489598 22:-1.515991 23:-0.283087 24:-1.647763 25:1.94388 26:1.877178 27:0.022821 28:-1.116951 29:-2.916969 30:2.317512 31:0.634101 32:0.20949 33:-0.771624 34:0.702683 35:1.602498 36:-1.830086 37:-1.786392 38:-0.521329 39:1.241655 40:-0.470752 41:-0.369256 
-0 -0 0 0 0.01843368818050903 0 0 0 0 0.02137265379161677 0.01948457255730194 0 0 0 0 0 0.1748989726884814 0 0 0.02053707020692031 0 0 0.02360922792614542 0 0 0 0 0 0 0 0 0 0 0 0 0 0.1438748678204604 0 0 0 0 1:5.185983 2:5.152808 3:1.834976 4:3.350633 5:0.821533 6:-1.208473 7:1.299276 8:-1.975021 9:0.357222 10:0.969177 11:0.228178 12:0.788988 13:-2.879251 14:-1.283391 15:0.385546 16:-0.144414 17:0.254079 18:1.094323 19:0.505568 20:1.928851 21:-0.326352 22:2.95108 23:0.380768 24:-0.632504 25:-0.424299 26:0.012945 27:0.09718 28:-1.081027 29:0.39165 30:-2.027103 31:-2.131659 32:-0.880389 33:-0.599497 34:-0.630513 35:0.288635 36:0.275754 37:-0.597744 38:0.70213 39:-1.400867 40:0.677781 41:0.283018 
-0 -1.14528161345694 0.1326580959901237 0.4239464435936107 0.2616936115999668 0.32208386233355 0 0.4150346352979909 0.3259566202015948 0.2795207820467837 0.2640409860317897 0.3687805484936264 0 0.303371476108607 0.410124514239777 0.3786335688419667 0.04597645806669538 0.3117671425310263 0.04570610730481281 0.2671469950872625 0.1317091543930829 0.247971962025975 0.1985478164995093 0 0 0.05973401401637343 0 0 0 0 0.1757978719429115 0.3440694830631263 0.1781072354944657 0.4022945878575367 0 0.07607517947181949 0.3078896974087175 0 0.3493353161306044 0.3584857540522648 0.1608584204026508 1:9.453004 2:6.941784 3:-0.992456 4:5.409874 5:1.571507 6:-1.323527 7:3.203021 8:-3.434192 9:-0.281555 10:1.073784 11:0.502079 12:0.071548 13:-1.60961 14:-0.973243 15:1.138133 16:-0.917696 17:-1.053802 18:0.819285 19:-0.10856 20:0.149672 21:-1.087832 22:3.361783 23:0.890995 24:-2.642107 25:-0.980548 26:0.870978 27:-0.563554 28:-0.260798 29:0.101757 30:-0.315171 31:-1.606282 32:1.704012 33:0.736966 34:-1.068366 35:-0.057388 36:0.487748 37:0.263818 38:-0.325196 39:-1.969005 40:-0.362058 41:-0.915956 
-0 -0 0.2975905723370753 0 0.1374752954767547 0.07942933721172205 0.4065979961376623 0 0.04868056728117696 0 0.02481476722436393 0 0.4048528484716578 0.1304371381614014 0 0 0.2691084342234076 0.01767656448055629 0.3328932317097388 0.07440607336774334 0.1512390605126079 0.01784697736727155 0.3484589477562221 0.6602827648974393 0.8189571605328337 0.1845798858496106 0.509998345696791 0 0.2633683769615267 0 0.0265646829389327 0.05081943373581121 0 0 0 0.3313659683481162 0 0.2558068616861561 0 0.03323030041310003 0.231723097493637 1:6.645123 2:4.525648 3:-0.046744 4:4.846742 5:-0.603076 6:-1.121103 7:2.547675 8:-3.663911 9:0.585405 10:0.078023 11:0.70015 12:0.138713 13:-0.108738 14:-0.345296 15:-0.32717 16:-1.279295 17:-0.573307 18:0.775047 19:-0.933783 20:0.800039 21:-0.916224 22:2.307496 23:-0.331656 24:-2.323141 25:-0.440344 26:1.06245 27:0.134672 28:-0.579225 29:-0.371365 30:-1.597165 31:-1.053438 32:0.711268 33:1.303965 34:0.300003 35:-0.933004 36:0.957078 37:0.682086 38:-0.718548 39:-0.455524 40:0.442401 41:-0.33116 
-0 -2 0 0 0 0 0 0 0 0 0 0 0 0 0 0 0 0 0 0 0 0 0 0 0 0 0 0 0 0 0 0 0 0 0 0 0 0 0 0 0 1:7.444741 2:7.322102 3:-0.596761 4:4.691628 5:1.33779 6:-1.548525 7:3.678159 8:-1.929276 9:1.520803 10:0.202091 11:1.760799 12:-0.145185 13:-2.209238 14:-2.103926 15:0.175511 16:-0.271921 17:-0.828789 18:-0.155351 19:-0.921472 20:0.460856 21:-0.118408 22:1.415807 23:1.268653 24:-1.563569 25:-0.759547 26:0.873658 27:-0.152216 28:-0.003069 29:0.80612 30:0.03947 31:-0.672034 32:-0.058688 33:0.252631 34:-0.572727 35:-0.054506 36:-0.549513 37:0.248824 38:0.125394 39:-0.743838 40:-0.687636 41:0.001161 
-0.2619520380578504 -2 0.1908315407557832 0.2431601036530222 0.1364603907024128 0.1605269135142908 0.09618799774551015 0.2179045632224504 0.2796954306574498 0.0633916341899901 0.1642272326271852 0.209830162491064 0.1742300881847265 0.2371410803610936 0.2373935709489213 0.1850963368366234 0.1747376398105693 0.1518418692324111 0 0.2892241998362637 0.1819417688569635 0.1369302363316663 0.1356884795400619 0 0 0 0 0.1734607788974887 0.2591160279780267 0.5880325293878709 0.17793038505899 0.2118925395795096 0 0.2284209740481033 0 0.1951221241250666 0.1213077691280771 0.2673035689722851 0.1915821585097377 0.1942992783944982 0.0375337364036939 1:7.50685 2:3.994009 3:0.077966 4:5.243146 5:-0.56869 6:-1.647554 7:3.465329 8:-3.4199 9:1.204873 10:0.202349 11:1.932592 12:0.082048 13:-1.699449 14:-1.261545 15:0.274857 16:-1.5322 17:-0.779555 18:0.764564 19:-0.525871 20:0.94555 21:0.539449 22:1.659828 23:0.112348 24:-1.071111 25:-0.125258 26:0.37992 27:-0.921638 28:-0.332069 29:-1.419682 30:-0.287919 31:-1.187632 32:-0.337754 33:-0.30004 34:0.380702 35:-0.26426 36:0.609342 37:0.153024 38:-1.138625 39:0.518023 40:0.043017 41:0.619116 
-0 -2 0 0 0 0 0 0 0 0 0 0 0 0 0 0 0 0 0 0 0 0 0 0.1167590336510705 0 0 0 0 0 0 0 0 0 0 0 0 0 0 0 0 0 1:8.150037 2:3.648345 3:1.484816 4:3.620518 5:-0.0125 6:0.131914 7:3.277121 8:-1.747199 9:0.144928 10:1.747863 11:0.499706 12:0.251045 13:-0.781848 14:-0.185913 15:0.719554 16:-0.436241 17:0.36927 18:0.826723 19:-1.359974 20:0.409627 21:0.819171 22:2.228119 23:-0.837375 24:0.444166 25:-0.006978 26:0.041645 27:-1.189407 28:-0.105814 29:-0.036424 30:-1.053594 31:-1.928888 32:-0.01129 33:-0.181043 34:0.590481 35:-0.096207 36:-0.065603 37:-1.693887 38:-0.405034 39:-0.902958 40:0.627301 41:-0.509116 
-0 -0 0.06223678959036292 0.173768462158978 0.1126139910017789 0.04367936550890434 0 0.1775720977587534 0.09276271107180664 0 0.1726708809598087 0.1620519368497058 0 0.06089173798446639 0.1741568048880694 0.1518769669108056 0.03922618133925209 0.145557243193756 0 0.0355136024922906 0 0 0.01942022050091518 0 0 0 0 0 0 0 0 0.07568069462299612 0 0 0 0 0 0 0.166491385866113 0.1214475855374443 0 1:7.102886 2:3.869788 3:0.920625 4:4.61084 5:-0.573571 6:0.760372 7:1.81172 8:-2.619214 9:1.065999 10:0.998189 11:1.914107 12:0.262614 13:-1.116002 14:-0.65334 15:0.872869 16:0.356961 17:0.663155 18:1.316896 19:-0.111059 20:2.590192 21:-0.407592 22:3.200152 23:0.511777 24:-0.540179 25:-2.967306 26:1.242201 27:-0.21747 28:-1.308189 29:0.982097 30:-2.080189 31:-0.7209 32:0.289846 33:2.139525 34:0.528591 35:0.543597 36:1.786507 37:-0.379672 38:-1.214025 39:-1.802278 40:0.723735 41:1.077226 
-0 -2 0 0 0 0 0 0 0 0 0 0 0 0 0 0 0 0 0 0 0 0 0 0 0 0 0 0 0 0 0 0 0 0 0 0 0 0 0 0 0 1:7.57834 2:5.75318 3:-0.055453 4:5.274215 5:0.035507 6:-2.210765 7:2.652697 8:-3.167701 9:1.168285 10:0.629152 11:1.75864 12:-0.373859 13:-1.040744 14:-1.174694 15:-0.093902 16:-0.737366 17:-1.297757 18:0.106039 19:0.011797 20:0.454876 21:0.112043 22:1.156974 23:1.314949 24:-0.463209 25:-0.93388 26:-0.030591 27:0.600325 28:-0.146389 29:-0.983835 30:-1.072435 31:-0.21411 32:-0.696701 33:1.218515 34:-0.570593 35:-0.260963 36:-0.096561 37:0.750265 38:0.260519 39:-1.593713 40:0.448689 41:0.603506 
-0 -0 0 0 0 0 0 0 0 0 0 0 0 0 0 0 0 0 0 0 0 0 0 0 0 0 0 0 0 0 0 0 0 0 0.09402623319764712 0 0 0 0 0 0 1:7.599186 2:3.40363 3:2.030753 4:3.986298 5:1.228342 6:-0.946329 7:1.590651 8:-1.079405 9:1.826882 10:0.103823 11:0.795119 12:0.316751 13:-0.399475 14:-1.286269 15:0.868822 16:0.762827 17:1.394833 18:1.253961 19:-0.57029 20:1.414939 21:-0.020306 22:2.565935 23:1.632153 24:0.229622 25:-1.699844 26:0.667236 27:0.632581 28:-1.037969 29:0.861035 30:-1.24808 31:-0.518084 32:-0.195964 33:0.459025 34:0.87518 35:-0.194901 36:0.537045 37:-0.717138 38:0.033406 39:-1.312993 40:0.935708 41:0.366589 
-0 -0.5489464663975175 0 0 0 0 0 0 0 0 0 0 0 0 0 0 0 0 0 0 0 0 0 0 0 0 0 0 0 0 0 0 0 0 0 0 0 0 0 0 0 1:8.313961 2:5.317559 3:-0.374557 4:4.936844 5:1.067521 6:-1.068401 7:3.189182 8:-2.510785 9:0.751938 10:-0.164642 11:1.395414 12:-0.380559 13:-2.259538 14:-0.828169 15:-0.202507 16:0.240227 17:-1.01591 18:0.67379 19:-0.704493 20:0.489042 21:0.355327 22:1.768666 23:0.812183 24:-0.206908 25:-0.827394 26:0.682253 27:0.172298 28:0.710824 29:1.696503 30:-0.614614 31:-0.057623 32:-0.471966 33:0.741752 34:-0.877562 35:0.34558 36:0.733589 37:-0.109822 38:1.344348 39:-1.256706 40:0.171788 41:0.019607 
-0 -2 0 0 0 0 0 0 0 0 0 0 0 0 0 0 0 0 0 0 0 0 0 0 0 0 0 0 0 0 0 0 0 0 0 0 0 0 0 0 0 1:7.446237 2:7.573301 3:-0.538103 4:4.938712 5:0.523921 6:-0.826248 7:2.857796 8:-2.346209 9:1.22056 10:0.56356 11:1.976079 12:-0.908464 13:-1.354896 14:-1.687243 15:0.888257 16:-0.64491 17:-1.666599 18:0.098841 19:-0.427804 20:0.177038 21:-1.203118 22:0.842602 23:0.789582 24:-0.824478 25:-0.856241 26:1.015032 27:0.170495 28:-0.127747 29:0.097054 30:0.03502 31:-0.507582 32:0.315646 33:0.685914 34:-0.884311 35:0.703842 36:0.285711 37:-0.39398 38:0.437627 39:-1.082281 40:0.395066 41:-0.589136 
-0.9242107539812012 -0 0 0 0 0 0.01434427797502587 0 0 0 0 0 0 0 0 0 0.04221404990256171 0 0 0 0 0 0 0 0.184351837729609 0.1560832533865053 0 0.9442355065079673 0.008412536372973132 0.7038082347302034 0.3017682512153915 0 0.2363418451535807 0 0.5208811866499521 0.0725425593508834 0 0.2178499086374113 0 0 0.01884708606173579 1:7.004144 2:2.296836 3:1.160391 4:4.066243 5:0.558112 6:-0.334242 7:1.961667 8:-1.372987 9:1.643499 10:0.70213 11:1.851376 12:-0.613225 13:-0.331948 14:-0.081225 15:0.161697 16:-0.971112 17:0.628834 18:0.587374 19:-0.804853 20:0.624177 21:1.136071 22:2.006677 23:-0.125874 24:-0.017307 25:-1.149418 26:-0.353521 27:-0.097122 28:0.454104 29:-0.422448 30:-1.099209 31:-1.130407 32:-0.531675 33:0.26235 34:0.086445 35:0.920171 36:-0.394736 37:1.304809 38:0.280194 39:-1.421575 40:0.566034 41:-0.234483 
-0.06499702248341162 -0 0.3005325973650653 0.3658118034513511 0.3151163159013382 0.3221884825965186 0.1195586595719417 0.3152256725316861 0.3609177913125729 0.2574551744591735 0.242388958488079 0.3882707621405892 0.42314288859394 0.3390775985436513 0.3481335999736968 0.247338344154612 0.2227335699744709 0.2508283907296906 0.1711120234764162 0.3372003169215162 0.2825533025113041 0.2422779574300719 0.3240535789620457 0.0379755740114571 0 0.09096924410510947 0.2454243347352897 0 0.2587249964507638 0.2887805066484237 0.2380919544125455 0.3463945284437462 0.06619691456136842 0.463931326453083 0.2037034978154146 0.3196855320239138 0.2807042887115058 0.237038056772254 0.3185415855805676 0.3122457365813968 0.235673551680054 1:4.903323 2:11.635711 3:0.024331 4:1.650989 5:2.334153 6:-0.017277 7:0.873669 8:0.470242 9:1.354888 10:-1.053032 11:-0.297161 12:0.499039 13:-1.780844 14:-1.894544 15:-0.054998 16:1.167741 17:-0.720102 18:0.017468 19:0.115172 20:0.605194 21:-0.629106 22:1.241031 23:1.489913 24:-0.296843 25:-1.154983 26:0.029027 27:0.642239 28:-0.576553 29:1.468272 30:-0.028602 31:-0.192342 32:0.081369 33:-0.374609 34:-0.35861 35:0.051864 36:-0.263673 37:-0.450593 38:0.722659 39:-0.551336 40:-0.246224 41:0.874674 
-0.1406545294201774 -0 0.2418061343981145 0.3189886490332285 0.2526215691006463 0.2806874255910473 0.3300195996956779 0.3204266621386592 0.2843291384302669 0.2224415548578055 0.2508366750723608 0.3093934281183738 0.1857225883958532 0.2577629860026179 0.309157323741135 0.2643921963274862 0.2248850511261805 0.2750724626391452 0.4298963880119872 0.251735399609641 0.2915311776024958 0.2943102213714104 0.2132456881307142 0.282867433626122 0.2426406301193194 0.3212553549726077 0.2200473135239565 0.2586470000159886 0.2295079567862564 0.04834431089706192 0.2850150219713877 0.2824590788156063 0.2289821594515427 0.6305090640120747 0.3129875912920619 0.1895991457762845 0.2871915202054978 0.2279758198136134 0.2823246916254074 0.2757312478968854 0.2386593662719594 1:6.108699 2:11.902428 3:0.686978 4:1.870833 5:1.126126 6:2.408334 7:-0.007353 8:-0.237558 9:0.413801 10:0.89978 11:-0.580788 12:0.463565 13:-1.003343 14:-0.321868 15:-0.415442 16:2.309866 17:1.087879 18:-0.545652 19:1.506027 20:1.222304 21:-0.935969 22:-0.755571 23:0.770132 24:-0.150008 25:-1.926011 26:0.338167 27:1.796601 28:-1.06439 29:1.689742 30:-0.893031 31:0.397108 32:-0.198527 33:0.729009 34:-0.137211 35:-1.240818 36:1.159824 37:0.513607 38:0.849126 39:0.290083 40:1.247237 41:0.882827 
-1.16722653729984 -0.759749465352675 0.4252331395213145 0.5456988474789857 0.6369000956015507 0.6240860470161356 0.9346300229317084 0.5283769858856562 0.5736155721948757 0.6801028822756131 0.5889851232010378 0.5098081325620778 0.3573721069703678 0.5204325893658163 0.5380371277336995 0.4650891689021338 0.8014484361313721 0.6740984111722165 0.8205913259248017 0.7756366479790379 1.083187084034575 0.6476694232139751 0.5236411526064751 0.869005802801484 0.83864466731225 0.8247364986081942 0.8432128642421846 2 0.6506635722691525 1.767396072119172 0.8738736889969914 0.6610713665555353 0.5173595245416074 0.4771149830977949 1.90527992756638 0.8356402895766579 0.4981294886664321 0.4776293845132248 0.4710121299438995 0.5126851134353635 0.610945503066146 1:7.63956 2:1.688634 3:2.313109 4:2.412047 5:0.860045 6:-0.03694 7:2.506076 8:-0.442347 9:0.895166 10:0.773539 11:-0.320429 12:0.074982 13:-1.214079 14:1.189826 15:-0.521009 16:1.889938 17:1.244948 18:0.302746 19:-0.374762 20:0.363049 21:2.46425 22:0.919244 23:0.696546 24:1.021315 25:-0.517224 26:0.964647 27:-0.92788 28:0.38915 29:-0.429403 30:-2.242482 31:-1.134393 32:-0.953303 33:-0.921202 34:-0.142072 35:-1.451343 36:-2.14963 37:0.2434 38:0.966532 39:0.200494 40:-0.163885 41:0.828413 
-0 -0 0 0 0 0 0 0 0 0.01973498567171496 0 0 0.1185860650365839 0 0 0 0 0 0 0 0 0 0 0.00595474068184835 0 0 0 0.9097803198755565 0 0 0 0 0 0 0.4125311272501774 0 0 0 0 0 0 1:5.873149 2:3.764049 3:2.02417 4:4.309866 5:0.327677 6:1.390339 7:1.649692 8:-1.12421 9:0.474231 10:0.110883 11:0.478725 12:-1.218908 13:-1.546518 14:0.561278 15:-0.154172 16:1.757094 17:0.867083 18:0.894057 19:0.549786 20:1.147169 21:0.251744 22:1.818935 23:1.454789 24:-0.45699 25:-3.033052 26:0.201357 27:0.373417 28:-0.109896 29:1.137095 30:-2.348886 31:-0.538846 32:-0.130221 33:0.716723 34:0.378448 35:-1.832407 36:0.948171 37:-0.651507 38:0.181159 39:-1.616785 40:1.904175 41:-0.380156 
-0 -0.1209565797296604 0 0 0 0 0 0 0 0 0 0 0 0 0 0 0 0 0 0 0 0 0 0.2909254235370057 0 0 0 0 0 0 0 0 0 0 0 0 0 0 0 0 0 1:7.676863 2:6.277106 3:0.049541 4:5.234618 5:0.10659 6:0.63365 7:2.410023 8:-2.969006 9:-1.263191 10:1.097083 11:-0.277556 12:-0.586445 13:-0.94111 14:0.623451 15:0.235826 16:1.458563 17:0.295718 18:-0.923241 19:0.167001 20:1.498211 21:-1.199777 22:0.582368 23:0.849106 24:-0.702789 25:-1.229157 26:0.386602 27:0.544049 28:0.19196 29:1.25215 30:-1.650027 31:0.490667 32:-0.214068 33:2.407558 34:-0.002266 35:-0.513216 36:0.458434 37:2.00808 38:0.593537 39:-0.270664 40:1.239508 41:-1.221148 
-0 -2 0 0 0 0 0 0 0 0 0 0 0 0 0 0 0 0 0 0 0 0 0 0 0 0 0 0 0 0 0 0 0 0 0 0 0 0 0 0 0 1:8.315267 2:7.753281 3:-0.415813 4:4.613838 5:0.395725 6:1.094789 7:2.421931 8:-3.453735 9:-1.180382 10:0.919883 11:0.441479 12:-0.197314 13:-0.373775 14:0.681585 15:0.233583 16:0.53501 17:0.084473 18:-1.376758 19:0.54786 20:0.984016 21:-1.759394 22:0.735433 23:1.61174 24:-0.550104 25:-2.231144 26:0.773119 27:0.677318 28:-0.446157 29:0.728949 30:-1.057745 31:0.29352 32:0.42823 33:1.624667 34:-0.175476 35:-0.984655 36:0.524828 37:0.958554 38:0.40019 39:-0.352863 40:0.484395 41:0.353598 
-0.7414962691178373 -0 0.03540205292775325 0.03391452023923948 0.001553163596478942 0.1362519441147972 0.1504340344802329 0.0461473174641854 0.02934466577828175 0 0.01869629320034178 0.02308104459455209 0.1193025357839709 0.1100043312112279 0.04709941096428034 0.03116304767241847 0.02002340382625263 0.03297833034829285 0 0.2738974420135002 0.322477838052629 0.1556860102303648 0 0.273078725202484 0.3237984560641664 0.1452467413519066 0.1037164437339211 1.114724035538722 0.3635871769641787 1.062559752952728 0.8430965898640751 0.06374571653353481 0.1371743037991472 0 0.5919923217993163 0.2422269711415616 0 0.07475337025643493 0.04676244805147342 0.04637282513708579 0.3864684769041917 1:7.112502 2:1.87071 3:1.396252 4:4.190325 5:-0.374954 6:1.120892 7:2.077328 8:-0.341118 9:0.823773 10:0.889633 11:1.719874 12:-1.021715 13:-1.895536 14:0.180918 15:-0.567398 16:2.147392 17:0.916576 18:0.093459 19:-0.638503 20:0.344906 21:0.729366 22:1.882663 23:0.971633 24:-0.777549 25:-2.39293 26:0.60033 27:0.900496 28:0.144524 29:1.267087 30:-1.907407 31:-0.601909 32:-0.248801 33:0.85573 34:0.070252 35:-0.954985 36:0.693646 37:-0.652156 38:0.583081 39:-1.97118 40:0.702073 41:1.445299 
-0.2244430585612214 -0 0.07098102428870671 0.001066940831939721 0.1147082726933098 0.0783254717977548 0.4351878857979538 0 0.06562571448446844 0.08572751075676037 0.07268884449392089 0.04032350969401995 0.1425822372982613 0.02316338680062817 0.005913850724341748 0 0.02691239647190615 0.03462143088348622 0.05255234796057812 0.01249370378748986 0.06096021062832912 0.2126665584265525 0 0.03481480429662392 1.022455252307595 0 0 0.6289964165663786 0.1022004744781709 0 0 0.04805478697117707 0 0 0 0.1108734938504885 0.1762716117963344 0.03183398997704528 0 0.009245301936288277 0.1593371425163157 1:6.900516 2:4.171514 3:0.705128 4:4.08008 5:-1.219224 6:-0.087471 7:2.236109 8:-3.462306 9:0.174067 10:0.593215 11:0.486627 12:0.352669 13:-2.77937 14:-0.130585 15:-0.895554 16:0.724722 17:0.498673 18:0.076804 19:0.096467 20:2.195839 21:-0.024376 22:1.2658 23:0.914935 24:-1.724402 25:-2.299856 26:1.583024 27:0.608404 28:-1.354569 29:-0.341098 30:-2.063404 31:-0.368168 32:1.186034 33:1.378872 34:-0.31859 35:-1.159298 36:1.422621 37:-0.018317 38:-1.307624 39:0.429727 40:0.052838 41:0.808177 
-0 -1.340491047763874 0 0 0 0 0 0 0 0 0 0 0 0 0 0 0 0 0 0 0 0 0 0 0 0 0 0 0 0 0 0 0 0 0 0 0 0 0 0 0 1:6.883365 2:9.660105 3:-0.027365 4:4.228089 5:1.356533 6:-0.505473 7:2.773106 8:-2.389903 9:0.9526 10:-0.032219 11:1.747833 12:0.440723 13:-0.598289 14:-2.336293 15:1.04852 16:-0.824772 17:-1.147005 18:1.351558 19:0.292006 20:0.40753 21:-0.878798 22:0.335901 23:1.000091 24:-1.959223 25:-1.074519 26:0.299296 27:-0.047511 28:-0.94959 29:0.067666 30:0.459049 31:-0.87473 32:0.182625 33:0.150906 34:-0.683391 35:0.352759 36:0.146787 37:-0.048007 38:0.034338 39:-1.213752 40:0.244615 41:0.407517 
-0 -0 0 0 0 0 0 0 0 0 0 0 0 0 0 0 0 0 0 0 0 0 0 0 0 0 0 0 0 0.410693830072507 0 0 0 0 0 0 0 0 0 0 0 1:7.308829 2:3.589615 3:0.460109 4:5.206082 5:-0.221656 6:0.617245 7:2.313302 8:-3.455203 9:0.615925 10:0.33622 11:0.712013 12:-0.669666 13:-1.485555 14:0.500217 15:-1.057372 16:1.185454 17:0.047141 18:0.018047 19:0.275447 20:1.996601 21:0.406224 22:1.961808 23:0.846829 24:-0.687699 25:-2.12659 26:1.200141 27:0.423316 28:0.766645 29:0.142905 30:-1.449951 31:0.09587 32:1.117907 33:0.408382 34:-0.865226 35:-0.953872 36:1.443641 37:-0.255264 38:1.487844 39:-0.900235 40:0.217008 41:0.165775 
-0 -0.7561647535860002 0 0 0 0 0 0 0 0 0 0 0 0 0 0 0 0 0 0 0 0 0 0 0 0 0 0 0 0 0 0 0 0 0 0 0 0 0 0 0 1:8.127555 2:5.712442 3:-0.085618 4:5.009117 5:0.095715 6:1.442737 7:3.16653 8:-3.46409 9:-1.082805 10:0.81021 11:0.183272 12:-0.919181 13:-1.353097 14:0.517987 15:-0.75559 16:0.852869 17:0.813315 18:-0.480237 19:0.564957 20:1.04742 21:-0.651888 22:1.379524 23:0.893235 24:-1.099662 25:-2.430763 26:1.417756 27:0.460576 28:0.766956 29:0.608216 30:-1.840658 31:0.570824 32:0.82869 33:1.773463 34:-0.150095 35:-0.918938 36:0.90756 37:-0.24469 38:0.287743 39:-0.629783 40:1.11989 41:0.303849 
-0 -0 0.007049421930384884 0 0 0 0.07182383710962947 0 0 0 0 0 0 0 0 0 0 0 0.07222898768277509 0 0 0 0.01190429385645863 0.2944722534704789 0 0 0 0 0 0 0 0 0 0 0.04868636169061845 0 0 0.006552261678095833 0 0 0.02065206838233344 1:7.6742 2:8.487444 3:-0.771893 4:4.540969 5:0.202808 6:1.7621 7:1.489573 8:-2.983295 9:-0.773375 10:1.315404 11:0.271412 12:-0.391195 13:-0.019297 14:-0.098997 15:0.792717 16:1.188572 17:-0.030926 18:-0.427971 19:0.72883 20:0.553599 21:-1.863937 22:0.707227 23:1.08509 24:0.102099 25:-1.60776 26:-0.096218 27:0.108657 28:-1.050402 29:1.510075 30:-0.248648 31:1.642873 32:1.195903 33:0.955897 34:-0.134516 35:0.160497 36:0.59197 37:1.117982 38:-0.025913 39:-2.47789 40:0.586729 41:-0.567613 
-0.09767329057141808 -0.08392219038829712 0.3884851074327491 0.4970202338657553 0.4370667458762584 0.4411619798079826 0.2546781659284999 0.4844491845347912 0.4645659217258997 0.2786679860883683 0.3803598999899906 0.4489454595745579 0.2405523240116905 0.4663033707338613 0.4848014000159603 0.4350778347388454 0.363045040081767 0.3973506651402104 0.3178025040440638 0.4138134036511631 0.3877463289387609 0.3908044836982263 0.4251377286058637 0.2521763188934502 0.09601275555341957 0.304495220765676 0.1770345111954256 0 0.3068129486515167 0 0.35289027003473 0.4674693862675095 0.3505499582475645 0.6298491378393358 0.3374102444936422 0.3580526167515515 0.4057933566126002 0.2890778360896127 0.3997774445342276 0.4347267933394846 0.342571341782565 1:9.368842 2:11.855033 3:0.207371 4:0.269781 5:0.189356 6:3.801639 7:1.67192 8:-0.35388 9:1.067794 10:1.163924 11:2.448917 12:0.407798 13:0.621856 14:-0.046687 15:-0.376454 16:1.65261 17:1.704866 18:0.772582 19:0.623687 20:0.543581 21:0.566611 22:-0.423964 23:1.319914 24:0.657307 25:-3.077023 26:0.739098 27:0.686469 28:0.110168 29:0.554375 30:-0.973655 31:-0.242402 32:-0.44693 33:0.620543 34:-0.693963 35:0.613992 36:-0.322973 37:0.661515 38:0.024371 39:-1.604768 40:1.47719 41:1.300472 
-0 -0 0 0 0 0 0 0 0 0 0 0 0 0 0 0 0 0 0 0 0 0 0 0 0 0 0 0.3073621408570697 0 0.6253505765612516 0 0 0 0 0 0 0 0 0 0 0 1:7.194171 2:3.605607 3:0.726181 4:4.84359 5:-0.7683 6:-0.971084 7:2.18617 8:-2.333152 9:0.674345 10:0.499777 11:1.045865 12:-0.607434 13:-1.625109 14:-0.031987 15:-0.964502 16:0.41916 17:-0.163142 18:-0.132908 19:-1.058528 20:1.830009 21:1.103759 22:0.567178 23:1.504987 24:-1.211118 25:-1.951153 26:1.215084 27:1.300172 28:0.111459 29:-0.996024 30:-1.822061 31:-0.977399 32:-0.783619 33:1.361977 34:-0.842594 35:-1.256696 36:0.510941 37:-0.38748 38:0.352336 39:-0.249317 40:0.009072 41:1.340545 
-0 -0 0 0 0 0 0 0 0 0 0 0 0 0 0 0 0 0 0 0 0 0 0 0 0 0 0 0.03458891706235475 0 0 0 0 0 0 0 0 0 0 0 0 0 1:7.039767 2:4.590689 3:0.705093 4:4.512434 5:0.468827 6:0.927572 7:1.793694 8:-1.84954 9:-0.004969 10:0.946659 11:0.175761 12:-0.42247 13:-1.343482 14:-0.397286 15:0.021504 16:1.73734 17:0.522504 18:0.426765 19:0.458746 20:1.22202 21:0.117096 22:0.316769 23:1.508128 24:-0.422902 25:-2.487615 26:0.594055 27:1.287536 28:-0.579842 29:0.686147 30:-2.766696 31:0.111493 32:-0.441485 33:2.083821 34:0.113022 35:-1.727047 36:0.139155 37:0.473146 38:0.652467 39:0.689435 40:1.078241 41:0.462743 
-0 -1.213597542941951 0 0 0 0 0 0 0 0 0 0 0 0 0 0 0 0 0 0 0 0 0 0 0 0 0 0 0 0 0 0 0 0 0 0 0 0 0 0 0 1:7.463887 2:9.649828 3:0.204797 4:2.605887 5:1.468643 6:3.081964 7:2.727984 8:-1.424513 9:1.218462 10:0.126232 11:1.542314 12:1.158156 13:-2.022054 14:-1.037164 15:0.021037 16:2.053956 17:0.556704 18:0.635813 19:0.690377 20:1.170261 21:0.785079 22:-1.460759 23:1.651396 24:1.185924 25:-2.523897 26:1.270892 27:1.294275 28:1.538548 29:1.430847 30:0.60334 31:0.573367 32:0.152799 33:-0.675465 34:-0.165989 35:-0.059095 36:0.063727 37:0.9099 38:0.487074 39:-0.993073 40:1.08954 41:1.783661 
-1.498047003372848 -0 0.5022273368636637 0.2381608915334547 0.4613537362533928 0.3347514027139882 1.242780243269123 0.1628260936616247 0.4223755777154536 0.4938389884958701 0.2878464629440137 0.283485737439234 0.6843742442572072 0.3619906600861622 0.2065861278708921 0.1077042736445771 0.6304721410436653 0.2850805215261869 1.698467621469611 0.2919394333374279 0.8564909668053899 0.4755052091201744 0.8688431363226425 0.5009771120334878 1.07211832698509 1.267319927020305 2 1.626828666166334 0.9743116456909203 1.294193004268926 0 0.43751107929225 1.272925724050452 0 2 0.3717914577699434 0.4611811195603369 0.7668991288893633 0.1477572275954468 0.2279047865543092 0.3525844137309613 1:6.300933 2:2.137632 3:1.926354 4:3.665284 5:0.940006 6:-1.740532 7:0.837774 8:-0.4435 9:2.22695 10:0.667871 11:0.568536 12:-0.262563 13:0.761833 14:-1.019725 15:0.165733 16:1.324671 17:0.86896 18:0.551261 19:-1.033018 20:1.343179 21:0.483967 22:2.184594 23:0.762225 24:0.47227 25:-1.319949 26:-0.213303 27:0.190459 28:0.195515 29:0.171496 30:-0.757568 31:-1.439682 32:-0.23739 33:0.288154 34:0.349379 35:0.282416 36:0.449787 37:0.321532 38:1.528877 39:-0.939137 40:-0.669965 41:0.2804 
-0 -2 0 0 0 0 0 0 0 0 0 0 0 0 0 0 0 0 0 0 0 0 0 0 0 0 0 0 0 0 0 0 0 0 0 0 0 0 0 0 0 1:8.364729 2:4.706799 3:0.176643 4:5.236941 5:0.010404 6:-1.286559 7:3.175092 8:-3.871306 9:0.600553 10:1.093107 11:1.051328 12:-0.258071 13:-0.787157 14:-0.517238 15:0.319459 16:-2.055253 17:-1.068691 18:0.481757 19:-0.545227 20:1.002157 21:-0.392013 22:1.550821 23:-0.248378 24:-1.243815 25:-1.074632 26:0.634781 27:0.247765 28:0.243996 29:-0.379299 30:-1.031082 31:-0.323437 32:1.090604 33:1.011428 34:0.67006 35:-0.163785 36:0.736883 37:0.017202 38:0.461559 39:0.46917 40:0.667275 41:-0.812731 
-0 -0 0 0 0 0 0 0 0 0 0 0 0 0 0 0 0 0 0 0 0 0 0 0 0 0 0 0 0 0 0 0 0 0.5918678772428558 0 0 0 0 0 0 0 1:7.190294 2:11.834341 3:-0.46299 4:1.116813 5:1.394766 6:-0.191501 7:2.082347 8:-0.756544 9:1.327716 10:-1.75248 11:2.018573 12:0.716425 13:-0.11752 14:-1.492474 15:-0.033379 16:-0.052099 17:-0.253898 18:0.636386 19:-0.866425 20:0.399594 21:0.652637 22:0.652204 23:2.036795 24:0.556969 25:-2.100622 26:0.647496 27:0.56885 28:0.621464 29:0.89366 30:0.012588 31:-1.027673 32:-0.198826 33:-0.208915 34:-0.568787 35:0.848612 36:-0.906269 37:0.673699 38:0.095665 39:-1.009577 40:0.23324 41:0.784276 
-0 -0 -0 0 0 0 0 0 0.05256583396728919 0 0 0 0 0 0 0 0 0 0 0 0 0 0 0 0 0 0 0 0 0 0 0 0 0 0 0 0 0 0 0 0 1:-1.608305 2:-1.38731 3:-3.63606 4:-0.963618 5:-1.791838 6:-1.190801 7:-2.941926 8:-3.840623 9:2.213975 10:-0.378356 11:1.197213 12:0.056603 13:0.306291 14:-1.109211 15:1.871255 16:-1.200908 17:-0.806126 18:0.605716 19:-1.377084 20:0.784371 21:0.345812 22:0.136758 23:-0.78506 24:0.230673 25:-0.950498 26:-0.149089 27:-0.275334 28:-0.540163 29:0.969708 30:-1.09768 31:2.644857 32:0.418453 33:1.451889 34:1.775986 35:-0.209349 36:-0.761354 37:-0.177252 38:1.536484 39:-1.545335 40:0.29951 41:1.022945 
-0 -0 -0 0 0 0 0 0 0.09443429957977106 0 0 0 0 0.6080010192194549 0 0 0 0 0 0 0 0 0 0 0 0 0 0 0 0.1477512502703115 0.03682058134918749 0 0 0 0 0.0467610386181645 0 0 0 0 0 1:0.332494 2:-2.81606 3:-4.261477 4:-0.477984 5:-2.77792 6:-4.152289 7:-2.119706 8:-0.956802 9:1.66492 10:-2.619128 11:1.097559 12:-0.436312 13:0.096892 14:-0.787155 15:0.880931 16:-0.872584 17:0.215109 18:0.342782 19:-0.352224 20:1.024469 21:-0.854227 22:-2.134068 23:-1.10262 24:-2.003054 25:-1.227872 26:-1.748977 27:-0.540122 28:-0.487691 29:0.348892 30:1.440707 31:0.494642 32:2.089246 33:1.16791 34:0.35561 35:1.076404 36:0.947156 37:-1.003463 38:1.565852 39:-0.182085 40:-1.116609 41:-0.141256 
-0.1481473359769307 -0.1244871851765974 -0.06515103270854425 0 0 0 0 0.01376534161484317 0.653517062743097 0 0.1959249504300247 0 0 0.2638631144092061 0 0.08898656396827616 0 0.1434364750041817 0.0904630189484901 0 0.3960564481724307 0 0 0.09489058469711481 0 0.4580099525625613 0 0 0.1590571726317462 0 0 0.1072219753690751 0.07450042737309134 0.1044553526798179 0.1734180161221321 0 0 0.01415685392667122 0 0 0 1:0.220909 2:-1.831771 3:-3.528472 4:-1.376572 5:-2.694516 6:-2.5525 7:-2.440897 8:-2.829633 9:2.449283 10:-0.079205 11:1.354746 12:0.247793 13:0.764013 14:-1.871717 15:1.756804 16:-1.919914 17:-1.804274 18:-0.795403 19:-0.368082 20:0.73897 21:0.904862 22:-1.353899 23:-0.64539 24:2.067782 25:0.342145 26:0.559372 27:-0.796959 28:0.676162 29:1.210348 30:2.441252 31:2.011059 32:-0.052391 33:0.710787 34:-0.121428 35:-0.168021 36:-1.519619 37:-0.966272 38:-0.627362 39:-1.572591 40:-0.292364 41:-0.727547 
-0.5889237546648118 -0.04486982161752323 -0.2516488451992618 0 0.2617325332808667 0 0.2779013115775004 0 0 0.2117035772858301 0.2563294414360626 0.2915479191097995 1.273061410213079 0 0 0 1.028269785405689 0.2516872659324977 0.6255611504142039 0.2934675672343872 0.2449268274909063 0.02081849341914736 0 0.260939859789774 0.9407323969965383 0.05453487487076818 0.8528272855760405 0.6325912626457987 2 0.8636378287288533 0.4892457066466401 0.1925070914487086 0.2811716244812083 0 0.3053037453893747 0.9163497663429689 0.131178602308958 1.553123696119006 0.07014096236248343 0 0.6797132254393952 1:-0.253511 2:-1.425336 3:-2.351161 4:1.465477 5:-1.006556 6:-1.139708 7:-2.113608 8:-0.035917 9:0.560347 10:-2.735344 11:1.022945 12:1.105212 13:-0.369529 14:-0.468341 15:0.99455 16:-0.417044 17:0.471397 18:1.175004 19:0.307386 20:0.921036 21:-0.784139 22:-0.645558 23:-2.623543 24:-1.567582 25:-0.817359 26:-0.067874 27:-0.745036 28:-2.10759 29:0.461577 30:2.396196 31:-0.05916 32:0.005604 33:1.533424 34:1.520687 35:-1.043146 36:-0.526992 37:0.070089 38:0.935593 39:-0.635303 40:-0.538915 41:-0.677954 
-0 -0.07072970693336422 -0 0.2289173906502158 0 0 0 0.193410166174073 0 0.08548015221035184 0 0.1472831368698007 0 0.2237969405340571 0.1692141521125131 0.1709451626658703 0 0 0 0 0 0 0 0 0 0 0 0 0 0 0 0.1757819829539461 0 0.1828291042880393 0 0 0.1269414188283045 0 0.1848349915260361 0 0.1063466115863845 1:-0.911673 2:-1.87214 3:-4.335516 4:0.570647 5:-1.823172 6:-3.072821 7:-2.367654 8:-0.420088 9:0.201724 10:-3.505612 11:-0.41909 12:-0.192966 13:-0.200965 14:-0.362963 15:0.895109 16:-0.719639 17:1.192435 18:1.711168 19:-0.35786 20:1.277484 21:-0.084447 22:-1.719138 23:-0.581826 24:-2.07677 25:-0.102922 26:-0.404392 27:-1.161813 28:-0.294786 29:0.274302 30:3.615904 31:0.341772 32:0.104475 33:2.719551 34:2.222463 35:-0.015321 36:-0.16948 37:-0.920719 38:0.979916 39:-0.862227 40:-2.347106 41:-1.450809 
-0 -0 -0 0 0 0 0.2864655938206405 0 0 0 0 0 0 0 0 0 0 0 0 0 0 0.3546444989211647 0 0 0 0 0 0 0 0 0 0 0 0 0 0 0 0 0 0 0 1:-0.828466 2:-2.008145 3:-3.405178 4:-1.110394 5:-2.499224 6:-1.977147 7:-1.762988 8:-2.580759 9:1.541949 10:-1.154063 11:0.894173 12:0.539474 13:1.111557 14:-1.464786 15:-0.015679 16:-2.325533 17:0.777516 18:0.663334 19:0.238235 20:1.357017 21:-0.435183 22:-3.473936 23:1.051501 24:-0.114846 25:-1.217099 26:0.910002 27:-0.910056 28:0.565807 29:-0.331739 30:0.557624 31:0.939263 32:1.423523 33:1.43597 34:-0.319583 35:1.587505 36:0.148901 37:0.079452 38:0.227504 39:-0.150214 40:-2.021477 41:0.078021 
-0 -0 -0 0 0 0 0 0 0.8667705744508919 0 0 0 0 0.1106125659935515 0 0 0 0 0 0 0 0 0 0 0 0 0 0 0 0 0 0.1206791342136844 0 0 0 0 0.2026552145854053 0 0 0.5212115323495654 0 1:-2.251129 2:-0.861148 3:-4.723992 4:-0.937818 5:-0.757328 6:-2.665007 7:-0.659346 8:-1.300113 9:2.297769 10:0.687944 11:0.038819 12:-0.606007 13:1.186605 14:-0.441898 15:2.719212 16:-1.617604 17:1.051672 18:-1.217813 19:1.156079 20:0.547989 21:-1.376125 22:-0.894026 23:-1.325678 24:-0.213306 25:0.610948 26:0.987939 27:-1.388901 28:-0.299638 29:1.330296 30:-1.382609 31:2.204348 32:1.273479 33:1.223358 34:-0.313463 35:-1.233355 36:1.794899 37:0.730409 38:0.573812 39:-0.536177 40:0.529433 41:-1.99057 
-0 -0 -0 0 0.241883975178861 0.162035342797285 0 0 0 0 0.06326579579069778 0 0.0743767363575672 0.688056029926695 0 0 0 0 0 0.1300521797174209 0 0.2277156030731436 0 0 0 0 0 0 0.5952250745724217 0 0.1871056748082586 0 0 0 0 0.3590057634293182 0 0 0 0 0 1:-0.490799 2:-1.221102 3:-4.338484 4:-1.375737 5:-2.483516 6:-0.842693 7:-1.556025 8:-0.954258 9:1.384953 10:0.301106 11:-0.148249 12:0.788089 13:-0.149788 14:-0.825274 15:0.610309 16:-1.316584 17:-0.59154 18:-0.073519 19:0.262784 20:0.497809 21:-1.395364 22:-0.376035 23:-0.453941 24:-0.402943 25:-1.265901 26:0.172119 27:-0.372108 28:0.15334 29:3.5901 30:-0.791356 31:2.591717 32:1.15793 33:0.365121 34:0.142906 35:-0.644263 36:0.155026 37:0.987075 38:-0.434159 39:-1.646592 40:0.260864 41:-1.366598 
-0 -0 -0 0 0 0 0 0 0 0 0 0 0.06914454851147871 1.845399903310796 0 0 0 0 0 0 0 0 0 0 0 0 0 0 0 0.1487052681318881 0 0 0 0 0 0 0 0 0 0 0 1:-0.84889 2:-1.468324 3:-5.097968 4:-0.376254 5:-1.788056 6:-0.792191 7:-1.735976 8:-2.034867 9:1.445804 10:-1.49399 11:-0.062315 12:-2.274759 13:0.584727 14:-0.073056 15:1.804494 16:-0.750381 17:-0.868189 18:0.8129 19:0.167025 20:0.144927 21:0.22178 22:-1.367316 23:-0.418447 24:-0.342527 25:0.044736 26:0.632733 27:-2.598374 28:-0.332952 29:1.481965 30:0.019073 31:1.987221 32:0.622318 33:0.507252 34:2.010189 35:0.952646 36:-0.254294 37:-0.582958 38:1.361764 39:-0.91283 40:-0.122132 41:-0.362985 
-0 -0 -0 0 0 0 0 0 0.9329514163013385 0 0 0 0 0.5191963837884744 0 0 0.1424725781572759 0 0 0 0 0 0 0 0 0 0 0 0.2756629902517275 0 0 0 0 0 0 0 0 0.7315403429929156 0 0 0 1:-0.99678 2:-2.135235 3:-4.111529 4:-0.07579 5:-2.42833 6:-3.268478 7:-2.267959 8:-1.053219 9:1.406504 10:-2.917848 11:0.539578 12:-0.038185 13:1.405836 14:0.331716 15:1.323767 16:-1.350134 17:-0.0461 18:1.981 19:-0.531688 20:0.913142 21:1.064638 22:-1.293033 23:-1.581839 24:-0.012724 25:-0.341439 26:0.815306 27:-0.349105 28:-0.680948 29:0.201807 30:2.713097 31:-0.897953 32:0.063374 33:0.09741 34:1.926351 35:-0.053358 36:1.120047 37:-1.387027 38:-1.73426 39:0.820146 40:-0.511592 41:-1.583444 
-0 -0 -0 0 0 0 0 0 0.6998566928946958 0 0 0 0 0 0 0 0 0 0 0 0 0 0 0 0 0 0 0 0 0 0 0 0 0 0 0 0 0.7426756855865275 0 0 0 1:-0.857469 2:-2.155886 3:-2.96742 4:-1.192991 5:-2.642176 6:-3.19121 7:-3.099682 8:-2.340394 9:1.73462 10:-0.545513 11:1.335894 12:1.296584 13:-0.091421 14:0.323927 15:0.775089 16:-0.876923 17:0.628704 18:0.707677 19:-0.514987 20:0.571812 21:1.496072 22:-2.254775 23:-1.099525 24:0.938463 25:-0.692656 26:-0.299954 27:-1.925004 28:0.498058 29:0.718908 30:0.169722 31:1.658651 32:0.054208 33:0.429442 34:-0.077871 35:-1.003458 36:-0.284164 37:0.243469 38:0.871693 39:-1.176368 40:-0.773904 41:-0.724458 
-0 -0 -0 0 0 0 0 0 0.2205721108262342 0 0 0 0 0.2071006154562719 0 0 0 0 0 0 0 0 0 0 0 0 0 0 0 0 0 0 0 0 0 0 0 0 0 0 0 1:-1.548297 2:-1.703319 3:-4.303329 4:-1.441168 5:-1.548086 6:-1.392137 7:-1.953129 8:-0.913981 9:0.351845 10:-1.031432 11:0.032967 12:0.166151 13:0.991558 14:-0.740436 15:1.039565 16:-0.964756 17:0.386206 18:-0.86227 19:0.110945 20:0.588805 21:0.6721 22:-1.512802 23:-0.549174 24:-0.30696 25:0.222761 26:0.9574 27:-0.115469 28:-0.597718 29:2.983489 30:0.057832 31:1.059555 32:-0.227501 33:2.808254 34:-0.652256 35:-0.15343 36:0.055208 37:0.025254 38:0.892878 39:1.389872 40:-1.122009 41:1.287036 
-0 -0.05085706143797163 -0.04370472363771922 0.1417849225937117 0.6102364315103379 0.03213142020669534 0 0.1615715294965231 0 0.1574879065941025 0.1420164605452824 0.06755043030794187 0 0 0.1541184992823072 0.09563815814305965 0.5392925642654345 0.3156402447462206 0 0.2469234669585829 0 0.04820309822349592 0 0 0 0.1592736461613836 0 0 0 0 0.007779131041819321 0.06559700522042985 0.00453465882950145 0.09877507678221097 0.03615972468348114 0 0.1732637898731395 0 0.05491218330071811 0.1743597901822465 0 1:-1.882075 2:-1.564914 3:-3.884584 4:-0.876161 5:0.954645 6:-2.737344 7:-0.59281 8:-1.922682 9:0.830165 10:-0.616348 11:0.370664 12:2.721874 13:-0.44014 14:-0.549764 15:1.684319 16:-3.296202 17:2.303891 18:-0.051009 19:-0.482508 20:0.558964 21:-0.889512 22:-2.019052 23:-2.520847 24:0.379688 25:-0.438682 26:1.250164 27:-1.132545 28:-0.47653 29:3.214333 30:0.115105 31:1.837047 32:-3.347446 33:0.654365 34:1.322397 35:-2.691453 36:0.929014 37:2.276693 38:1.085683 39:0.253787 40:-0.921513 41:1.485263 
-0.8279066849285809 -0.1312880990379595 -0.261189761606187 0 0.3616769632325956 0.3842915318578223 2 0.01764861496677905 0.5589839555177618 0.1600146419356563 0.4693074809656518 0.03876020976621376 0.6140694128456671 0.6761331148448825 0.06321889877089897 0 2 0.09068137975498064 1.079465996752399 1.024519677651796 1.372394814778122 1.322193587539271 2 0.5996632223090955 0.9319491726744235 0.6419090306030525 0.6272219931953468 0.6917540828505929 2 1.187477197233935 0.5464781124565147 0.152533855339292 0.1159793253543962 0 0.4280201206541275 1.152188819841167 0.1467034253826323 0.9040129007820825 0.05072391946528757 0.03745833593411282 1.230636630862021 1:0.500292 2:-1.41056 3:-2.997087 4:0.21644 5:-2.062748 6:-1.315996 7:-1.913242 8:-0.208346 9:-0.026545 10:-0.843251 11:-0.02998 12:2.059313 13:0.125585 14:-1.507807 15:-0.585295 16:-2.269412 17:0.826513 18:-0.153538 19:0.5055 20:-0.210293 21:1.498789 22:-1.19091 23:-0.392921 24:0.836138 25:-0.832009 26:1.429036 27:-0.813777 28:-1.567159 29:0.760606 30:-1.35888 31:2.40709 32:-1.272576 33:-0.139705 34:1.827256 35:-0.463053 36:-1.166716 37:-0.362772 38:0.486792 39:-1.073085 40:0.581663 41:-0.351647 
-0.2939915156516976 -0 -0 0.08011127842558671 0.3252559491806464 0 0.05531312701349384 0 0.2951021092327939 0 0 0.09487281584269412 0.6469576959556975 0 0.09871988055336654 0 0.9455105810261133 0 0 0 0 0 0.1671250513138398 0 0 0 0 0 0.3532878416855719 0 0 0 0 0 0 0 0 0.4737207998495499 0 0 0 1:-1.555659 2:-1.246732 3:-3.006491 4:0.690823 5:-1.415358 6:-2.122032 7:-1.38858 8:-1.196733 9:1.124882 10:-2.365857 11:0.574883 12:1.404401 13:-0.220266 14:-1.447969 15:0.727497 16:-3.304627 17:1.957699 18:1.988281 19:-0.325939 20:1.280575 21:-1.098142 22:-1.06833 23:-1.040071 24:-0.142366 25:1.164654 26:0.551378 27:0.381186 28:-0.835366 29:0.711904 30:0.291315 31:0.182232 32:0.477087 33:0.328935 34:0.450664 35:1.058395 36:0.21487 37:-0.545442 38:-0.817118 39:-1.768005 40:-0.898771 41:0.278952 
-0.2072739683545463 -0.10461983716541 -0.1529631150756771 0.02818138919519 0.158084112194627 0.2841450461195869 2 0.0830684022622708 0 0.1830655702149068 0 0 0.5495828684159123 0.09280515378424689 0 0.08481049287420112 1.491379063176392 0.09217662134103832 0.3935225895913499 1.054610344226292 1.215704568257364 0.7420625882015474 1.808897567563876 0.4800815461386834 1.18122817209898 0.6765342444899507 0.6788598174257716 0.5069641354505779 2 0.6507529177016157 0.3748063170469809 0.5936379321177446 0.2831016792986068 0.08714332730379855 0.2954475232723076 0.373617727736727 0.3710459238867417 0.9071154302165438 0.02439800476848632 0.02787568429141677 0.4431254708882379 1:0.289655 2:-1.770824 3:-2.014132 4:-0.34697 5:-2.472313 6:-2.262285 7:-1.697802 8:0.46739 9:-0.709872 10:-0.694163 11:0.293378 12:0.578677 13:1.134466 14:-2.212983 15:-0.316808 16:-1.815393 17:0.591744 18:-0.317491 19:-1.381795 20:0.84198 21:-0.834325 22:-1.400326 23:-0.56342 24:-0.018881 25:-0.706217 26:-2.298521 27:0.129304 28:-1.420909 29:1.924359 30:0.448227 31:1.060905 32:-1.504943 33:2.785502 34:1.469428 35:-0.773005 36:0.542235 37:-1.930905 38:1.064003 39:-0.165929 40:0.146718 41:0.654514 
-0 -0.03009027101638701 -0 0.2355790202225655 0 0 0.5240018056540879 0.1209341915510672 0 0 0 0.1527874159780275 0 0 0.1974478291181455 0.06138181060090622 0.02190944572945901 0 0.0801909282778588 0 0.05203833396214697 0 0 0 0.2327850853949706 0 0 0 0 0 0 0 0 0.054692898861097 0 0 0.29218754778065 0 0.2240733718020644 0 0 1:-1.520219 2:-0.944175 3:-4.081875 4:0.910988 5:-2.277411 6:-1.92488 7:-2.602995 8:-0.882067 9:1.359084 10:-0.072231 11:0.329361 12:1.752552 13:1.236049 14:0.473882 15:0.497063 16:-1.096141 17:-0.441279 18:0.337415 19:1.144036 20:1.688304 21:-0.455188 22:-1.204568 23:-3.272323 24:-1.959047 25:1.156692 26:1.554363 27:-0.899611 28:0.230535 29:1.053321 30:0.358958 31:0.694058 32:0.076256 33:2.275979 34:-0.924421 35:0.865907 36:1.07872 37:-0.454245 38:-1.051056 39:2.106745 40:-0.108263 41:-2.028407 
-0.2685304120394927 -0.2067467941623751 -0.2650889668910642 0.4037849110321082 1.175502228533088 0.7704474342709869 0.2166439663665673 0.3462403782749695 1.568764789620129 0.1034777537561155 0.1393530720719048 0.3801013388253189 0.04530732682579863 0.8434764866618919 0.4186348284719796 0.2134593749629287 1.051252321685152 0.2735647886300273 0.2079374424141597 1.190050886299448 0.5455539709778174 0.7436611047485042 2 0.3294740132875193 0.005108042992530948 0.109958651267664 0.339842346150196 0.4001937133433131 1.265362349011829 0.2557667090133325 0.2225839478170738 0.9980581264676943 0.2357422835964788 0.2330036791572029 0.2016128532990495 1.000241753386835 0.3075899455979022 0 0.6267083824410543 0.7879304380645615 0.6138887640934376 1:-1.857182 2:-1.091203 3:-5.381358 4:-1.414518 5:-1.013983 6:-0.773254 7:-0.046095 8:-0.248394 9:0.7773 10:1.867987 11:-0.73424 12:-0.016991 13:0.61399 14:-0.819572 15:2.343081 16:-2.302061 17:-0.512525 18:0.045212 19:-0.496633 20:2.353057 21:0.875028 22:1.114641 23:-0.484808 24:-1.526581 25:-0.200765 26:0.645986 27:-2.433906 28:0.170554 29:1.048219 30:1.725857 31:0.199012 32:1.928108 33:-0.363624 34:-0.377049 35:-0.654172 36:1.181035 37:1.023278 38:0.729181 39:-0.127234 40:1.70488 41:-0.221967 
-0.07771509458900569 -0.3729105885332281 -0.3404695812871474 0.5070105814629449 0 0 0 0.443416989556408 0.7628222625311178 0.2636496677262142 0.05275032722622354 0.439738581332266 0 0 0.4002971672007587 0.4004495217253455 0.05244934860523021 0.3072097305864586 0 0 0.1184052073152641 0 0 0.186131766100986 0 0.01666564612541107 0.1022396516219634 0.1545307951095762 0 0 0.2826406238117186 0.276429215006372 0.2650778293689572 0.4318835085147444 0.1838949432962888 0 0.3074930732565787 0 0.3288565024451022 0.1169494433456794 0 1:-1.334475 2:-0.117106 3:-3.993379 4:-0.607653 5:-1.896419 6:-4.233752 7:-1.398453 8:-2.516824 9:0.734658 10:-0.319793 11:1.316363 12:1.461443 13:0.351061 14:-0.622983 15:2.693847 16:-4.025069 17:1.667939 18:-1.290515 19:-1.639252 20:-0.09522 21:0.843963 22:-3.420241 23:-2.415486 24:0.724891 25:-3.147939 26:0.523006 27:-1.835748 28:0.263147 29:1.015993 30:-0.66669 31:3.297798 32:-3.260454 33:-0.693407 34:1.401628 35:-1.077542 36:0.420945 37:-1.574341 38:2.634401 39:1.440808 40:1.610738 41:1.66255 
-0.255137168666701 -0.1080683396267895 -0.1203951436021841 0.2372227919025474 0.2493564696000221 0.06219516242744329 0.5519453483265954 0.1893509493408662 1.20389200907205 0.1090123901411486 0.2844982781726124 0.0939325810178421 0 0 0.3953258602717262 0.114724960635182 0.1899259479734298 0.3331280846919555 0.2482525765890835 0.3817249467627685 0.1851520546797002 0.4300093973186184 0 0.2140176225309963 0.6330579761566545 0.2985122943138681 0.3715453371244298 0.2133380686731415 0.1001695298552174 0 0.1637483510386984 0.06785533609186696 0.1919337300034581 0.1135903641888046 0.2025421676294817 0.2494781106352457 0.3028862893283871 0.0114971849241762 0.007083251455736915 0.3622589565770492 0.2399232601021503 1:-2.062523 2:-1.475993 3:-4.367349 4:-0.550367 5:-0.471625 6:-1.804768 7:-0.322251 8:-0.947602 9:1.980222 10:0.681413 11:0.053598 12:1.313671 13:1.34765 14:1.24025 15:1.466114 16:-3.113744 17:2.175407 18:0.449107 19:1.254749 20:1.328431 21:1.298753 22:-0.482035 23:-0.588877 24:-2.255961 25:-0.956613 26:-0.07216 27:0.502064 28:-0.625349 29:-0.616306 30:3.162907 31:-0.182722 32:1.475274 33:2.389455 34:1.007834 35:-0.771173 36:3.025866 37:0.882404 38:-1.020526 39:0.82104 40:0.646473 41:-0.895015 
